{"learner":{"attributes":{"scikit_learn":"{\"_estimator_type\": \"regressor\"}"},"feature_names":["recvBitrateKbps","sendBitrateKbps","fpsRecv","jitterMs","rttMs","packetsLost","pixelArea","recvBitrateDiff","jitterDiff","rttDiff"],"feature_types":["float","float","float","float","float","int","float","float","float","float"],"gradient_booster":{"model":{"cats":{"enc":[],"feature_segments":[],"sorted_idx":[]},"gbtree_model_param":{"num_parallel_tree":"1","num_trees":"200"},"iteration_indptr":[0,1,2,3,4,5,6,7,8,9,10,11,12,13,14,15,16,17,18,19,20,21,22,23,24,25,26,27,28,29,30,31,32,33,34,35,36,37,38,39,40,41,42,43,44,45,46,47,48,49,50,51,52,53,54,55,56,57,58,59,60,61,62,63,64,65,66,67,68,69,70,71,72,73,74,75,76,77,78,79,80,81,82,83,84,85,86,87,88,89,90,91,92,93,94,95,96,97,98,99,100,101,102,103,104,105,106,107,108,109,110,111,112,113,114,115,116,117,118,119,120,121,122,123,124,125,126,127,128,129,130,131,132,133,134,135,136,137,138,139,140,141,142,143,144,145,146,147,148,149,150,151,152,153,154,155,156,157,158,159,160,161,162,163,164,165,166,167,168,169,170,171,172,173,174,175,176,177,178,179,180,181,182,183,184,185,186,187,188,189,190,191,192,193,194,195,196,197,198,199,200],"tree_info":[0,0,0,0,0,0,0,0,0,0,0,0,0,0,0,0,0,0,0,0,0,0,0,0,0,0,0,0,0,0,0,0,0,0,0,0,0,0,0,0,0,0,0,0,0,0,0,0,0,0,0,0,0,0,0,0,0,0,0,0,0,0,0,0,0,0,0,0,0,0,0,0,0,0,0,0,0,0,0,0,0,0,0,0,0,0,0,0,0,0,0,0,0,0,0,0,0,0,0,0,0,0,0,0,0,0,0,0,0,0,0,0,0,0,0,0,0,0,0,0,0,0,0,0,0,0,0,0,0,0,0,0,0,0,0,0,0,0,0,0,0,0,0,0,0,0,0,0,0,0,0,0,0,0,0,0,0,0,0,0,0,0,0,0,0,0,0,0,0,0,0,0,0,0,0,0,0,0,0,0,0,0,0,0,0,0,0,0,0,0,0,0,0,0,0,0,0,0,0,0],"trees":[{"base_weights":[-1.2777424E-2,-1.2374177E0,4.326431E-1,-8.2178235E-1,-1.778218E0,7.644763E-2,-8.89613E-2,-7.89439E-2,-1.9802093E-3,-1.7450115E-1,-7.207922E-2,-2.187649E-1,-2.3256927E-3,-5.2599025E-1,-2.206519E-3,-5.5313542E-2,-1.5841675E-3],"categories":[],"categories_nodes":[],"categories_segments":[],"categories_sizes":[],"default_left":[0,0,0,0,0,0,0,0,0,0,0,0,0,0,0,0,0],"id":0,"left_children":[1,3,5,7,9,-1,11,-1,-1,-1,-1,13,-1,15,-1,-1,-1],"loss_changes":[9.817626E1,9.327927E0,3.609121E1,3.7897434E0,5.1059723E0,0E0,5.144953E-1,0E0,0E0,0E0,0E0,1.2189567E0,0E0,6.56214E-1,0E0,0E0,0E0],"parents":[2147483647,0,0,1,1,2,2,3,3,4,4,6,6,11,11,13,13],"right_children":[2,4,6,8,10,-1,12,-1,-1,-1,-1,14,-1,16,-1,-1,-1],"split_conditions":[8.060373E2,1.74E2,4E0,1.5431314E2,4.05E2,7.644763E-2,3.21E2,-7.89439E-2,-1.9802093E-3,-1.7450115E-1,-7.207922E-2,1.562868E3,-2.3256927E-3,1E0,-2.206519E-3,-5.5313542E-2,-1.5841675E-3],"split_indices":[0,4,4,0,4,0,4,0,0,0,0,0,0,5,0,0,0],"split_type":[0,0,0,0,0,0,0,0,0,0,0,0,0,0,0,0,0],"sum_hessian":[1.78E2,4.7E1,1.31E2,2.8E1,1.9E1,6.5E1,6.6E1,2.3E1,5E0,1.2E1,7E0,2E1,4.6E1,7E0,1.3E1,5E0,2E0],"tree_param":{"num_deleted":"0","num_feature":"10","num_nodes":"17","size_leaf_vector":"1"}},{"base_weights":[6.172052E-3,-1.1537032E0,3.8997126E-1,-7.8846836E-1,-1.6161491E-1,7.045636E-2,-7.891531E-2,-2.5673276E-1,-7.334537E-2,-2.6240356E-2,-6.2360927E-2,-1.848189E-3,-5.107328E-2,-6.2878925E-4,-2.160555E-3,1.0244178E-3,-1.0998725E-3],"categories":[],"categories_nodes":[],"categories_segments":[],"categories_sizes":[],"default_left":[0,0,0,0,0,0,0,0,0,0,0,0,0,0,0,0,0],"id":1,"left_children":[1,3,5,7,-1,-1,9,11,-1,13,-1,-1,-1,15,-1,-1,-1],"loss_changes":[8.235921E1,1.296476E1,3.205316E1,2.085043E0,0E0,0E0,2.6366248E0,6.9863343E-1,0E0,1.3180859E-3,0E0,0E0,0E0,7.0479873E-4,0E0,0E0,0E0],"parents":[2147483647,0,0,1,1,2,2,3,3,6,6,7,7,9,9,13,13],"right_children":[2,4,6,8,-1,-1,10,12,-1,14,-1,-1,-1,16,-1,-1,-1],"split_conditions":[8.060373E2,1.2E1,4E0,1E0,-1.6161491E-1,7.045636E-2,2.1E1,6.2185815E2,-7.334537E-2,-2E1,-6.2360927E-2,-1.848189E-3,-5.107328E-2,1.081206E3,-2.160555E-3,1.0244178E-3,-1.0998725E-3],"split_indices":[0,3,4,5,0,0,3,1,0,9,0,0,0,0,0,0,0],"split_type":[0,0,0,0,0,0,0,0,0,0,0,0,0,0,0,0,0],"sum_hessian":[1.83E2,4.5E1,1.38E2,3.3E1,1.2E1,6.7E1,7.1E1,7E0,2.6E1,6.7E1,4E0,5E0,2E0,2E0,6.5E1,1E0,1E0],"tree_param":{"num_deleted":"0","num_feature":"10","num_nodes":"17","size_leaf_vector":"1"}},{"base_weights":[3.7353557E-2,-1.0016617E0,3.217594E-1,-7.0435315E-1,-1.3771543E-1,7.878408E-1,-1.17892385E-1,-1.7249744E-3,-6.720391E-2,-3.509655E-2,6.493041E-2,-4.9064897E-2,-6.314604E-2,-3.537114E-2,-3.6960352E-2,-2.41406E-2,-2.3924619E-1,-4.828771E-5,-1.989336E-3,-3.6262024E-2,-1.3449097E-3],"categories":[],"categories_nodes":[],"categories_segments":[],"categories_sizes":[],"default_left":[0,0,0,0,0,0,0,0,0,0,0,0,0,0,0,0,0,0,0,0,0],"id":2,"left_children":[1,3,5,7,-1,9,11,-1,-1,-1,-1,13,-1,-1,15,17,19,-1,-1,-1,-1],"loss_changes":[5.499016E1,7.347378E0,3.0010252E1,2.7614412E0,0E0,2.4277573E0,3.473464E0,0E0,0E0,0E0,0E0,3.1671742E-1,0E0,0E0,1.73159E-1,1.1129454E-3,1.8280996E-1,0E0,0E0,0E0,0E0],"parents":[2147483647,0,0,1,1,2,2,3,3,5,5,6,6,11,11,14,14,15,15,16,16],"right_children":[2,4,6,8,-1,10,12,-1,-1,-1,-1,14,-1,-1,16,18,20,-1,-1,-1,-1],"split_conditions":[8.192957E2,4E1,4E0,3.072E5,-1.3771543E-1,1.3E1,1.8E1,-1.7249744E-3,-6.720391E-2,-3.509655E-2,6.493041E-2,9.026729E2,-6.314604E-2,-3.537114E-2,6.2E2,-2E1,9.5312067E2,-4.828771E-5,-1.989336E-3,-3.6262024E-2,-1.3449097E-3],"split_indices":[1,3,4,6,0,2,3,0,0,0,0,1,0,0,4,9,1,0,0,0,0],"split_type":[0,0,0,0,0,0,0,0,0,0,0,0,0,0,0,0,0,0,0,0,0],"sum_hessian":[1.84E2,3.9E1,1.45E2,2.9E1,1E1,7E1,7.5E1,5E0,2.4E1,1E0,6.9E1,6.9E1,6E0,1E0,6.8E1,6.5E1,3E0,2E0,6.3E1,1E0,2E0],"tree_param":{"num_deleted":"0","num_feature":"10","num_nodes":"21","size_leaf_vector":"1"}},{"base_weights":[-2.4738345E-2,-9.9377865E-1,3.343487E-1,-7.110124E-1,-1.3951053E-1,5.9797615E-2,-9.609505E-2,-1.5455628E-3,-6.334558E-2,-2.1179779E-2,-5.8816023E-2,-2.2164924E-2,1.5171623E-3,-5.6704283E-3,-1.8346859E-3,-1.2617619E-3,9.853744E-4],"categories":[],"categories_nodes":[],"categories_segments":[],"categories_sizes":[],"default_left":[0,0,0,0,0,0,0,0,0,0,0,0,0,0,0,0,0],"id":3,"left_children":[1,3,5,7,-1,-1,9,-1,-1,11,-1,13,-1,15,-1,-1,-1],"loss_changes":[6.435872E1,9.365269E0,2.407828E1,2.1086712E0,0E0,0E0,3.1923044E0,0E0,0E0,2.8327778E-3,0E0,6.3066743E-4,0E0,9.210812E-4,0E0,0E0,0E0],"parents":[2147483647,0,0,1,1,2,2,3,3,6,6,9,9,11,11,13,13],"right_children":[2,4,6,8,-1,-1,10,-1,-1,12,-1,14,-1,16,-1,-1,-1],"split_conditions":[8.060373E2,4E1,4E0,3.072E5,-1.3951053E-1,5.9797615E-2,2.1E1,-1.5455628E-3,-6.334558E-2,1.8E1,-5.8816023E-2,-7E0,1.5171623E-3,1.9E2,-1.8346859E-3,-1.2617619E-3,9.853744E-4],"split_indices":[0,3,4,6,0,0,3,0,0,3,0,8,0,4,0,0,0],"split_type":[0,0,0,0,0,0,0,0,0,0,0,0,0,0,0,0,0],"sum_hessian":[1.83E2,4.9E1,1.34E2,3.7E1,1.2E1,6.8E1,6.6E1,4E0,3.3E1,6E1,6E0,5.9E1,1E0,3E0,5.6E1,2E0,1E0],"tree_param":{"num_deleted":"0","num_feature":"10","num_nodes":"17","size_leaf_vector":"1"}},{"base_weights":[3.520291E-2,-8.538224E-1,3.1471995E-1,-6.298544E-1,-1.25978E-1,5.512751E-2,-7.463245E-2,-1.5069325E-3,-5.8223836E-2,-1.9628251E-2,-5.3379197E-2,-2.0490408E-2,1.45648E-3,3.1383833E-4,-1.6924673E-3,-9.082985E-4,9.4595907E-4],"categories":[],"categories_nodes":[],"categories_segments":[],"categories_sizes":[],"default_left":[0,0,0,0,0,0,0,0,0,0,0,0,0,0,0,0,0],"id":4,"left_children":[1,3,5,7,-1,-1,9,-1,-1,11,-1,13,-1,15,-1,-1,-1],"loss_changes":[4.6737785E1,6.273815E0,2.0895596E1,2.1407204E0,0E0,0E0,2.3012125E0,0E0,0E0,2.5259089E-3,0E0,9.0649165E-4,0E0,5.37156E-4,0E0,0E0,0E0],"parents":[2147483647,0,0,1,1,2,2,3,3,6,6,9,9,11,11,13,13],"right_children":[2,4,6,8,-1,-1,10,-1,-1,12,-1,14,-1,16,-1,-1,-1],"split_conditions":[8.060373E2,4E1,4E0,3.072E5,-1.25978E-1,5.512751E-2,2.1E1,-1.5069325E-3,-5.8223836E-2,1.8E1,-5.3379197E-2,-7E0,1.45648E-3,1.0564852E3,-1.6924673E-3,-9.082985E-4,9.4595907E-4],"split_indices":[0,3,4,6,0,0,3,0,0,3,0,8,0,0,0,0,0],"split_type":[0,0,0,0,0,0,0,0,0,0,0,0,0,0,0,0,0],"sum_hessian":[1.86E2,4.4E1,1.42E2,3.5E1,9E0,7.2E1,7E1,5E0,3E1,6.5E1,5E0,6.4E1,1E0,2E0,6.2E1,1E0,1E0],"tree_param":{"num_deleted":"0","num_feature":"10","num_nodes":"17","size_leaf_vector":"1"}},{"base_weights":[-2.3172947E-2,-8.562873E-1,2.6263177E-1,-6.004776E-1,-1.1990521E-1,5.071456E-2,-7.7094555E-2,-1.3502197E-3,-5.3832006E-2,-1.8114213E-2,-5.1122632E-2,-1.8906297E-2,1.3982201E-3,9.081173E-4,-1.5629393E-3],"categories":[],"categories_nodes":[],"categories_segments":[],"categories_sizes":[],"default_left":[0,0,0,0,0,0,0,0,0,0,0,0,0,0,0],"id":5,"left_children":[1,3,5,7,-1,-1,9,-1,-1,11,-1,13,-1,-1,-1],"loss_changes":[4.4751083E1,6.9895096E0,1.7708538E1,1.510211E0,0E0,0E0,2.4410298E0,0E0,0E0,2.2474881E-3,0E0,1.4998484E-3,0E0,0E0,0E0],"parents":[2147483647,0,0,1,1,2,2,3,3,6,6,9,9,11,11],"right_children":[2,4,6,8,-1,-1,10,-1,-1,12,-1,14,-1,-1,-1],"split_conditions":[8.060373E2,4E1,4E0,3.072E5,-1.1990521E-1,5.071456E-2,2.1E1,-1.3502197E-3,-5.3832006E-2,1.2E1,-5.1122632E-2,-2E1,1.3982201E-3,9.081173E-4,-1.5629393E-3],"split_indices":[0,3,4,6,0,0,3,0,0,3,0,9,0,0,0],"split_type":[0,0,0,0,0,0,0,0,0,0,0,0,0,0,0],"sum_hessian":[1.86E2,4.7E1,1.39E2,3.5E1,1.2E1,6.6E1,7.3E1,4E0,3.1E1,6.7E1,6E0,6.6E1,1E0,1E0,6.5E1],"tree_param":{"num_deleted":"0","num_feature":"10","num_nodes":"15","size_leaf_vector":"1"}},{"base_weights":[-1.5510614E-2,-7.701587E-1,2.595077E-1,-5.4441947E-1,-1.1105067E-1,4.6748295E-2,-6.4418E-2,-1.316452E-3,-4.972618E-2,-1.6556794E-2,-4.6412397E-2,-1.7327778E-2,1.342287E-3,8.717918E-4,-1.4351255E-3],"categories":[],"categories_nodes":[],"categories_segments":[],"categories_sizes":[],"default_left":[0,0,0,0,0,0,0,0,0,0,0,0,0,0,0],"id":6,"left_children":[1,3,5,7,-1,-1,9,-1,-1,11,-1,13,-1,-1,-1],"loss_changes":[3.963285E1,6.3588333E0,1.4769277E1,1.578495E0,0E0,0E0,1.742944E0,0E0,0E0,1.9870047E-3,0E0,1.3169833E-3,0E0,0E0,0E0],"parents":[2147483647,0,0,1,1,2,2,3,3,6,6,9,9,11,11],"right_children":[2,4,6,8,-1,-1,10,-1,-1,12,-1,14,-1,-1,-1],"split_conditions":[8.060373E2,4E1,4E0,3.072E5,-1.1105067E-1,4.6748295E-2,2.1E1,-1.316452E-3,-4.972618E-2,1.2E1,-4.6412397E-2,-2E1,1.342287E-3,8.717918E-4,-1.4351255E-3],"split_indices":[0,3,4,6,0,0,3,0,0,3,0,9,0,0,0],"split_type":[0,0,0,0,0,0,0,0,0,0,0,0,0,0,0],"sum_hessian":[1.89E2,5E1,1.39E2,3.8E1,1.2E1,6.9E1,7E1,5E0,3.3E1,6.5E1,5E0,6.4E1,1E0,1E0,6.3E1],"tree_param":{"num_deleted":"0","num_feature":"10","num_nodes":"15","size_leaf_vector":"1"}},{"base_weights":[-3.2896968E-4,-7.029855E-1,2.2856922E-1,-5.0406384E-1,-9.886743E-2,4.3003358E-2,-6.1326794E-2,-1.179535E-3,-4.568382E-2,-1.5354395E-2,-4.3318234E-2,-1.6109463E-2,1.2885951E-3,-1.5463034E-3,-1.3249274E-3,8.36916E-4,-1.0224724E-3],"categories":[],"categories_nodes":[],"categories_segments":[],"categories_sizes":[],"default_left":[0,0,0,0,0,0,0,0,0,0,0,0,0,0,0,0,0],"id":7,"left_children":[1,3,5,7,-1,-1,9,-1,-1,11,-1,13,-1,15,-1,-1,-1],"loss_changes":[2.814629E1,3.9349232E0,1.1856202E1,1.073206E0,0E0,0E0,1.5147712E0,0E0,0E0,1.7798543E-3,0E0,3.8921274E-4,0E0,5.3841376E-4,0E0,0E0,0E0],"parents":[2147483647,0,0,1,1,2,2,3,3,6,6,9,9,11,11,13,13],"right_children":[2,4,6,8,-1,-1,10,-1,-1,12,-1,14,-1,16,-1,-1,-1],"split_conditions":[8.060373E2,4E1,4E0,3.072E5,-9.886743E-2,4.3003358E-2,2.1E1,-1.179535E-3,-4.568382E-2,1.8E1,-4.3318234E-2,-2E1,1.2885951E-3,1.081206E3,-1.3249274E-3,8.36916E-4,-1.0224724E-3],"split_indices":[0,3,4,6,0,0,3,0,0,3,0,9,0,0,0,0,0],"split_type":[0,0,0,0,0,0,0,0,0,0,0,0,0,0,0,0,0],"sum_hessian":[1.73E2,4.2E1,1.31E2,3.2E1,1E1,6.3E1,6.8E1,4E0,2.8E1,6.3E1,5E0,6.2E1,1E0,2E0,6E1,1E0,1E0],"tree_param":{"num_deleted":"0","num_feature":"10","num_nodes":"17","size_leaf_vector":"1"}},{"base_weights":[-1.3144254E-2,-6.4973134E-1,2.0219919E-1,-4.5761555E-1,-1.2368726E0,3.9635886E-2,-6.2079962E-2,-1.1500359E-3,-4.2113803E-2,-1.2547582E-1,-6.586696E-2,-1.4203047E-2,-4.1464113E-2,-1.4876618E-2,1.2370491E-3,-1.4844736E-3,-1.2212677E-3,8.03442E-4,-9.815788E-4],"categories":[],"categories_nodes":[],"categories_segments":[],"categories_sizes":[],"default_left":[0,0,0,0,0,0,0,0,0,0,0,0,0,0,0,0,0,0,0],"id":8,"left_children":[1,3,5,7,9,-1,11,-1,-1,-1,-1,13,-1,15,-1,17,-1,-1,-1],"loss_changes":[2.5492073E1,4.735546E0,1.0803215E1,1.1208596E0,2.1693802E-1,0E0,1.6089816E0,0E0,0E0,0E0,0E0,1.5888326E-3,0E0,3.2658223E-4,0E0,4.962065E-4,0E0,0E0,0E0],"parents":[2147483647,0,0,1,1,2,2,3,3,4,4,6,6,11,11,13,13,15,15],"right_children":[2,4,6,8,10,-1,12,-1,-1,-1,-1,14,-1,16,-1,18,-1,-1,-1],"split_conditions":[7.993357E2,1.6E1,4E0,3.072E5,4.4687695E2,3.9635886E-2,2.1E1,-1.1500359E-3,-4.2113803E-2,-1.2547582E-1,-6.586696E-2,1.8E1,-4.1464113E-2,-2E1,1.2370491E-3,1.081206E3,-1.2212677E-3,8.03442E-4,-9.815788E-4],"split_indices":[0,3,4,6,0,0,3,0,0,0,0,3,0,9,0,0,0,0,0],"split_type":[0,0,0,0,0,0,0,0,0,0,0,0,0,0,0,0,0,0,0],"sum_hessian":[1.84E2,4.6E1,1.38E2,3.6E1,1E1,6.5E1,7.3E1,5E0,3.1E1,4E0,6E0,6.7E1,6E0,6.6E1,1E0,2E0,6.4E1,1E0,1E0],"tree_param":{"num_deleted":"0","num_feature":"10","num_nodes":"19","size_leaf_vector":"1"}},{"base_weights":[-6.0335035E-3,-6.3046265E-1,1.8544137E-1,-4.3034184E-1,-1.1553175E0,3.6504433E-2,-5.827922E-2,-1.030426E-3,-3.9161533E-2,-1.1744537E-1,-6.1350368E-2,-1.3060562E-2,-3.862086E-2,-1.3708284E-2,1.187563E-3,-1.4250278E-3,-1.1255896E-3,7.7130314E-4,-9.423065E-4],"categories":[],"categories_nodes":[],"categories_segments":[],"categories_sizes":[],"default_left":[0,0,0,0,0,0,0,0,0,0,0,0,0,0,0,0,0,0,0],"id":9,"left_children":[1,3,5,7,9,-1,11,-1,-1,-1,-1,13,-1,15,-1,17,-1,-1,-1],"loss_changes":[2.1399038E1,3.9142647E0,9.070667E0,7.8423166E-1,2.1049118E-1,0E0,1.3948923E0,0E0,0E0,0E0,0E0,1.4145011E-3,0E0,2.730852E-4,0E0,4.5729856E-4,0E0,0E0,0E0],"parents":[2147483647,0,0,1,1,2,2,3,3,4,4,6,6,11,11,13,13,15,15],"right_children":[2,4,6,8,10,-1,12,-1,-1,-1,-1,14,-1,16,-1,18,-1,-1,-1],"split_conditions":[8.060373E2,1.2E1,4E0,3.072E5,4.4687695E2,3.6504433E-2,2.1E1,-1.030426E-3,-3.9161533E-2,-1.1744537E-1,-6.1350368E-2,1.8E1,-3.862086E-2,-2E1,1.187563E-3,1.081206E3,-1.1255896E-3,7.7130314E-4,-9.423065E-4],"split_indices":[0,3,4,6,0,0,3,0,0,0,0,3,0,9,0,0,0,0,0],"split_type":[0,0,0,0,0,0,0,0,0,0,0,0,0,0,0,0,0,0,0],"sum_hessian":[1.77E2,4.1E1,1.36E2,3.1E1,1E1,6.4E1,7.2E1,4E0,2.7E1,4E0,6E0,6.6E1,6E0,6.5E1,1E0,2E0,6.3E1,1E0,1E0],"tree_param":{"num_deleted":"0","num_feature":"10","num_nodes":"19","size_leaf_vector":"1"}},{"base_weights":[-9.381662E-3,-5.650326E-1,1.9056027E-1,-3.8721934E-1,-1.0413303E0,3.367342E-2,-4.9236037E-2,-1.0046641E-3,-3.548845E-2,-1.0992886E-1,-5.9259914E-2,-1.1959933E-2,-3.5091344E-2,-1.2602177E-2,1.1400604E-3,-1.3680458E-3,-1.0358467E-3,7.404518E-4,-9.046173E-4],"categories":[],"categories_nodes":[],"categories_segments":[],"categories_sizes":[],"default_left":[0,0,0,0,0,0,0,0,0,0,0,0,0,0,0,0,0,0,0],"id":10,"left_children":[1,3,5,7,9,-1,11,-1,-1,-1,-1,13,-1,15,-1,17,-1,-1,-1],"loss_changes":[2.0994081E1,3.8313808E0,7.698929E0,7.972069E-1,2.8248787E-1,0E0,9.9632555E-1,0E0,0E0,0E0,0E0,1.2569474E-3,0E0,2.2710115E-4,0E0,4.2144826E-4,0E0,0E0,0E0],"parents":[2147483647,0,0,1,1,2,2,3,3,4,4,6,6,11,11,13,13,15,15],"right_children":[2,4,6,8,10,-1,12,-1,-1,-1,-1,14,-1,16,-1,18,-1,-1,-1],"split_conditions":[8.060373E2,4E1,4E0,3.072E5,4.4687695E2,3.367342E-2,2.1E1,-1.0046641E-3,-3.548845E-2,-1.0992886E-1,-5.9259914E-2,1.8E1,-3.5091344E-2,-2E1,1.1400604E-3,1.081206E3,-1.0358467E-3,7.404518E-4,-9.046173E-4],"split_indices":[0,3,4,6,0,0,3,0,0,0,0,3,0,9,0,0,0,0,0],"split_type":[0,0,0,0,0,0,0,0,0,0,0,0,0,0,0,0,0,0,0],"sum_hessian":[1.87E2,4.9E1,1.38E2,3.7E1,1.2E1,7E1,6.8E1,5E0,3.2E1,4E0,8E0,6.3E1,5E0,6.2E1,1E0,2E0,6E1,1E0,1E0],"tree_param":{"num_deleted":"0","num_feature":"10","num_nodes":"19","size_leaf_vector":"1"}},{"base_weights":[-7.891372E-3,-5.421848E-1,1.6771856E-1,-3.74031E-1,-9.8745143E-1,3.101117E-2,-5.1467277E-2,-8.439159E-4,-4.077778E-1,-1.0289342E-1,-5.4185785E-2,-1.1032699E-2,-3.35663E-2,-3.3448335E-2,-1.3487034E-2,-1.1632606E-2,1.0944557E-3,-1.3133684E-3,-9.555441E-4,7.108307E-4,-8.684349E-4],"categories":[],"categories_nodes":[],"categories_segments":[],"categories_sizes":[],"default_left":[0,0,0,0,0,0,0,0,0,0,0,0,0,0,0,0,0,0,0,0,0],"id":11,"left_children":[1,3,5,7,9,-1,11,-1,13,-1,-1,15,-1,-1,-1,17,-1,19,-1,-1,-1],"loss_changes":[1.7448975E1,3.0748339E0,6.7684526E0,4.250207E-1,2.4053669E-1,0E0,1.0521656E0,0E0,8.551598E-3,0E0,0E0,1.1228155E-3,0E0,0E0,0E0,1.901649E-4,0E0,3.8840628E-4,0E0,0E0,0E0],"parents":[2147483647,0,0,1,1,2,2,3,3,4,4,6,6,8,8,11,11,15,15,17,17],"right_children":[2,4,6,8,10,-1,12,-1,14,-1,-1,16,-1,-1,-1,18,-1,20,-1,-1,-1],"split_conditions":[8.060373E2,4E1,4E0,1.728E5,4.4687695E2,3.101117E-2,2.1E1,-8.439159E-4,1.2E1,-1.0289342E-1,-5.4185785E-2,1.8E1,-3.35663E-2,-3.3448335E-2,-1.3487034E-2,-2E1,1.0944557E-3,1.081206E3,-9.555441E-4,7.108307E-4,-8.684349E-4],"split_indices":[0,3,4,6,0,0,3,0,3,0,0,3,0,0,0,9,0,0,0,0,0],"split_type":[0,0,0,0,0,0,0,0,0,0,0,0,0,0,0,0,0,0,0,0,0],"sum_hessian":[1.84E2,4.5E1,1.39E2,3.4E1,1.1E1,6.9E1,7E1,3E0,3.1E1,4E0,7E0,6.4E1,6E0,2.9E1,2E0,6.3E1,1E0,2E0,6.1E1,1E0,1E0],"tree_param":{"num_deleted":"0","num_feature":"10","num_nodes":"21","size_leaf_vector":"1"}},{"base_weights":[-4.4454955E-3,-4.7271207E-1,1.5604058E-1,-3.391913E-1,-6.849082E-2,2.8577225E-2,-4.7301397E-2,-4.056168E-3,-3.7849963E-1,-1.0152221E-2,-3.1264614E-2,-7.9327583E-4,7.753181E-4,-3.0975495E-2,-1.2767721E-2,-1.0712517E-2,1.050682E-3,-1.260837E-3,-8.794046E-4,6.8240165E-4,-8.3370204E-4],"categories":[],"categories_nodes":[],"categories_segments":[],"categories_sizes":[],"default_left":[0,0,0,0,0,0,0,0,0,0,0,0,0,0,0,0,0,0,0,0,0],"id":12,"left_children":[1,3,5,7,-1,-1,9,11,13,15,-1,-1,-1,-1,-1,17,-1,19,-1,-1,-1],"loss_changes":[1.4427462E1,2.2181606E0,5.8666363E0,4.9906206E-1,0E0,0E0,9.1482264E-1,4.9889105E-4,2.9129982E-3,1.0017902E-3,0E0,0E0,0E0,0E0,0E0,1.5818514E-4,0E0,3.5795936E-4,0E0,0E0,0E0],"parents":[2147483647,0,0,1,1,2,2,3,3,6,6,7,7,8,8,9,9,15,15,17,17],"right_children":[2,4,6,8,-1,-1,10,12,14,16,-1,-1,-1,-1,-1,18,-1,20,-1,-1,-1],"split_conditions":[8.060373E2,4E1,4E0,3.072E5,-6.849082E-2,2.8577225E-2,2.1E1,2E0,1.2E1,1.8E1,-3.1264614E-2,-7.9327583E-4,7.753181E-4,-3.0975495E-2,-1.2767721E-2,-2E1,1.050682E-3,1.081206E3,-8.794046E-4,6.8240165E-4,-8.3370204E-4],"split_indices":[0,3,4,6,0,0,3,3,3,3,0,0,0,0,0,9,0,0,0,0,0],"split_type":[0,0,0,0,0,0,0,0,0,0,0,0,0,0,0,0,0,0,0,0,0],"sum_hessian":[1.9E2,4.8E1,1.42E2,3.7E1,1.1E1,7.1E1,7.1E1,4E0,3.3E1,6.5E1,6E0,3E0,1E0,3.1E1,2E0,6.4E1,1E0,2E0,6.2E1,1E0,1E0],"tree_param":{"num_deleted":"0","num_feature":"10","num_nodes":"21","size_leaf_vector":"1"}},{"base_weights":[-8.2786335E-3,-4.4233647E-1,1.3752384E-1,-2.8665942E-1,-6.484744E-1,2.6295122E-2,-4.480845E-2,-2.6692625E-2,-3.735161E-3,-8.617953E-2,-4.0060185E-2,-1.2892914E-1,-9.291925E-3,-7.4566837E-4,7.443046E-4,-2.5815043E-1,-8.4005034E-4,1.0086537E-3,-7.985672E-4,-3.1979316E-1,-6.17574E-4,-2.9120762E-2,-4.1114807E-4],"categories":[],"categories_nodes":[],"categories_segments":[],"categories_sizes":[],"default_left":[0,0,0,0,0,0,0,0,0,0,0,0,0,0,0,0,0,0,0,0,0,0,0],"id":13,"left_children":[1,3,5,7,9,-1,11,-1,13,-1,-1,15,17,-1,-1,19,-1,-1,-1,21,-1,-1,-1],"loss_changes":[1.1579013E1,1.2902927E0,4.789944E0,3.7106967E-1,6.6400385E-1,0E0,2.1092688E-1,0E0,4.508779E-4,0E0,0E0,3.1866246E-1,8.9670485E-4,0E0,0E0,1.5190363E-1,0E0,0E0,0E0,1.0943192E-1,0E0,0E0,0E0],"parents":[2147483647,0,0,1,1,2,2,3,3,4,4,6,6,8,8,11,11,12,12,15,15,19,19],"right_children":[2,4,6,8,10,-1,12,-1,14,-1,-1,16,18,-1,-1,20,-1,-1,-1,22,-1,-1,-1],"split_conditions":[8.060373E2,1.74E2,4E0,1.885109E2,4.4687695E2,2.6295122E-2,3.21E2,-2.6692625E-2,1.728E5,-8.617953E-2,-4.0060185E-2,1.6316814E3,-1.6581107E2,-7.4566837E-4,7.443046E-4,1E0,-8.4005034E-4,1.0086537E-3,-7.985672E-4,4.345208E2,-6.17574E-4,-2.9120762E-2,-4.1114807E-4],"split_indices":[0,4,4,0,0,0,4,0,6,0,0,0,7,0,0,5,0,0,0,7,0,0,0],"split_type":[0,0,0,0,0,0,0,0,0,0,0,0,0,0,0,0,0,0,0,0,0,0,0],"sum_hessian":[1.81E2,4.5E1,1.36E2,2.7E1,1.8E1,6.6E1,7E1,2.3E1,4E0,3E0,1.5E1,2E1,5E1,3E0,1E0,9E0,1.1E1,1E0,4.9E1,7E0,2E0,6E0,1E0],"tree_param":{"num_deleted":"0","num_feature":"10","num_nodes":"23","size_leaf_vector":"1"}},{"base_weights":[-8.447035E-3,-4.1400266E-1,1.3773438E-1,-2.7910855E-1,-8.0666703E-1,2.4238637E-2,-3.6969114E-2,-4.81081E-3,-3.2052305E-1,-8.6409345E-2,-4.27942E-2,-7.907967E-3,-2.6488487E-2,-7.476501E-4,7.1453094E-4,-2.6264235E-2,-1.0663166E-2,1.8199348E-3,-8.783481E-3,-7.4666657E-4,9.6830365E-4],"categories":[],"categories_nodes":[],"categories_segments":[],"categories_sizes":[],"default_left":[0,0,0,0,0,0,0,0,0,0,0,0,0,0,0,0,0,0,0,0,0],"id":14,"left_children":[1,3,5,7,9,-1,11,13,15,-1,-1,17,-1,-1,-1,-1,-1,-1,19,-1,-1],"loss_changes":[1.0965405E1,2.3702888E0,3.937453E0,4.3013406E-1,3.1390142E-1,0E0,5.700948E-1,4.573887E-4,4.3103695E-3,0E0,0E0,1.8639441E-3,0E0,0E0,0E0,0E0,0E0,0E0,8.135475E-4,0E0,0E0],"parents":[2147483647,0,0,1,1,2,2,3,3,4,4,6,6,7,7,8,8,11,11,18,18],"right_children":[2,4,6,8,10,-1,12,14,16,-1,-1,18,-1,-1,-1,-1,-1,-1,20,-1,-1],"split_conditions":[8.060373E2,4E1,4E0,3.072E5,4.4687695E2,2.4238637E-2,2.1E1,2E0,1.2E1,-8.6409345E-2,-4.27942E-2,-2E1,-2.6488487E-2,-7.476501E-4,7.1453094E-4,-2.6264235E-2,-1.0663166E-2,1.8199348E-3,1.2E1,-7.4666657E-4,9.6830365E-4],"split_indices":[0,3,4,6,0,0,3,3,3,0,0,9,0,0,0,0,0,0,3,0,0],"split_type":[0,0,0,0,0,0,0,0,0,0,0,0,0,0,0,0,0,0,0,0,0],"sum_hessian":[1.83E2,4.8E1,1.35E2,3.7E1,1.1E1,6.9E1,6.6E1,5E0,3.2E1,4E0,7E0,6.1E1,5E0,4E0,1E0,3E1,2E0,1E0,6E1,5.9E1,1E0],"tree_param":{"num_deleted":"0","num_feature":"10","num_nodes":"21","size_leaf_vector":"1"}},{"base_weights":[5.309386E-3,-3.7672368E-1,1.2978454E-1,-2.2691163E-1,-5.619021E-1,2.2331808E-2,-3.5362557E-2,-2.2373766E-2,-4.4314465E-3,-7.58242E-2,-4.303081E-1,-9.2893146E-2,-7.7291117E-3,-6.997986E-4,6.859493E-4,-4.043033E-2,-2.336517E-2,-2.0343845E-1,-7.372929E-4,9.2957495E-4,-6.7463523E-4,5.8119893E-3,-2.4722585E-2,-5.4481503E-4,1.7471409E-3],"categories":[],"categories_nodes":[],"categories_segments":[],"categories_sizes":[],"default_left":[0,0,0,0,0,0,0,0,0,0,0,0,0,0,0,0,0,0,0,0,0,0,0,0,0],"id":15,"left_children":[1,3,5,7,9,-1,11,-1,13,-1,15,17,19,-1,-1,-1,-1,21,-1,-1,-1,23,-1,-1,-1],"loss_changes":[8.513439E0,1.0931439E0,3.3398993E0,3.0395246E-1,5.5701447E-1,0E0,1.0261696E-1,0E0,4.1180543E-4,0E0,1.8445969E-2,1.923771E-1,7.1080914E-4,0E0,0E0,0E0,0E0,2.0065618E-1,0E0,0E0,0E0,9.579258E-4,0E0,0E0,0E0],"parents":[2147483647,0,0,1,1,2,2,3,3,4,4,6,6,8,8,10,10,11,11,12,12,17,17,21,21],"right_children":[2,4,6,8,10,-1,12,-1,14,-1,16,18,20,-1,-1,-1,-1,22,-1,-1,-1,24,-1,-1,-1],"split_conditions":[8.060373E2,1.74E2,4E0,1.885109E2,4.4687695E2,2.2331808E-2,3.21E2,-2.2373766E-2,1.728E5,-7.58242E-2,4.05E2,1.6316814E3,-1.6581107E2,-6.997986E-4,6.859493E-4,-4.043033E-2,-2.336517E-2,1.081206E3,-7.372929E-4,9.2957495E-4,-6.7463523E-4,1.0564852E3,-2.4722585E-2,-5.4481503E-4,1.7471409E-3],"split_indices":[0,4,4,0,0,0,4,0,6,0,4,0,7,0,0,0,0,0,0,0,0,0,0,0,0],"split_type":[0,0,0,0,0,0,0,0,0,0,0,0,0,0,0,0,0,0,0,0,0,0,0,0,0],"sum_hessian":[1.77E2,4.3E1,1.34E2,2.5E1,1.8E1,7E1,6.4E1,2E1,5E0,3E0,1.5E1,2E1,4.4E1,4E0,1E0,8E0,7E0,8E0,1.2E1,1E0,4.3E1,3E0,5E0,2E0,1E0],"tree_param":{"num_deleted":"0","num_feature":"10","num_nodes":"25","size_leaf_vector":"1"}},{"base_weights":[-1.3301748E-2,-3.7414998E-1,1.0532214E-1,-2.3818573E-1,-6.905092E-1,2.0548169E-2,-3.5043165E-2,-6.5499876E-4,-2.696273E-1,-7.6026395E-2,-3.7555285E-2,-6.5584E-3,-2.3888612E-2,-2.2178952E-2,-8.901196E-3,-7.002526E-3,8.923912E-4,5.1041245E-3,-7.6706563E-3,-5.7373045E-4,1.6772556E-3,-6.434644E-4,1.8713632E-4],"categories":[],"categories_nodes":[],"categories_segments":[],"categories_sizes":[],"default_left":[0,0,0,0,0,0,0,0,0,0,0,0,0,0,0,0,0,0,0,0,0,0,0],"id":16,"left_children":[1,3,5,7,9,-1,11,-1,13,-1,-1,15,-1,-1,-1,17,-1,19,21,-1,-1,-1,-1],"loss_changes":[7.7871504E0,1.7711401E0,2.9229295E0,2.3643208E-1,3.0057144E-1,0E0,5.3858685E-1,0E0,4.100561E-3,0E0,0E0,5.9733004E-4,0E0,0E0,0E0,5.649249E-4,0E0,9.292093E-4,2.5008526E-4,0E0,0E0,0E0,0E0],"parents":[2147483647,0,0,1,1,2,2,3,3,4,4,6,6,8,8,11,11,15,15,17,17,18,18],"right_children":[2,4,6,8,10,-1,12,-1,14,-1,-1,16,-1,-1,-1,18,-1,20,22,-1,-1,-1,-1],"split_conditions":[8.060373E2,4E1,4E0,1.728E5,4.4687695E2,2.0548169E-2,2.1E1,-6.5499876E-4,1.2E1,-7.6026395E-2,-3.7555285E-2,1.8E1,-2.3888612E-2,-2.2178952E-2,-8.901196E-3,-7E0,8.923912E-4,1.9E2,4.85621E2,-5.7373045E-4,1.6772556E-3,-6.434644E-4,1.8713632E-4],"split_indices":[0,3,4,6,0,0,3,0,3,0,0,3,0,0,0,8,0,4,7,0,0,0,0],"split_type":[0,0,0,0,0,0,0,0,0,0,0,0,0,0,0,0,0,0,0,0,0,0,0],"sum_hessian":[1.8E2,4.4E1,1.36E2,3.2E1,1.2E1,6.5E1,7.1E1,4E0,2.8E1,4E0,8E0,6.5E1,6E0,2.6E1,2E0,6.4E1,1E0,3E0,6.1E1,2E0,1E0,5.9E1,2E0],"tree_param":{"num_deleted":"0","num_feature":"10","num_nodes":"23","size_leaf_vector":"1"}},{"base_weights":[-7.665616E-3,-3.3504492E-1,9.919334E-2,-2.017033E-1,-5.506451E-1,1.8941872E-2,-3.2206886E-2,-1.9364556E-2,5.4160755E-5,-7.1160704E-2,-3.0236451E-2,-8.416679E-2,-6.621995E-3,-6.1306765E-4,1.5456676E-3,-1.7357974E-1,-6.3214713E-4,8.566952E-4,-5.7553814E-4,-2.1013927E-1,-4.832967E-4,-1.9066678E-2,6.16579E-4],"categories":[],"categories_nodes":[],"categories_segments":[],"categories_sizes":[],"default_left":[0,0,0,0,0,0,0,0,0,0,0,0,0,0,0,0,0,0,0,0,0,0,0],"id":17,"left_children":[1,3,5,7,9,-1,11,-1,13,-1,-1,15,17,-1,-1,19,-1,-1,-1,21,-1,-1,-1],"loss_changes":[6.5401487E0,1.2113628E0,2.5566306E0,2.442627E-1,6.5861464E-1,0E0,9.648799E-2,0E0,1.0402069E-3,0E0,0E0,1.622862E-1,5.7289936E-4,0E0,0E0,6.6106945E-2,0E0,0E0,0E0,5.711499E-2,0E0,0E0,0E0],"parents":[2147483647,0,0,1,1,2,2,3,3,4,4,6,6,8,8,11,11,12,12,15,15,19,19],"right_children":[2,4,6,8,10,-1,12,-1,14,-1,-1,16,18,-1,-1,20,-1,-1,-1,22,-1,-1,-1],"split_conditions":[8.060373E2,1.74E2,4E0,1.885109E2,4.4687695E2,1.8941872E-2,3.21E2,-1.9364556E-2,1.728E5,-7.1160704E-2,-3.0236451E-2,1.6316814E3,-1.6581107E2,-6.1306765E-4,1.5456676E-3,1E0,-6.3214713E-4,8.566952E-4,-5.7553814E-4,4.345208E2,-4.832967E-4,-1.9066678E-2,6.16579E-4],"split_indices":[0,4,4,0,0,0,4,0,6,0,0,0,7,0,0,5,0,0,0,7,0,0,0],"split_type":[0,0,0,0,0,0,0,0,0,0,0,0,0,0,0,0,0,0,0,0,0,0,0],"sum_hessian":[1.85E2,4.5E1,1.4E2,2.9E1,1.6E1,6.8E1,7.2E1,2.4E1,5E0,4E0,1.2E1,2.3E1,4.9E1,4E0,1E0,1E1,1.3E1,1E0,4.8E1,8E0,2E0,7E0,1E0],"tree_param":{"num_deleted":"0","num_feature":"10","num_nodes":"23","size_leaf_vector":"1"}},{"base_weights":[-1.0549133E-2,-3.0021626E-1,8.2704276E-2,-2.0014675E-1,-5.670677E-1,2.1078302E-1,-3.2980714E-2,2.0396232E-3,-2.263011E-1,-6.2443513E-2,-3.2734543E-2,-1.0937767E-2,1.7440824E-2,-1.3613398E-2,-2.0533105E-2,-5.379581E-4,1.4838409E-3,-1.8587781E-2,-7.3936908E-3,-7.9858124E-2,-5.1200986E-3,-1.6140327E-2,-4.4803618E-4,1.6453505E-2,-6.0814004E-3,2.3728274E-3,-3.9840696E-4,-5.214525E-4,8.2242966E-4],"categories":[],"categories_nodes":[],"categories_segments":[],"categories_sizes":[],"default_left":[0,0,0,0,0,0,0,0,0,0,0,0,0,0,0,0,0,0,0,0,0,0,0,0,0,0,0,0,0],"id":18,"left_children":[1,3,5,7,9,11,13,15,17,-1,-1,-1,-1,19,-1,-1,-1,-1,-1,21,23,-1,-1,25,27,-1,-1,-1,-1],"loss_changes":[5.103169E0,1.1148729E0,2.1257524E0,1.8554342E-1,8.507419E-2,2.005899E-1,3.257487E-1,8.4813155E-4,3.6194324E-3,0E0,0E0,0E0,0E0,3.9538294E-2,0E0,0E0,0E0,0E0,0E0,7.128377E-2,1.4273399E-3,0E0,0E0,9.969212E-4,5.100677E-4,0E0,0E0,0E0,0E0],"parents":[2147483647,0,0,1,1,2,2,3,3,4,4,5,5,6,6,7,7,8,8,13,13,19,19,20,20,23,23,24,24],"right_children":[2,4,6,8,10,12,14,16,18,-1,-1,-1,-1,20,-1,-1,-1,-1,-1,22,24,-1,-1,26,28,-1,-1,-1,-1],"split_conditions":[8.553152E2,4E1,4E0,3.072E5,3.8891357E2,1.3E1,2.1E1,2E0,1.2E1,-6.2443513E-2,-3.2734543E-2,-1.0937767E-2,1.7440824E-2,2.9E1,-2.0533105E-2,-5.379581E-4,1.4838409E-3,-1.8587781E-2,-7.3936908E-3,9.5312067E2,-7E0,-1.6140327E-2,-4.4803618E-4,1.2102175E3,1.8E1,2.3728274E-3,-3.9840696E-4,-5.214525E-4,8.2242966E-4],"split_indices":[1,3,4,6,1,2,3,3,3,0,0,0,0,2,0,0,0,0,0,1,8,0,0,1,3,0,0,0,0],"split_type":[0,0,0,0,0,0,0,0,0,0,0,0,0,0,0,0,0,0,0,0,0,0,0,0,0,0,0,0,0],"sum_hessian":[1.87E2,4.5E1,1.42E2,3.4E1,1.1E1,6.7E1,7.5E1,4E0,3E1,3E0,8E0,1E0,6.6E1,7E1,5E0,3E0,1E0,2.8E1,2E0,7E0,6.3E1,2E0,5E0,2E0,6.1E1,1E0,1E0,6E1,1E0],"tree_param":{"num_deleted":"0","num_feature":"10","num_nodes":"29","size_leaf_vector":"1"}},{"base_weights":[-1.5155434E-3,-2.812226E-1,8.832844E-2,-1.8958192E-1,-5.3891E-1,1.607344E-2,-2.5541237E-2,2.065563E-3,-2.1520378E-1,-5.8696903E-2,-2.9931642E-2,-5.078558E-3,-1.9164234E-2,-5.056858E-4,1.4244842E-3,-1.7696105E-2,-6.9993655E-3,8.930504E-3,-5.91393E-3,-5.6602474E-4,2.277918E-3,-5.073172E-4,7.895279E-4],"categories":[],"categories_nodes":[],"categories_segments":[],"categories_sizes":[],"default_left":[0,0,0,0,0,0,0,0,0,0,0,0,0,0,0,0,0,0,0,0,0,0,0],"id":19,"left_children":[1,3,5,7,9,-1,11,13,15,-1,-1,17,-1,-1,-1,-1,-1,19,21,-1,-1,-1,-1],"loss_changes":[4.548239E0,9.3687725E-1,1.7615454E0,1.6739678E-1,7.8544855E-2,0E0,3.0095184E-1,7.7260216E-4,3.625393E-3,0E0,0E0,8.0179225E-4,0E0,0E0,0E0,0E0,0E0,1.4526988E-3,4.7420058E-4,0E0,0E0,0E0,0E0],"parents":[2147483647,0,0,1,1,2,2,3,3,4,4,6,6,7,7,8,8,11,11,17,17,18,18],"right_children":[2,4,6,8,10,-1,12,14,16,-1,-1,18,-1,-1,-1,-1,-1,20,22,-1,-1,-1,-1],"split_conditions":[8.060373E2,4E1,4E0,3.072E5,4.4687695E2,1.607344E-2,2.1E1,2E0,1.2E1,-5.8696903E-2,-2.9931642E-2,-7E0,-1.9164234E-2,-5.056858E-4,1.4244842E-3,-1.7696105E-2,-6.9993655E-3,1.9E2,1.8E1,-5.6602474E-4,2.277918E-3,-5.073172E-4,7.895279E-4],"split_indices":[0,3,4,6,0,0,3,3,3,0,0,8,0,0,0,0,0,4,3,0,0,0,0],"split_type":[0,0,0,0,0,0,0,0,0,0,0,0,0,0,0,0,0,0,0,0,0,0,0],"sum_hessian":[1.79E2,4.3E1,1.36E2,3.3E1,1E1,6.8E1,6.8E1,4E0,2.9E1,3E0,7E0,6.3E1,5E0,3E0,1E0,2.7E1,2E0,3E0,6E1,2E0,1E0,5.9E1,1E0],"tree_param":{"num_deleted":"0","num_feature":"10","num_nodes":"23","size_leaf_vector":"1"}},{"base_weights":[-1.456505E-3,-2.5519148E-1,7.9455055E-2,-1.7381972E-1,-5.144735E-1,1.4803016E-2,-2.2785433E-2,4.1647753E-4,-1.6229838E-2,-5.5175092E-2,-2.7268345E-2,-4.1859043E-3,-1.7886613E-2,-5.0701905E-4,1.3675021E-3,8.644044E-3,-4.9340613E-3,-5.358378E-4,2.1868038E-3,-5.3192647E-3,7.579422E-4,-4.5007866E-4,4.277229E-5],"categories":[],"categories_nodes":[],"categories_segments":[],"categories_sizes":[],"default_left":[0,0,0,0,0,0,0,0,0,0,0,0,0,0,0,0,0,0,0,0,0,0,0],"id":20,"left_children":[1,3,5,7,9,-1,11,13,-1,-1,-1,15,-1,-1,-1,17,19,-1,-1,21,-1,-1,-1],"loss_changes":[3.736223E0,8.388965E-1,1.4939015E0,1.7725909E-1,6.9123745E-2,0E0,2.6423022E-1,7.8418845E-4,0E0,0E0,0E0,6.761721E-4,0E0,0E0,0E0,1.3301203E-3,4.000552E-4,0E0,0E0,1.14329276E-4,0E0,0E0,0E0],"parents":[2147483647,0,0,1,1,2,2,3,3,4,4,6,6,7,7,11,11,15,15,16,16,19,19],"right_children":[2,4,6,8,10,-1,12,14,-1,-1,-1,16,-1,-1,-1,18,20,-1,-1,22,-1,-1,-1],"split_conditions":[8.060373E2,1.2E1,4E0,3.072E5,2.903852E2,1.4803016E-2,2.1E1,2E0,-1.6229838E-2,-5.5175092E-2,-2.7268345E-2,-7E0,-1.7886613E-2,-5.0701905E-4,1.3675021E-3,1.9E2,1.2E1,-5.358378E-4,2.1868038E-3,3.4292453E2,7.579422E-4,-4.5007866E-4,4.277229E-5],"split_indices":[0,3,4,6,0,0,3,3,0,0,0,8,0,0,0,4,3,0,0,7,0,0,0],"split_type":[0,0,0,0,0,0,0,0,0,0,0,0,0,0,0,0,0,0,0,0,0,0,0],"sum_hessian":[1.8E2,4.3E1,1.37E2,3.4E1,9E0,6.7E1,7E1,5E0,2.9E1,3E0,6E0,6.5E1,5E0,4E0,1E0,3E0,6.2E1,2E0,1E0,6.1E1,1E0,5.8E1,3E0],"tree_param":{"num_deleted":"0","num_feature":"10","num_nodes":"23","size_leaf_vector":"1"}},{"base_weights":[-8.503128E-3,-2.422446E-1,7.416117E-2,-1.6114445E-1,-4.65358E-1,1.6470629E-1,-9.682369E-3,2.1148205E-3,-1.8161795E-1,-5.242272E-2,-2.6339196E-2,-3.0895232E-4,1.36164995E-2,8.835338E-3,-1.669417E-2,-4.4491768E-4,1.3127994E-3,-1.51297245E-2,-3.6834015E-3,5.6765955E-2,1.1123398E-3,-4.2090414E-4,8.865646E-2,6.919861E-3,-1.9570205E-3,8.594883E-3,-2.0965576E-4,7.9076446E-4,-4.057028E-4],"categories":[],"categories_nodes":[],"categories_segments":[],"categories_sizes":[],"default_left":[0,0,0,0,0,0,0,0,0,0,0,0,0,0,0,0,0,0,0,0,0,0,0,0,0,0,0,0,0],"id":21,"left_children":[1,3,5,7,9,11,13,15,17,-1,-1,-1,-1,19,-1,-1,-1,-1,-1,21,23,-1,25,-1,27,-1,-1,-1,-1],"loss_changes":[3.4766164E0,7.754531E-1,1.0112805E0,1.2071365E-1,9.448266E-2,5.999291E-2,2.597886E-1,6.399333E-4,2.384615E-2,0E0,0E0,0E0,0E0,2.399778E-2,0E0,0E0,0E0,0E0,0E0,1.8269174E-2,1.5107848E-2,0E0,1.05664395E-2,0E0,2.115284E-3,0E0,0E0,0E0,0E0],"parents":[2147483647,0,0,1,1,2,2,3,3,4,4,5,5,6,6,7,7,8,8,13,13,19,19,20,20,22,22,24,24],"right_children":[2,4,6,8,10,12,14,16,18,-1,-1,-1,-1,20,-1,-1,-1,-1,-1,22,24,-1,26,-1,28,-1,-1,-1,-1],"split_conditions":[8.060373E2,4E1,5E0,3.072E5,4.4687695E2,-4E0,2.1E1,2E0,1.2E1,-5.242272E-2,-2.6339196E-2,-3.0895232E-4,1.36164995E-2,-7.321757E1,-1.669417E-2,-4.4491768E-4,1.3127994E-3,-1.51297245E-2,-3.6834015E-3,0E0,8.8814813E2,-4.2090414E-4,1.7018822E3,6.919861E-3,6E0,8.594883E-3,-2.0965576E-4,7.9076446E-4,-4.057028E-4],"split_indices":[0,3,3,6,0,8,3,3,3,0,0,0,0,7,0,0,0,0,0,8,1,0,1,0,3,0,0,0,0],"split_type":[0,0,0,0,0,0,0,0,0,0,0,0,0,0,0,0,0,0,0,0,0,0,0,0,0,0,0,0,0],"sum_hessian":[1.78E2,4.6E1,1.32E2,3.5E1,1.1E1,6.3E1,6.9E1,4E0,3.1E1,3E0,8E0,2E0,6.1E1,6.4E1,5E0,3E0,1E0,2.9E1,2E0,8E0,5.6E1,3E0,5E0,1E0,5.5E1,4E0,1E0,1.1E1,4.4E1],"tree_param":{"num_deleted":"0","num_feature":"10","num_nodes":"29","size_leaf_vector":"1"}},{"base_weights":[-9.322905E-3,-2.3141459E-1,6.69871E-2,-1.417379E-1,-4.7368705E-1,1.2599133E-2,-2.0550925E-2,6.042719E-4,-1.6548173E-1,-5.2413676E-2,-2.4083896E-2,-4.2749867E-3,-1.5258862E-2,-4.4610596E-4,1.2602902E-3,-1.3810546E-2,-3.4869574E-3,2.1155642E-3,-5.1823533E-3,-4.3802577E-4,5.0777197E-4,-3.7756603E-4,6.4759253E-4],"categories":[],"categories_nodes":[],"categories_segments":[],"categories_sizes":[],"default_left":[0,0,0,0,0,0,0,0,0,0,0,0,0,0,0,0,0,0,0,0,0,0,0],"id":22,"left_children":[1,3,5,7,9,-1,11,13,15,-1,-1,17,-1,-1,-1,-1,-1,-1,19,-1,21,-1,-1],"loss_changes":[3.049161E0,9.322653E-1,1.0648344E0,1.18391275E-1,1.7873502E-1,0E0,1.9030894E-1,6.496396E-4,1.862222E-2,0E0,0E0,1.9209738E-3,0E0,0E0,0E0,0E0,0E0,0E0,1.0780315E-4,0E0,1.9684687E-4,0E0,0E0],"parents":[2147483647,0,0,1,1,2,2,3,3,4,4,6,6,7,7,8,8,11,11,18,18,20,20],"right_children":[2,4,6,8,10,-1,12,14,16,-1,-1,18,-1,-1,-1,-1,-1,-1,20,-1,22,-1,-1],"split_conditions":[8.060373E2,4E1,4E0,3.072E5,4.4687695E2,1.2599133E-2,1.2E1,2E0,1E1,-5.2413676E-2,-2.4083896E-2,-2E1,-1.5258862E-2,-4.4610596E-4,1.2602902E-3,-1.3810546E-2,-3.4869574E-3,2.1155642E-3,3.4292453E2,-4.3802577E-4,1.3194646E3,-3.7756603E-4,6.4759253E-4],"split_indices":[0,3,4,6,0,0,3,3,3,0,0,9,0,0,0,0,0,0,7,0,0,0,0],"split_type":[0,0,0,0,0,0,0,0,0,0,0,0,0,0,0,0,0,0,0,0,0,0,0],"sum_hessian":[1.78E2,4.5E1,1.33E2,3.4E1,1.1E1,6.5E1,6.8E1,5E0,2.9E1,4E0,7E0,6.3E1,5E0,4E0,1E0,2.7E1,2E0,1E0,6.2E1,5.9E1,3E0,2E0,1E0],"tree_param":{"num_deleted":"0","num_feature":"10","num_nodes":"23","size_leaf_vector":"1"}},{"base_weights":[-7.887973E-3,-2.0275421E-1,6.396416E-2,-1.3338304E-1,-4.0553343E-1,1.1606485E-2,-1.57076E-2,-2.4280207E-2,-1.5308106E-1,-4.6132535E-2,-2.275355E-2,-3.6238804E-3,-1.3379017E-2,6.917715E-4,-6.9644833E-3,-1.2732818E-2,-3.300991E-3,1.5910944E-2,-4.5106644E-3,-4.1754148E-4,1.209879E-3,2.0309447E-3,-1.2163162E-4,-4.992059E-3,9.941768E-4,-3.5780823E-4,-7.932357E-4],"categories":[],"categories_nodes":[],"categories_segments":[],"categories_sizes":[],"default_left":[0,0,0,0,0,0,0,0,0,0,0,0,0,0,0,0,0,0,0,0,0,0,0,0,0,0,0],"id":23,"left_children":[1,3,5,7,9,-1,11,13,15,-1,-1,17,-1,19,-1,-1,-1,21,23,-1,-1,-1,-1,25,-1,-1,-1],"loss_changes":[2.5472503E0,6.3519335E-1,8.618215E-1,7.7949345E-2,8.4692955E-2,0E0,1.2390519E-1,1.103368E-2,1.5185118E-2,0E0,0E0,1.1804514E-3,0E0,5.9077225E-4,0E0,0E0,0E0,5.3412904E-4,5.6757324E-4,0E0,0E0,0E0,0E0,1.1165871E-4,0E0,0E0,0E0],"parents":[2147483647,0,0,1,1,2,2,3,3,4,4,6,6,7,7,8,8,11,11,13,13,17,17,18,18,23,23],"right_children":[2,4,6,8,10,-1,12,14,16,-1,-1,18,-1,20,-1,-1,-1,22,24,-1,-1,-1,-1,26,-1,-1,-1],"split_conditions":[8.060373E2,4E1,4E0,1E0,4.4687695E2,1.1606485E-2,2.1E1,6.2185815E2,1E1,-4.6132535E-2,-2.275355E-2,-2E1,-1.3379017E-2,2E0,-6.9644833E-3,-1.2732818E-2,-3.300991E-3,1.081206E3,1.2E1,-4.1754148E-4,1.209879E-3,2.0309447E-3,-1.2163162E-4,6.18E2,9.941768E-4,-3.5780823E-4,-7.932357E-4],"split_indices":[0,3,4,5,0,0,3,1,3,0,0,9,0,3,0,0,0,0,3,0,0,0,0,4,0,0,0],"split_type":[0,0,0,0,0,0,0,0,0,0,0,0,0,0,0,0,0,0,0,0,0,0,0,0,0,0,0],"sum_hessian":[1.8E2,4.8E1,1.32E2,3.7E1,1.1E1,6.5E1,6.7E1,6E0,3.1E1,3E0,8E0,6.3E1,4E0,5E0,1E0,2.9E1,2E0,2E0,6.1E1,4E0,1E0,1E0,1E0,6E1,1E0,5.6E1,4E0],"tree_param":{"num_deleted":"0","num_feature":"10","num_nodes":"27","size_leaf_vector":"1"}},{"base_weights":[-8.513341E-3,-2.0268747E-1,5.720391E-2,-1.2191129E-1,-4.045705E-1,1.0698986E-2,-2.0146698E-2,7.6858205E-4,-1.4238355E-1,-4.610672E-2,-2.1135526E-2,-3.0506589E-3,-1.3886019E-2,-3.908081E-4,1.16148E-3,-1.1869488E-2,-3.1249428E-3,1.9497108E-3,-3.8727769E-3,-4.320083E-3,9.544086E-4,-3.7212498E-4,6.3600537E-4],"categories":[],"categories_nodes":[],"categories_segments":[],"categories_sizes":[],"default_left":[0,0,0,0,0,0,0,0,0,0,0,0,0,0,0,0,0,0,0,0,0,0,0],"id":24,"left_children":[1,3,5,7,9,-1,11,13,15,-1,-1,17,-1,-1,-1,-1,-1,-1,19,21,-1,-1,-1],"loss_changes":[2.372304E0,7.1712327E-1,8.255613E-1,8.801311E-2,1.6118598E-1,0E0,1.8308188E-1,5.3735037E-4,1.275605E-2,0E0,0E0,1.5372107E-3,0E0,0E0,0E0,0E0,0E0,0E0,4.968692E-4,2.891526E-4,0E0,0E0,0E0],"parents":[2147483647,0,0,1,1,2,2,3,3,4,4,6,6,7,7,8,8,11,11,18,18,19,19],"right_children":[2,4,6,8,10,-1,12,14,16,-1,-1,18,-1,-1,-1,-1,-1,-1,20,22,-1,-1,-1],"split_conditions":[8.060373E2,4E1,4E0,3.072E5,4.4687695E2,1.0698986E-2,2.1E1,2E0,1E1,-4.610672E-2,-2.1135526E-2,-2E1,-1.3886019E-2,-3.908081E-4,1.16148E-3,-1.1869488E-2,-3.1249428E-3,1.9497108E-3,1.2E1,3.4292453E2,9.544086E-4,-3.7212498E-4,6.3600537E-4],"split_indices":[0,3,4,6,0,0,3,3,3,0,0,9,0,0,0,0,0,0,3,7,0,0,0],"split_type":[0,0,0,0,0,0,0,0,0,0,0,0,0,0,0,0,0,0,0,0,0,0,0],"sum_hessian":[1.84E2,4.6E1,1.38E2,3.4E1,1.2E1,6.9E1,6.9E1,5E0,2.9E1,4E0,8E0,6.3E1,6E0,4E0,1E0,2.7E1,2E0,1E0,6.2E1,6.1E1,1E0,6E1,1E0],"tree_param":{"num_deleted":"0","num_feature":"10","num_nodes":"23","size_leaf_vector":"1"}},{"base_weights":[-2.3674546E-3,-1.7832573E-1,5.457763E-2,-1.00592814E-1,-2.8501812E-1,9.847656E-3,-1.7823E-2,-1.270834E-1,-6.7506516E-3,-4.059818E-2,-2.0669447E-1,-5.2220773E-2,-4.121352E-3,-1.04403375E-2,-2.3466777E-3,-2.0907403E-3,8.356571E-4,-1.9632552E-2,-1.0191487E-2,-1.0606575E-1,-2.7347563E-4,9.1623305E-4,-4.6844184E-3,-3.6578366E-4,1.1150169E-3,-1.3438702E-1,-3.7020366E-4,-3.253243E-4,-9.184742E-3,-1.2746309E-2,6.1056134E-4,-8.4094045E-4,-1.5506744E-4],"categories":[],"categories_nodes":[],"categories_segments":[],"categories_sizes":[],"default_left":[0,0,0,0,0,0,0,0,0,0,0,0,0,0,0,0,0,0,0,0,0,0,0,0,0,0,0,0,0,0,0,0,0],"id":25,"left_children":[1,3,5,7,9,-1,11,13,15,-1,17,19,21,-1,-1,-1,23,-1,-1,25,-1,-1,27,-1,-1,29,-1,-1,31,-1,-1,-1,-1],"loss_changes":[1.8033053E0,3.3624375E-1,6.7685604E-1,6.6262305E-2,2.087357E-1,0E0,3.1362295E-2,3.1939745E-3,1.0511891E-3,0E0,1.4785767E-2,4.956486E-2,4.8334803E-4,0E0,0E0,0E0,4.888591E-4,0E0,0E0,2.523385E-2,0E0,0E0,9.611808E-5,0E0,0E0,2.6011512E-2,0E0,0E0,2.7704955E-5,0E0,0E0,0E0,0E0],"parents":[2147483647,0,0,1,1,2,2,3,3,4,4,6,6,7,7,8,8,10,10,11,11,12,12,16,16,19,19,22,22,25,25,28,28],"right_children":[2,4,6,8,10,-1,12,14,16,-1,18,20,22,-1,-1,-1,24,-1,-1,26,-1,-1,28,-1,-1,30,-1,-1,32,-1,-1,-1,-1],"split_conditions":[7.993357E2,1.74E2,4E0,1.5431314E2,4.4687695E2,9.847656E-3,3.21E2,7E0,1.885109E2,-4.059818E-2,4.05E2,1.6316814E3,-1.6581107E2,-1.04403375E-2,-2.3466777E-3,-2.0907403E-3,1.728E5,-1.9632552E-2,-1.0191487E-2,1E0,-2.7347563E-4,9.1623305E-4,6.18E2,-3.6578366E-4,1.1150169E-3,4.345208E2,-3.7020366E-4,-3.253243E-4,1.4103645E3,-1.2746309E-2,6.1056134E-4,-8.4094045E-4,-1.5506744E-4],"split_indices":[0,4,4,0,0,0,4,8,0,0,4,0,7,0,0,0,6,0,0,5,0,0,4,0,0,7,0,0,1,0,0,0,0],"split_type":[0,0,0,0,0,0,0,0,0,0,0,0,0,0,0,0,0,0,0,0,0,0,0,0,0,0,0,0,0,0,0,0,0],"sum_hessian":[1.78E2,4.3E1,1.35E2,2.6E1,1.7E1,6.9E1,6.6E1,2E1,6E0,3E0,1.4E1,1.8E1,4.8E1,1.9E1,1E0,1E0,5E0,8E0,6E0,8E0,1E1,1E0,4.7E1,4E0,1E0,6E0,2E0,4.3E1,4E0,5E0,1E0,3E0,1E0],"tree_param":{"num_deleted":"0","num_feature":"10","num_nodes":"33","size_leaf_vector":"1"}},{"base_weights":[-7.3234225E-3,2.4710665E-2,-2.9693076E-1,-1.03999175E-1,5.71754E-2,-4.0557608E-2,-1.6569782E-2,-3.9577752E-2,-1.18691035E-1,9.08004E-3,-2.475451E-3,8.936326E-4,-8.586234E-3,-9.898003E-3,-2.8399467E-3,1.831468E-2,-3.38295E-3,-3.423767E-4,1.0704136E-3,2.3815727E-3,-1.8381118E-4,-3.7732967E-3,8.7958336E-4,-3.1943168E-4,4.590511E-5],"categories":[],"categories_nodes":[],"categories_segments":[],"categories_sizes":[],"default_left":[0,0,0,0,0,0,0,0,0,0,0,0,0,0,0,0,0,0,0,0,0,0,0,0,0],"id":26,"left_children":[1,3,5,7,9,-1,-1,11,13,-1,15,17,-1,-1,-1,19,21,-1,-1,-1,-1,23,-1,-1,-1],"loss_changes":[1.7700257E0,7.246535E-1,2.5339818E-1,2.8428942E-2,4.6393898E-1,0E0,0E0,2.2031464E-2,7.3339045E-3,0E0,1.3449154E-3,4.4484594E-4,0E0,0E0,0E0,7.7674096E-4,4.1189865E-4,0E0,0E0,0E0,0E0,6.4341526E-5,0E0,0E0,0E0],"parents":[2147483647,0,0,1,1,2,2,3,3,4,4,7,7,8,8,10,10,11,11,15,15,16,16,21,21],"right_children":[2,4,6,8,10,-1,-1,12,14,-1,16,18,-1,-1,-1,20,22,-1,-1,-1,-1,24,-1,-1,-1],"split_conditions":[4E1,8.060373E2,4.4687695E2,1E0,4E0,-4.0557608E-2,-1.6569782E-2,6.2185815E2,8E0,9.08004E-3,-2E1,2E0,-8.586234E-3,-9.898003E-3,-2.8399467E-3,1.081206E3,1.2E1,-3.423767E-4,1.0704136E-3,2.3815727E-3,-1.8381118E-4,3.4292453E2,8.7958336E-4,-3.1943168E-4,4.590511E-5],"split_indices":[3,0,0,5,4,0,0,1,3,0,9,3,0,0,0,0,3,0,0,0,0,7,0,0,0],"split_type":[0,0,0,0,0,0,0,0,0,0,0,0,0,0,0,0,0,0,0,0,0,0,0,0,0],"sum_hessian":[1.89E2,1.71E2,1.8E1,3.4E1,1.37E2,4E0,1.4E1,7E0,2.7E1,7E1,6.7E1,5E0,2E0,2.5E1,2E0,2E0,6.5E1,4E0,1E0,1E0,1E0,6.4E1,1E0,6.1E1,3E0],"tree_param":{"num_deleted":"0","num_feature":"10","num_nodes":"25","size_leaf_vector":"1"}},{"base_weights":[-6.28309E-3,-1.5992926E-1,4.3533858E-2,-9.846789E-2,-3.4653655E-1,8.362735E-3,-1.5555956E-2,9.434621E-4,-1.1453241E-1,-3.796192E-2,-1.6448935E-2,-2.683152E-3,-1.0923584E-2,-3.2046507E-4,1.0275936E-3,-9.516377E-3,-2.688478E-3,1.758202E-2,-3.5771884E-3,2.28631E-3,-1.7646789E-4,-3.861323E-3,5.842972E-4,-2.7732662E-4,-7.1326253E-4],"categories":[],"categories_nodes":[],"categories_segments":[],"categories_sizes":[],"default_left":[0,0,0,0,0,0,0,0,0,0,0,0,0,0,0,0,0,0,0,0,0,0,0,0,0],"id":27,"left_children":[1,3,5,7,9,-1,11,13,15,-1,-1,17,-1,-1,-1,-1,-1,19,21,-1,-1,23,-1,-1,-1],"loss_changes":[1.4382945E0,4.934578E-1,5.134648E-1,5.7599932E-2,1.00834966E-1,0E0,1.1332863E-1,4.0487593E-4,7.0967376E-3,0E0,0E0,1.2767868E-3,0E0,0E0,0E0,0E0,0E0,7.158538E-4,2.2915873E-4,0E0,0E0,9.678543E-5,0E0,0E0,0E0],"parents":[2147483647,0,0,1,1,2,2,3,3,4,4,6,6,7,7,8,8,11,11,17,17,18,18,21,21],"right_children":[2,4,6,8,10,-1,12,14,16,-1,-1,18,-1,-1,-1,-1,-1,20,22,-1,-1,24,-1,-1,-1],"split_conditions":[8.060373E2,4E1,4E0,3.072E5,4.4687695E2,8.362735E-3,1.8E1,2E0,1.2E1,-3.796192E-2,-1.6448935E-2,-2E1,-1.0923584E-2,-3.2046507E-4,1.0275936E-3,-9.516377E-3,-2.688478E-3,1.081206E3,3.4292453E2,2.28631E-3,-1.7646789E-4,6.18E2,5.842972E-4,-2.7732662E-4,-7.1326253E-4],"split_indices":[0,3,4,6,0,0,3,3,3,0,0,9,0,0,0,0,0,0,7,0,0,4,0,0,0],"split_type":[0,0,0,0,0,0,0,0,0,0,0,0,0,0,0,0,0,0,0,0,0,0,0,0,0],"sum_hessian":[1.86E2,4.5E1,1.41E2,3.5E1,1E1,6.9E1,7.2E1,5E0,3E1,4E0,6E0,6.6E1,6E0,4E0,1E0,2.8E1,2E0,2E0,6.4E1,1E0,1E0,6.3E1,1E0,6E1,3E0],"tree_param":{"num_deleted":"0","num_feature":"10","num_nodes":"25","size_leaf_vector":"1"}},{"base_weights":[-1.0052951E-2,-1.485584E-1,4.2345792E-2,-9.149372E-2,-3.0832484E-1,7.7032703E-3,-1.5510299E-2,9.858211E-4,-1.0512264E-1,-3.5532355E-2,-1.588845E-2,-2.223464E-3,-1.0174535E-2,-2.999573E-4,9.864903E-4,-8.6968215E-3,-2.545096E-3,1.6878763E-2,-3.1731746E-3,2.1948623E-3,-1.694107E-4,-3.7908386E-3,1.2813472E-3,-2.646054E-4,-6.5242767E-4],"categories":[],"categories_nodes":[],"categories_segments":[],"categories_sizes":[],"default_left":[0,0,0,0,0,0,0,0,0,0,0,0,0,0,0,0,0,0,0,0,0,0,0,0,0],"id":28,"left_children":[1,3,5,7,9,-1,11,13,15,-1,-1,17,-1,-1,-1,-1,-1,19,21,-1,-1,23,-1,-1,-1],"loss_changes":[1.3489305E0,4.3675816E-1,4.2283556E-1,4.9259126E-2,1.0552895E-1,0E0,9.764534E-2,3.6857484E-4,5.483687E-3,0E0,0E0,1.1420546E-3,0E0,0E0,0E0,0E0,0E0,6.597348E-4,7.4819045E-4,0E0,0E0,9.325234E-5,0E0,0E0,0E0],"parents":[2147483647,0,0,1,1,2,2,3,3,4,4,6,6,7,7,8,8,11,11,17,17,18,18,21,21],"right_children":[2,4,6,8,10,-1,12,14,16,-1,-1,18,-1,-1,-1,-1,-1,20,22,-1,-1,24,-1,-1,-1],"split_conditions":[8.060373E2,4E1,4E0,3.072E5,4.4687695E2,7.7032703E-3,2.1E1,2E0,1.2E1,-3.5532355E-2,-1.588845E-2,-2E1,-1.0174535E-2,-2.999573E-4,9.864903E-4,-8.6968215E-3,-2.545096E-3,1.081206E3,4.8E1,2.1948623E-3,-1.694107E-4,6.18E2,1.2813472E-3,-2.646054E-4,-6.5242767E-4],"split_indices":[0,3,4,6,0,0,3,3,3,0,0,9,0,0,0,0,0,0,2,0,0,4,0,0,0],"split_type":[0,0,0,0,0,0,0,0,0,0,0,0,0,0,0,0,0,0,0,0,0,0,0,0,0],"sum_hessian":[1.84E2,5E1,1.34E2,3.8E1,1.2E1,6.9E1,6.5E1,5E0,3.3E1,4E0,8E0,5.9E1,6E0,4E0,1E0,3.1E1,2E0,2E0,5.7E1,1E0,1E0,5.6E1,1E0,5.2E1,4E0],"tree_param":{"num_deleted":"0","num_feature":"10","num_nodes":"25","size_leaf_vector":"1"}},{"base_weights":[-8.891548E-3,-1.3516235E-1,3.674672E-2,-8.81484E-2,-2.688585E-1,7.084803E-3,-1.25954915E-2,2.1029948E-3,-9.915169E-2,-3.1319175E-2,-1.47586055E-2,-2.5810525E-3,-9.385354E-3,-2.632141E-4,9.470272E-4,-8.074754E-3,-1.6841698E-3,-3.1101552E-3,1.2300968E-3,-2.7395606E-3,-7.891536E-3,-2.5603772E-4,-1.384944E-4,-7.874552E-4,-8.146286E-5],"categories":[],"categories_nodes":[],"categories_segments":[],"categories_sizes":[],"default_left":[0,0,0,0,0,0,0,0,0,0,0,0,0,0,0,0,0,0,0,0,0,0,0,0,0],"id":29,"left_children":[1,3,5,7,9,-1,11,13,15,-1,-1,17,-1,-1,-1,-1,-1,19,-1,21,23,-1,-1,-1,-1],"loss_changes":[1.0422673E0,2.7800864E-1,3.4114105E-1,3.695184E-2,5.1942408E-2,0E0,7.205932E-2,3.0145704E-4,2.4697185E-3,0E0,0E0,6.559015E-4,0E0,0E0,0E0,0E0,0E0,9.001378E-5,0E0,2.2345834E-5,4.3633656E-5,0E0,0E0,0E0,0E0],"parents":[2147483647,0,0,1,1,2,2,3,3,4,4,6,6,7,7,8,8,11,11,17,17,19,19,20,20],"right_children":[2,4,6,8,10,-1,12,14,16,-1,-1,18,-1,-1,-1,-1,-1,20,-1,22,24,-1,-1,-1,-1],"split_conditions":[8.060373E2,4E1,4E0,3.072E5,4.4687695E2,7.084803E-3,2.1E1,2E0,1.2E1,-3.1319175E-2,-1.47586055E-2,1.8E1,-9.385354E-3,-2.632141E-4,9.470272E-4,-8.074754E-3,-1.6841698E-3,6.18E2,1.2300968E-3,1E0,1.4103645E3,-2.5603772E-4,-1.384944E-4,-7.874552E-4,-8.146286E-5],"split_indices":[0,3,4,6,0,0,3,3,3,0,0,3,0,0,0,0,0,4,0,8,1,0,0,0,0],"split_type":[0,0,0,0,0,0,0,0,0,0,0,0,0,0,0,0,0,0,0,0,0,0,0,0,0],"sum_hessian":[1.79E2,4.7E1,1.32E2,3.6E1,1.1E1,6.4E1,6.8E1,4E0,3.2E1,3E0,8E0,6.3E1,5E0,3E0,1E0,3.1E1,1E0,6.2E1,1E0,5.9E1,3E0,3.9E1,2E1,2E0,1E0],"tree_param":{"num_deleted":"0","num_feature":"10","num_nodes":"25","size_leaf_vector":"1"}},{"base_weights":[-8.619251E-3,-1.3109057E-1,3.556982E-2,-7.912966E-2,-2.6889545E-1,6.5204226E-3,-1.0215414E-2,2.0715236E-3,-8.9035E-2,-3.1253856E-2,-1.37091065E-2,-1.5780628E-3,-8.051567E-3,-2.4742127E-4,9.0914726E-4,-7.357864E-3,-2.319533E-3,1.633501E-2,-2.4193719E-3,2.1173095E-3,-1.571083E-4,-2.9430077E-3,1.1808968E-3,-2.0182358E-4,-5.715866E-4],"categories":[],"categories_nodes":[],"categories_segments":[],"categories_sizes":[],"default_left":[0,0,0,0,0,0,0,0,0,0,0,0,0,0,0,0,0,0,0,0,0,0,0,0,0],"id":30,"left_children":[1,3,5,7,9,-1,11,13,15,-1,-1,17,-1,-1,-1,-1,-1,19,21,-1,-1,23,-1,-1,-1],"loss_changes":[1.0004514E0,3.2958525E-1,2.8686318E-1,2.9944494E-2,8.745611E-2,0E0,5.3734906E-2,2.7510125E-4,3.155142E-3,0E0,0E0,1.0040279E-3,0E0,0E0,0E0,0E0,0E0,6.0815323E-4,6.0121727E-4,0E0,0E0,8.968037E-5,0E0,0E0,0E0],"parents":[2147483647,0,0,1,1,2,2,3,3,4,4,6,6,7,7,8,8,11,11,17,17,18,18,21,21],"right_children":[2,4,6,8,10,-1,12,14,16,-1,-1,18,-1,-1,-1,-1,-1,20,22,-1,-1,24,-1,-1,-1],"split_conditions":[8.060373E2,4E1,4E0,3.072E5,4.4687695E2,6.5204226E-3,2.1E1,2E0,1.2E1,-3.1253856E-2,-1.37091065E-2,-2E1,-8.051567E-3,-2.4742127E-4,9.0914726E-4,-7.357864E-3,-2.319533E-3,1.081206E3,4.8E1,2.1173095E-3,-1.571083E-4,6.18E2,1.1808968E-3,-2.0182358E-4,-5.715866E-4],"split_indices":[0,3,4,6,0,0,3,3,3,0,0,9,0,0,0,0,0,0,2,0,0,4,0,0,0],"split_type":[0,0,0,0,0,0,0,0,0,0,0,0,0,0,0,0,0,0,0,0,0,0,0,0,0],"sum_hessian":[1.83E2,4.8E1,1.35E2,3.6E1,1.2E1,6.7E1,6.8E1,4E0,3.2E1,4E0,8E0,6.3E1,5E0,3E0,1E0,3E1,2E0,2E0,6.1E1,1E0,1E0,6E1,1E0,5.6E1,4E0],"tree_param":{"num_deleted":"0","num_feature":"10","num_nodes":"25","size_leaf_vector":"1"}},{"base_weights":[-4.8180507E-3,-1.2053368E-1,3.2381263E-2,-7.370728E-2,-2.7237272E-1,6.020089E-3,-7.365846E-3,2.0381927E-3,-8.354664E-2,-2.9253613E-2,-1.1938348E-2,-1.4528772E-3,-6.904724E-3,-2.3257255E-4,8.7278365E-4,-6.9175237E-3,-2.1958223E-3,1.5681505E-2,-2.2096995E-3,2.0326136E-3,-1.5083313E-4,-2.6797184E-3,1.1336613E-3,-1.8458288E-4,-5.34996E-4],"categories":[],"categories_nodes":[],"categories_segments":[],"categories_sizes":[],"default_left":[0,0,0,0,0,0,0,0,0,0,0,0,0,0,0,0,0,0,0,0,0,0,0,0,0],"id":31,"left_children":[1,3,5,7,9,-1,11,13,15,-1,-1,17,-1,-1,-1,-1,-1,19,21,-1,-1,23,-1,-1,-1],"loss_changes":[7.7872056E-1,2.9276747E-1,2.3399581E-1,2.625531E-2,6.0320973E-2,0E0,3.3483393E-2,2.5108238E-4,2.708897E-3,0E0,0E0,9.1645384E-4,0E0,0E0,0E0,0E0,0E0,5.604804E-4,5.4611615E-4,0E0,0E0,8.1589795E-5,0E0,0E0,0E0],"parents":[2147483647,0,0,1,1,2,2,3,3,4,4,6,6,7,7,8,8,11,11,17,17,18,18,21,21],"right_children":[2,4,6,8,10,-1,12,14,16,-1,-1,18,-1,-1,-1,-1,-1,20,22,-1,-1,24,-1,-1,-1],"split_conditions":[8.060373E2,4E1,4E0,3.072E5,4.4687695E2,6.020089E-3,2.1E1,2E0,1.2E1,-2.9253613E-2,-1.1938348E-2,-2E1,-6.904724E-3,-2.3257255E-4,8.7278365E-4,-6.9175237E-3,-2.1958223E-3,1.081206E3,4.8E1,2.0326136E-3,-1.5083313E-4,6.18E2,1.1336613E-3,-1.8458288E-4,-5.34996E-4],"split_indices":[0,3,4,6,0,0,3,3,3,0,0,9,0,0,0,0,0,0,2,0,0,4,0,0,0],"split_type":[0,0,0,0,0,0,0,0,0,0,0,0,0,0,0,0,0,0,0,0,0,0,0,0,0],"sum_hessian":[1.79E2,4.3E1,1.36E2,3.4E1,9E0,6.5E1,7.1E1,4E0,3E1,4E0,5E0,6.7E1,4E0,3E0,1E0,2.8E1,2E0,2E0,6.5E1,1E0,1E0,6.4E1,1E0,6E1,4E0],"tree_param":{"num_deleted":"0","num_feature":"10","num_nodes":"25","size_leaf_vector":"1"}},{"base_weights":[-8.791338E-3,1.198402E-2,-1.964003E-1,-6.688791E-2,3.484985E-2,-2.7381383E-2,-1.0774768E-2,1.0621151E-3,-7.691179E-2,6.426833E-2,4.4721384E-3,-2.3318481E-4,8.3786965E-4,-6.342623E-3,-2.0787113E-3,-1.3281504E-4,6.629132E-2,2.5339961E-2,1.6152263E-3,-5.163002E-4,6.750976E-2,-4.940629E-3,4.449644E-2,3.0056953E-2,-4.090217E-4,2.5375842E-3,5.4983934E-3,-4.7837573E-4,-7.293701E-5,4.4926926E-3,-8.6097716E-5,3.3422979E-3,-2.0433425E-4,2.9307438E-4,-1.2611346E-4],"categories":[],"categories_nodes":[],"categories_segments":[],"categories_sizes":[],"default_left":[0,0,0,0,0,0,0,0,0,0,0,0,0,0,0,0,0,0,0,0,0,0,0,0,0,0,0,0,0,0,0,0,0,0,0],"id":32,"left_children":[1,3,5,7,9,-1,-1,11,13,15,17,-1,-1,-1,-1,-1,19,21,23,-1,25,27,29,31,33,-1,-1,-1,-1,-1,-1,-1,-1,-1,-1],"loss_changes":[7.4290586E-1,3.125282E-1,1.24945164E-1,2.6645496E-2,1.19463846E-1,0E0,0E0,2.5509504E-4,2.0454228E-3,9.179354E-3,3.953445E-3,0E0,0E0,0E0,0E0,0E0,6.2856674E-3,4.8603965E-3,3.4666804E-3,0E0,6.584227E-4,1.1293501E-5,2.7178312E-3,1.6357515E-3,2.7676258E-4,0E0,0E0,0E0,0E0,0E0,0E0,0E0,0E0,0E0,0E0],"parents":[2147483647,0,0,1,1,2,2,3,3,4,4,7,7,8,8,9,9,10,10,16,16,17,17,18,18,20,20,21,21,22,22,23,23,24,24],"right_children":[2,4,6,8,10,-1,-1,12,14,16,18,-1,-1,-1,-1,-1,20,22,24,-1,26,28,30,32,34,-1,-1,-1,-1,-1,-1,-1,-1,-1,-1],"split_conditions":[4E1,8.060373E2,4.4687695E2,3.072E5,5E0,-2.7381383E-2,-1.0774768E-2,2E0,1.2E1,-4E0,-7.321757E1,-2.3318481E-4,8.3786965E-4,-6.342623E-3,-2.0787113E-3,-1.3281504E-4,2.7E1,1E0,-4E0,-5.163002E-4,-1E0,1.6856526E3,1.7018822E3,1.2451044E3,6E0,2.5375842E-3,5.4983934E-3,-4.7837573E-4,-7.293701E-5,4.4926926E-3,-8.6097716E-5,3.3422979E-3,-2.0433425E-4,2.9307438E-4,-1.2611346E-4],"split_indices":[3,0,0,6,3,0,0,3,3,8,7,0,0,0,0,0,2,8,8,0,9,0,1,0,3,0,0,0,0,0,0,0,0,0,0],"split_type":[0,0,0,0,0,0,0,0,0,0,0,0,0,0,0,0,0,0,0,0,0,0,0,0,0,0,0,0,0,0,0,0,0,0,0],"sum_hessian":[1.89E2,1.71E2,1.8E1,3.8E1,1.33E2,4E0,1.4E1,5E0,3.3E1,6.7E1,6.6E1,4E0,1E0,3.1E1,2E0,2E0,6.5E1,7E0,5.9E1,1E0,6.4E1,3E0,4E0,3E0,5.6E1,3E0,6.1E1,2E0,1E0,3E0,1E0,2E0,1E0,1.2E1,4.4E1],"tree_param":{"num_deleted":"0","num_feature":"10","num_nodes":"35","size_leaf_vector":"1"}},{"base_weights":[-4.3306346E-3,1.2633618E-2,-1.8273205E-1,-5.8101457E-2,3.3233855E-2,-2.4166696E-2,-1.0217639E-2,1.0779301E-3,-6.768129E-2,5.132079E-3,-1.3906794E-3,-2.1826172E-4,8.043575E-4,-5.5047837E-3,-1.353035E-3,1.8176173E-3,-2.1981124E-3,-2.635186E-3,9.0860366E-4,-1.761807E-4,-5.357742E-4],"categories":[],"categories_nodes":[],"categories_segments":[],"categories_sizes":[],"default_left":[0,0,0,0,0,0,0,0,0,0,0,0,0,0,0,0,0,0,0,0,0],"id":33,"left_children":[1,3,5,7,9,-1,-1,11,13,-1,15,-1,-1,-1,-1,-1,17,19,-1,-1,-1],"loss_changes":[5.228574E-1,2.3216207E-1,5.9903502E-2,2.0482391E-2,1.3175966E-1,0E0,0E0,2.3243042E-4,6.123036E-4,0E0,1.1985496E-3,0E0,0E0,0E0,0E0,0E0,3.7356894E-4,8.548825E-5,0E0,0E0,0E0],"parents":[2147483647,0,0,1,1,2,2,3,3,4,4,7,7,8,8,10,10,16,16,17,17],"right_children":[2,4,6,8,10,-1,-1,12,14,-1,16,-1,-1,-1,-1,-1,18,20,-1,-1,-1],"split_conditions":[4E1,7.824638E2,4.4687695E2,3.072E5,4E0,-2.4166696E-2,-1.0217639E-2,2E0,1.2E1,5.132079E-3,-2E1,-2.1826172E-4,8.043575E-4,-5.5047837E-3,-1.353035E-3,1.8176173E-3,4.8E1,6.18E2,9.0860366E-4,-1.761807E-4,-5.357742E-4],"split_indices":[3,0,0,6,4,0,0,3,3,0,9,0,0,0,0,0,2,4,0,0,0],"split_type":[0,0,0,0,0,0,0,0,0,0,0,0,0,0,0,0,0,0,0,0,0],"sum_hessian":[1.71E2,1.57E2,1.4E1,3.5E1,1.22E2,3E0,1.1E1,5E0,3E1,6.4E1,5.8E1,4E0,1E0,2.9E1,1E0,1E0,5.7E1,5.6E1,1E0,5.2E1,4E0],"tree_param":{"num_deleted":"0","num_feature":"10","num_nodes":"21","size_leaf_vector":"1"}},{"base_weights":[-4.9688453E-3,-9.419756E-2,2.6163653E-2,-5.7945654E-2,-1.9208248E-1,4.727975E-3,-6.6713043E-3,1.945734E-3,-6.573634E-2,-2.2716694E-2,-1.0392489E-2,-1.1732427E-3,-5.9690094E-3,-1.9151687E-4,7.7218056E-4,-5.799651E-2,-7.5507318E-3,1.2770255E-2,-1.839755E-3,-4.7834166E-3,-1.8956821E-3,1.7449092E-3,-2.1247863E-4,-2.233859E-3,8.7225914E-4,-1.466993E-4,-5.0147244E-4],"categories":[],"categories_nodes":[],"categories_segments":[],"categories_sizes":[],"default_left":[0,0,0,0,0,0,0,0,0,0,0,0,0,0,0,0,0,0,0,0,0,0,0,0,0,0,0],"id":34,"left_children":[1,3,5,7,9,-1,11,13,15,-1,-1,17,-1,-1,-1,19,-1,21,23,-1,-1,-1,-1,25,-1,-1,-1],"loss_changes":[4.9415508E-1,1.5210137E-1,1.431461E-1,1.6458727E-2,3.1662345E-2,0E0,2.4940012E-2,1.9032691E-4,1.3996363E-3,0E0,0E0,6.089854E-4,0E0,0E0,0E0,2.4663657E-4,0E0,4.7634164E-4,3.307022E-4,0E0,0E0,0E0,0E0,8.536299E-5,0E0,0E0,0E0],"parents":[2147483647,0,0,1,1,2,2,3,3,4,4,6,6,7,7,8,8,11,11,15,15,17,17,18,18,23,23],"right_children":[2,4,6,8,10,-1,12,14,16,-1,-1,18,-1,-1,-1,20,-1,22,24,-1,-1,-1,-1,26,-1,-1,-1],"split_conditions":[8.060373E2,4E1,4E0,3.072E5,4.4687695E2,4.727975E-3,2.1E1,2E0,8.0541113E2,-2.2716694E-2,-1.0392489E-2,-2E1,-5.9690094E-3,-1.9151687E-4,7.7218056E-4,1.2E1,-7.5507318E-3,1.081206E3,4.8E1,-4.7834166E-3,-1.8956821E-3,1.7449092E-3,-2.1247863E-4,6.18E2,8.7225914E-4,-1.466993E-4,-5.0147244E-4],"split_indices":[0,3,4,6,0,0,3,3,1,0,0,9,0,0,0,3,0,0,2,0,0,0,0,4,0,0,0],"split_type":[0,0,0,0,0,0,0,0,0,0,0,0,0,0,0,0,0,0,0,0,0,0,0,0,0,0,0],"sum_hessian":[1.76E2,4.5E1,1.31E2,3.4E1,1.1E1,6.5E1,6.6E1,4E0,3E1,3E0,8E0,6.2E1,4E0,3E0,1E0,2.6E1,4E0,2E0,6E1,2.4E1,2E0,1E0,1E0,5.9E1,1E0,5.5E1,4E0],"tree_param":{"num_deleted":"0","num_feature":"10","num_nodes":"27","size_leaf_vector":"1"}},{"base_weights":[-3.2609985E-3,-7.197681E-2,2.2213459E-2,-4.642985E-2,-1.5833153E-1,5.19948E-2,-7.0265895E-3,1.0885397E-3,-5.3249292E-2,-1.848494E-2,-9.3196565E-3,-3.7895201E-3,4.3374416E-3,-9.629354E-4,-5.6427573E-3,-1.920166E-4,7.4129103E-4,-5.4727048E-2,-1.2022018E-4,1.2259483E-2,-1.5871986E-3,-4.549248E-3,-1.3673465E-2,1.6751098E-3,-2.0397185E-4,-1.9564002E-3,8.373642E-4,-1.5852165E-3,-5.5599212E-5,-5.7336804E-4,-1.4000828E-4],"categories":[],"categories_nodes":[],"categories_segments":[],"categories_sizes":[],"default_left":[0,0,0,0,0,0,0,0,0,0,0,0,0,0,0,0,0,0,0,0,0,0,0,0,0,0,0,0,0,0,0],"id":35,"left_children":[1,3,5,7,9,11,13,15,17,-1,-1,-1,-1,19,-1,-1,-1,21,-1,23,25,-1,27,-1,-1,29,-1,-1,-1,-1,-1],"loss_changes":[3.236905E-1,1.0295373E-1,1.1792442E-1,1.3019919E-2,6.552309E-3,1.7369092E-2,2.6503276E-2,1.9341809E-4,2.5941655E-3,0E0,0E0,0E0,0E0,5.477315E-4,0E0,0E0,0E0,2.2074953E-3,0E0,4.3898943E-4,2.9640563E-4,0E0,2.2535992E-4,0E0,0E0,5.3028794E-5,0E0,0E0,0E0,0E0,0E0],"parents":[2147483647,0,0,1,1,2,2,3,3,4,4,5,5,6,6,7,7,8,8,13,13,17,17,19,19,20,20,22,22,25,25],"right_children":[2,4,6,8,10,12,14,16,18,-1,-1,-1,-1,20,-1,-1,-1,22,-1,24,26,-1,28,-1,-1,30,-1,-1,-1,-1,-1],"split_conditions":[9.2256274E2,1.6E1,4E0,3.072E5,2.948114E2,1.3E1,2.1E1,2E0,9.152E2,-1.848494E-2,-9.3196565E-3,-3.7895201E-3,4.3374416E-3,-2E1,-5.6427573E-3,-1.920166E-4,7.4129103E-4,2.2925358E1,-1.2022018E-4,1.2102175E3,4.8E1,-4.549248E-3,8.0541113E2,1.6751098E-3,-2.0397185E-4,5E0,8.373642E-4,-1.5852165E-3,-5.5599212E-5,-5.7336804E-4,-1.4000828E-4],"split_indices":[1,3,4,6,1,2,3,3,1,0,0,0,0,9,0,0,0,7,0,1,2,0,1,0,0,3,0,0,0,0,0],"split_type":[0,0,0,0,0,0,0,0,0,0,0,0,0,0,0,0,0,0,0,0,0,0,0,0,0,0,0,0,0,0,0],"sum_hessian":[1.83E2,4.9E1,1.34E2,3.9E1,1E1,6.6E1,6.8E1,5E0,3.4E1,2E0,8E0,1E0,6.5E1,6.3E1,5E0,4E0,1E0,3.3E1,1E0,2E0,6.1E1,3.1E1,2E0,1E0,1E0,6E1,1E0,1E0,1E0,1E0,5.9E1],"tree_param":{"num_deleted":"0","num_feature":"10","num_nodes":"31","size_leaf_vector":"1"}},{"base_weights":[-5.200182E-3,9.614281E-3,-1.6135293E-1,-5.0796553E-2,2.577231E-2,-2.1592047E-2,-8.214294E-3,3.0437112E-3,-5.5783357E-2,4.0187216E-3,-9.6756493E-4,-1.4976501E-4,7.116413E-4,-4.6363566E-3,-1.1803373E-3,1.17691355E-2,-1.5587163E-3,1.6081047E-3,-1.958084E-4,-1.9079985E-3,8.0387114E-4,-1.2467122E-4,-4.4654845E-4],"categories":[],"categories_nodes":[],"categories_segments":[],"categories_sizes":[],"default_left":[0,0,0,0,0,0,0,0,0,0,0,0,0,0,0,0,0,0,0,0,0,0,0],"id":36,"left_children":[1,3,5,7,9,-1,-1,11,13,-1,15,-1,-1,-1,-1,17,19,-1,-1,21,-1,-1,-1],"loss_changes":[4.2720205E-1,1.6627343E-1,7.419023E-2,9.835459E-3,8.769841E-2,0E0,0E0,1.3171758E-4,2.0845085E-3,0E0,5.0775043E-4,0E0,0E0,0E0,0E0,4.0456912E-4,2.7458408E-4,0E0,0E0,7.0934766E-5,0E0,0E0,0E0],"parents":[2147483647,0,0,1,1,2,2,3,3,4,4,7,7,8,8,10,10,15,15,16,16,19,19],"right_children":[2,4,6,8,10,-1,-1,12,14,-1,16,-1,-1,-1,-1,18,20,-1,-1,22,-1,-1,-1],"split_conditions":[4E1,8.060373E2,4.4687695E2,3.072E5,4E0,-2.1592047E-2,-8.214294E-3,2E0,1E1,4.0187216E-3,-2E1,-1.4976501E-4,7.116413E-4,-4.6363566E-3,-1.1803373E-3,1.081206E3,1.2E1,1.6081047E-3,-1.958084E-4,6.18E2,8.0387114E-4,-1.2467122E-4,-4.4654845E-4],"split_indices":[3,0,0,6,4,0,0,3,3,0,9,0,0,0,0,0,3,0,0,4,0,0,0],"split_type":[0,0,0,0,0,0,0,0,0,0,0,0,0,0,0,0,0,0,0,0,0,0,0],"sum_hessian":[1.83E2,1.68E2,1.5E1,3.5E1,1.33E2,4E0,1.1E1,3E0,3.2E1,6.9E1,6.4E1,2E0,1E0,3E1,2E0,2E0,6.2E1,1E0,1E0,6.1E1,1E0,5.7E1,4E0],"tree_param":{"num_deleted":"0","num_feature":"10","num_nodes":"23","size_leaf_vector":"1"}},{"base_weights":[-2.8354214E-3,-7.230605E-2,1.9376276E-2,-4.909171E-2,-1.4170699E-1,3.7016645E-3,-6.689777E-3,4.8069954E-3,-5.2403603E-2,-1.6347503E-2,-8.406626E-3,-8.890769E-4,-4.9667004E-3,6.831741E-4,-1.06334686E-4,-4.5000322E-2,-6.3561755E-3,1.1298418E-2,-1.4295831E-3,-3.6974212E-3,-4.3647765E-4,1.5437794E-3,-1.879692E-4,-1.7483894E-3,7.7171327E-4,-1.14782364E-4,-4.1798016E-4],"categories":[],"categories_nodes":[],"categories_segments":[],"categories_sizes":[],"default_left":[0,0,0,0,0,0,0,0,0,0,0,0,0,0,0,0,0,0,0,0,0,0,0,0,0,0,0],"id":37,"left_children":[1,3,5,7,9,-1,11,13,15,-1,-1,17,-1,-1,-1,19,-1,21,23,-1,-1,-1,-1,25,-1,-1,-1],"loss_changes":[2.9303947E-1,6.715384E-2,1.01258464E-1,6.678149E-3,3.761202E-3,0E0,2.3722768E-2,8.0064E-5,3.2330677E-3,0E0,0E0,4.6409635E-4,0E0,0E0,0E0,1.1439808E-3,0E0,3.728458E-4,2.499182E-4,0E0,0E0,0E0,0E0,6.336806E-5,0E0,0E0,0E0],"parents":[2147483647,0,0,1,1,2,2,3,3,4,4,6,6,7,7,8,8,11,11,15,15,17,17,18,18,23,23],"right_children":[2,4,6,8,10,-1,12,14,16,-1,-1,18,-1,-1,-1,20,-1,22,24,-1,-1,-1,-1,26,-1,-1,-1],"split_conditions":[8.060373E2,4E1,4E0,3.072E5,2.5561757E2,3.7016645E-3,2.1E1,6.112115E2,8.0541113E2,-1.6347503E-2,-8.406626E-3,-2E1,-4.9667004E-3,6.831741E-4,-1.06334686E-4,1.6E1,-6.3561755E-3,1.081206E3,1.2E1,-3.6974212E-3,-4.3647765E-4,1.5437794E-3,-1.879692E-4,6.18E2,7.7171327E-4,-1.14782364E-4,-4.1798016E-4],"split_indices":[0,3,4,6,0,0,3,0,1,0,0,9,0,0,0,3,0,0,3,0,0,0,0,4,0,0,0],"split_type":[0,0,0,0,0,0,0,0,0,0,0,0,0,0,0,0,0,0,0,0,0,0,0,0,0,0,0],"sum_hessian":[1.88E2,4.5E1,1.43E2,3.5E1,1E1,7E1,7.3E1,2E0,3.3E1,2E0,8E0,6.7E1,6E0,1E0,1E0,2.8E1,5E0,2E0,6.5E1,2.7E1,1E0,1E0,1E0,6.4E1,1E0,6E1,4E0],"tree_param":{"num_deleted":"0","num_feature":"10","num_nodes":"27","size_leaf_vector":"1"}},{"base_weights":[-5.8803814E-3,7.980993E-3,-1.3261628E-1,2.259271E-2,-2.9184442E-2,-1.9418024E-2,-6.7055235E-3,4.021487E-2,-2.5301648E-3,-4.2794727E-2,-4.879276E-3,1.4321804E-3,3.4034906E-3,-3.5388945E-3,-7.7624223E-4,-4.4751268E-2,-1.0268767E-2,-4.6299485E-4,-3.198242E-3,-1.8470763E-4,6.558513E-4,1.0846456E-2,-1.5016008E-3,-3.739285E-3,-1.0071436E-3,-1.1884593E-3,-4.3792723E-5,-1.6494989E-3,7.408428E-4,1.482029E-3,-1.8045426E-4,-3.3590742E-4,-6.725262E-5,-2.9551185E-4,-8.748735E-5],"categories":[],"categories_nodes":[],"categories_segments":[],"categories_sizes":[],"default_left":[0,0,0,0,0,0,0,0,0,0,0,0,0,0,0,0,0,0,0,0,0,0,0,0,0,0,0,0,0,0,0,0,0,0,0],"id":38,"left_children":[1,3,5,7,9,-1,-1,11,13,15,17,19,-1,-1,21,23,25,27,-1,-1,-1,29,31,-1,-1,-1,-1,33,-1,-1,-1,-1,-1,-1,-1],"loss_changes":[3.2078397E-1,9.0262756E-2,7.6369286E-2,5.278534E-2,1.5338805E-2,0E0,0E0,6.26117E-3,3.6231182E-3,1.449611E-3,2.7715976E-3,1.4548643E-4,0E0,0E0,4.2938758E-4,1.2034439E-3,1.2564269E-4,2.1140439E-4,0E0,0E0,0E0,3.4361746E-4,8.02582E-5,0E0,0E0,0E0,0E0,1.4144312E-5,0E0,0E0,0E0,0E0,0E0,0E0,0E0],"parents":[2147483647,0,0,1,1,2,2,3,3,4,4,7,7,8,8,9,9,10,10,11,11,14,14,15,15,16,16,17,17,21,21,22,22,27,27],"right_children":[2,4,6,8,10,-1,-1,12,14,16,18,20,-1,-1,22,24,26,28,-1,-1,-1,30,32,-1,-1,-1,-1,34,-1,-1,-1,-1,-1,-1,-1],"split_conditions":[4E1,5E0,3.8891357E2,4E0,9.152E2,-1.9418024E-2,-6.7055235E-3,6.2185815E2,2.6E1,2.2925358E1,1.2697456E3,2E0,3.4034906E-3,-3.5388945E-3,-2E1,1E1,8.0541113E2,1.2E1,-3.198242E-3,-1.8470763E-4,6.558513E-4,1.2102175E3,1.4103645E3,-3.739285E-3,-1.0071436E-3,-1.1884593E-3,-4.3792723E-5,4.1E2,7.408428E-4,1.482029E-3,-1.8045426E-4,-3.3590742E-4,-6.725262E-5,-2.9551185E-4,-8.748735E-5],"split_indices":[3,5,1,4,1,0,0,1,2,7,1,3,0,0,9,3,1,3,0,0,0,1,1,0,0,0,0,4,0,0,0,0,0,0,0],"split_type":[0,0,0,0,0,0,0,0,0,0,0,0,0,0,0,0,0,0,0,0,0,0,0,0,0,0,0,0,0,0,0,0,0,0,0],"sum_hessian":[1.81E2,1.64E2,1.7E1,1.18E2,4.6E1,4E0,1.3E1,6.9E1,4.9E1,2.9E1,1.7E1,4E0,6.5E1,1E0,4.8E1,2.7E1,2E0,1.6E1,1E0,3E0,1E0,2E0,4.6E1,2.5E1,2E0,1E0,1E0,1.5E1,1E0,1E0,1E0,8E0,3.8E1,2E0,1.3E1],"tree_param":{"num_deleted":"0","num_feature":"10","num_nodes":"35","size_leaf_vector":"1"}},{"base_weights":[-4.767917E-3,-6.494942E-2,1.7111057E-2,-3.92755E-2,-1.4083771E-1,3.134959E-3,-5.2165072E-3,8.070469E-4,-4.537307E-2,-1.7304087E-2,-7.3319837E-3,-6.1365915E-4,-4.2141597E-3,-1.7436981E-4,6.296158E-4,-3.70586E-2,-6.6723466E-2,3.7139654E-3,-1.4037071E-3,-3.1034907E-3,-8.6603797E-4,-2.2665532E-3,-5.9838933E-3,-1.7671585E-3,1.3673846E-3,-1.7656696E-3,7.1121217E-4,1.9645691E-5,-2.4191284E-4,-5.9042615E-4,-1.1206196E-4],"categories":[],"categories_nodes":[],"categories_segments":[],"categories_sizes":[],"default_left":[0,0,0,0,0,0,0,0,0,0,0,0,0,0,0,0,0,0,0,0,0,0,0,0,0,0,0,0,0,0,0],"id":39,"left_children":[1,3,5,7,9,-1,11,13,15,-1,-1,17,-1,-1,-1,19,21,23,25,-1,-1,-1,-1,27,-1,29,-1,-1,-1,-1,-1],"loss_changes":[2.420692E-1,8.993764E-2,6.674616E-2,9.324051E-3,2.4718687E-2,0E0,1.4822508E-2,1.4372585E-4,3.3853948E-3,0E0,0E0,2.2061226E-4,0E0,0E0,0E0,7.6343864E-4,3.6096573E-4,7.634883E-4,2.1690057E-4,0E0,0E0,0E0,0E0,2.0978601E-5,0E0,9.8246106E-5,0E0,0E0,0E0,0E0,0E0],"parents":[2147483647,0,0,1,1,2,2,3,3,4,4,6,6,7,7,8,8,11,11,15,15,16,16,17,17,18,18,23,23,25,25],"right_children":[2,4,6,8,10,-1,12,14,16,-1,-1,18,-1,-1,-1,20,22,24,26,-1,-1,-1,-1,28,-1,30,-1,-1,-1,-1,-1],"split_conditions":[8.060373E2,4E1,4E0,3.072E5,4.4687695E2,3.134959E-3,2.1E1,2E0,6.795632E2,-1.7304087E-2,-7.3319837E-3,2.17E2,-4.2141597E-3,-1.7436981E-4,6.296158E-4,1.5414635E2,-2E0,2.15E2,1.2E1,-3.1034907E-3,-8.6603797E-4,-2.2665532E-3,-5.9838933E-3,7E0,1.3673846E-3,5E0,7.1121217E-4,1.9645691E-5,-2.4191284E-4,-5.9042615E-4,-1.1206196E-4],"split_indices":[0,3,4,6,0,0,3,3,1,0,0,4,0,0,0,0,8,4,3,0,0,0,0,3,0,3,0,0,0,0,0],"split_type":[0,0,0,0,0,0,0,0,0,0,0,0,0,0,0,0,0,0,0,0,0,0,0,0,0,0,0,0,0,0,0],"sum_hessian":[1.82E2,4.8E1,1.34E2,3.7E1,1.1E1,6.7E1,6.7E1,5E0,3.2E1,3E0,8E0,6.2E1,5E0,4E0,1E0,2.5E1,7E0,9E0,5.3E1,2.3E1,2E0,2E0,5E0,7E0,2E0,5.2E1,1E0,3E0,4E0,2E0,5E1],"tree_param":{"num_deleted":"0","num_feature":"10","num_nodes":"31","size_leaf_vector":"1"}},{"base_weights":[-4.684887E-3,6.581871E-3,-1.1641413E-1,-3.6731713E-2,1.7762564E-2,-1.706781E-2,-7.017708E-2,8.184512E-4,-4.3017354E-2,2.8666558E-3,-5.6928396E-4,-6.535068E-3,-2.8337096E-3,-1.6320038E-4,6.044292E-4,-3.558983E-2,-5.343666E-3,1.0037343E-2,-1.0427778E-3,-2.9371444E-3,-3.4409523E-4,1.3680554E-3,-1.6357421E-4,-1.3214222E-3,6.8276405E-4,1.7673969E-4,-1.2223152E-4],"categories":[],"categories_nodes":[],"categories_segments":[],"categories_sizes":[],"default_left":[0,0,0,0,0,0,0,0,0,0,0,0,0,0,0,0,0,0,0,0,0,0,0,0,0,0,0],"id":40,"left_children":[1,3,5,7,9,-1,11,13,15,-1,17,-1,-1,-1,-1,19,-1,21,23,-1,-1,-1,-1,25,-1,-1,-1],"loss_changes":[2.336491E-1,8.249507E-2,6.122054E-2,8.296151E-3,4.4741597E-2,0E0,2.3075566E-3,1.30956E-4,2.921205E-3,0E0,3.519745E-4,0E0,0E0,0E0,0E0,7.2166696E-4,0E0,2.9098397E-4,1.8740984E-4,0E0,0E0,0E0,0E0,5.075941E-5,0E0,0E0,0E0],"parents":[2147483647,0,0,1,1,2,2,3,3,4,4,6,6,7,7,8,8,10,10,15,15,17,17,18,18,23,23],"right_children":[2,4,6,8,10,-1,12,14,16,-1,18,-1,-1,-1,-1,20,-1,22,24,-1,-1,-1,-1,26,-1,-1,-1],"split_conditions":[4E1,8.060373E2,4.4687695E2,3.072E5,4E0,-1.706781E-2,8.726458E2,2E0,8.0541113E2,2.8666558E-3,-2E1,-6.535068E-3,-2.8337096E-3,-1.6320038E-4,6.044292E-4,1.2E1,-5.343666E-3,1.081206E3,1.2E1,-2.9371444E-3,-3.4409523E-4,1.3680554E-3,-1.6357421E-4,9.0769385E2,6.8276405E-4,1.7673969E-4,-1.2223152E-4],"split_indices":[3,0,0,6,4,0,0,3,1,0,9,0,0,0,0,3,0,0,3,0,0,0,0,1,0,0,0],"split_type":[0,0,0,0,0,0,0,0,0,0,0,0,0,0,0,0,0,0,0,0,0,0,0,0,0,0,0],"sum_hessian":[1.84E2,1.68E2,1.6E1,3.4E1,1.34E2,4E0,1.2E1,5E0,2.9E1,6.7E1,6.7E1,8E0,4E0,4E0,1E0,2.4E1,5E0,2E0,6.5E1,2.3E1,1E0,1E0,1E0,6.4E1,1E0,3E0,6.1E1],"tree_param":{"num_deleted":"0","num_feature":"10","num_nodes":"27","size_leaf_vector":"1"}},{"base_weights":[-3.4071894E-3,-5.7051707E-2,1.4118024E-2,-3.4598846E-2,-1.2534727E-1,2.6686133E-3,-4.2607915E-3,1.397705E-3,-3.9142095E-2,-1.5082957E-2,-6.246722E-3,-4.9875764E-4,-3.6949634E-3,-1.503563E-4,5.802536E-4,-3.2739796E-2,-5.7330336E-2,9.635846E-3,-9.518645E-4,-2.6624948E-3,-7.682037E-4,-1.9248454E-3,-5.2660904E-3,1.3133335E-3,-1.5703202E-4,-1.2186051E-3,6.554508E-4,-7.570579E-5,-3.4373856E-4],"categories":[],"categories_nodes":[],"categories_segments":[],"categories_sizes":[],"default_left":[0,0,0,0,0,0,0,0,0,0,0,0,0,0,0,0,0,0,0,0,0,0,0,0,0,0,0,0,0],"id":41,"left_children":[1,3,5,7,9,-1,11,13,15,-1,-1,17,-1,-1,-1,19,21,23,25,-1,-1,-1,-1,-1,-1,27,-1,-1,-1],"loss_changes":[1.7566994E-1,6.620094E-2,4.9999993E-2,5.942192E-3,1.8130347E-2,0E0,1.1491106E-2,1.0957844E-4,1.8493123E-3,0E0,0E0,3.21432E-4,0E0,0E0,0E0,6.0964376E-6,3.9475784E-4,2.6817142E-4,1.7098078E-4,0E0,0E0,0E0,0E0,0E0,0E0,5.041174E-5,0E0,0E0,0E0],"parents":[2147483647,0,0,1,1,2,2,3,3,4,4,6,6,7,7,8,8,11,11,15,15,16,16,17,17,18,18,25,25],"right_children":[2,4,6,8,10,-1,12,14,16,-1,-1,18,-1,-1,-1,20,22,24,26,-1,-1,-1,-1,-1,-1,28,-1,-1,-1],"split_conditions":[8.060373E2,1.6E1,4E0,3.072E5,4.4687695E2,2.6686133E-3,2.1E1,2E0,6.795632E2,-1.5082957E-2,-6.246722E-3,-2E1,-3.6949634E-3,-1.503563E-4,5.802536E-4,1.5431314E2,-2E0,1.081206E3,1.2E1,-2.6624948E-3,-7.682037E-4,-1.9248454E-3,-5.2660904E-3,1.3133335E-3,-1.5703202E-4,6.18E2,6.554508E-4,-7.570579E-5,-3.4373856E-4],"split_indices":[0,3,4,6,0,0,3,3,1,0,0,9,0,0,0,0,8,0,3,0,0,0,0,0,0,4,0,0,0],"split_type":[0,0,0,0,0,0,0,0,0,0,0,0,0,0,0,0,0,0,0,0,0,0,0,0,0,0,0,0,0],"sum_hessian":[1.85E2,4.5E1,1.4E2,3.5E1,1E1,6.8E1,7.2E1,4E0,3.1E1,3E0,7E0,6.7E1,5E0,3E0,1E0,2.5E1,6E0,2E0,6.5E1,2.4E1,1E0,2E0,4E0,1E0,1E0,6.4E1,1E0,6E1,4E0],"tree_param":{"num_deleted":"0","num_feature":"10","num_nodes":"29","size_leaf_vector":"1"}},{"base_weights":[-3.7095842E-3,-5.212389E-2,1.3173245E-2,-2.4800835E-2,-9.108414E-2,2.459099E-3,-4.074021E-3,-2.5427064E-3,1.6862665E-3,-1.3436539E-2,-6.6173226E-2,-1.0115688E-3,-1.269477E-2,-1.4315033E-4,5.5335363E-4,-5.5484516E-3,-7.3747634E-4,-1.509924E-3,-2.9124465E-4,-2.5543E-2,1.3811588E-4,1.2607955E-3,-9.2746736E-4,-3.5343855E-3,-1.7975807E-3,5.8156013E-4,-1.4619827E-3,-1.0139465E-4,6.292343E-4,-2.9239654E-5,-1.6513825E-4,-4.2732237E-5,-1.6779327E-4],"categories":[],"categories_nodes":[],"categories_segments":[],"categories_sizes":[],"default_left":[0,0,0,0,0,0,0,0,0,0,0,0,0,0,0,0,0,0,0,0,0,0,0,0,0,0,0,0,0,0,0,0,0],"id":42,"left_children":[1,3,5,7,9,-1,11,-1,13,-1,15,17,19,-1,-1,-1,-1,-1,21,23,25,-1,27,-1,29,-1,31,-1,-1,-1,-1,-1,-1],"loss_changes":[1.486307E-1,4.7773153E-2,4.1024383E-2,5.417414E-3,2.5270104E-2,0E0,1.8088018E-3,0E0,1.396363E-4,0E0,2.2607148E-3,6.635753E-4,2.971366E-3,0E0,0E0,0E0,0E0,0E0,5.354355E-4,3.903435E-3,1.247371E-4,0E0,1.5943311E-4,0E0,1.1548418E-6,0E0,4.185824E-6,0E0,0E0,0E0,0E0,0E0,0E0],"parents":[2147483647,0,0,1,1,2,2,3,3,4,4,6,6,8,8,10,10,11,11,12,12,18,18,19,19,20,20,22,22,24,24,26,26],"right_children":[2,4,6,8,10,-1,12,-1,14,-1,16,18,20,-1,-1,-1,-1,-1,22,24,26,-1,28,-1,30,-1,32,-1,-1,-1,-1,-1,-1],"split_conditions":[8.060373E2,1.74E2,4E0,1.5431314E2,2.903852E2,2.459099E-3,8.251071E1,-2.5427064E-3,1.728E5,-1.3436539E-2,3.2E1,-4.4E1,1.4364104E3,-1.4315033E-4,5.5335363E-4,-5.5484516E-3,-7.3747634E-4,-1.509924E-3,-2E1,3.21E2,1.5707942E3,1.2607955E-3,4.3E1,-3.5343855E-3,9.6141095E2,5.8156013E-4,1.7391653E3,-1.0139465E-4,6.292343E-4,-2.9239654E-5,-1.6513825E-4,-4.2732237E-5,-1.6779327E-4],"split_indices":[0,4,4,0,0,0,7,0,6,0,2,9,1,0,0,0,0,0,9,4,0,0,2,0,0,0,0,0,0,0,0,0,0],"split_type":[0,0,0,0,0,0,0,0,0,0,0,0,0,0,0,0,0,0,0,0,0,0,0,0,0,0,0,0,0,0,0,0,0],"sum_hessian":[1.8E2,4.6E1,1.34E2,2.8E1,1.8E1,6.6E1,6.8E1,2.2E1,6E0,3E0,1.5E1,5.1E1,1.7E1,4E0,2E0,1.4E1,1E0,1E0,5E1,8E0,9E0,1E0,4.9E1,4E0,4E0,1E0,8E0,4.8E1,1E0,1E0,3E0,4E0,4E0],"tree_param":{"num_deleted":"0","num_feature":"10","num_nodes":"33","size_leaf_vector":"1"}},{"base_weights":[-4.289242E-3,4.402633E-3,-1.0331858E-1,-2.7684022E-2,1.3280651E-2,-1.4276434E-2,-4.433464E-3,-2.3703493E-2,-3.2175938E-3,2.2291269E-3,-8.340212E-4,-2.7797021E-2,1.5048503E-3,-2.80831E-4,-1.4495277E-3,-2.2942377E-3,-9.4219204E-4,-1.1696815E-4,5.349064E-4,8.88602E-3,-7.1985874E-4,1.2103652E-3,-1.4404296E-4,-7.833824E-5,6.040668E-4],"categories":[],"categories_nodes":[],"categories_segments":[],"categories_sizes":[],"default_left":[0,0,0,0,0,0,0,0,0,0,0,0,0,0,0,0,0,0,0,0,0,0,0,0,0],"id":43,"left_children":[1,3,5,7,9,-1,-1,11,-1,-1,13,15,17,19,-1,-1,-1,-1,-1,21,23,-1,-1,-1,-1],"loss_changes":[1.4936474E-1,4.5946207E-2,4.0497348E-2,7.931292E-4,2.5959136E-2,0E0,0E0,3.0343719E-3,0E0,0E0,6.164373E-4,1.5063211E-5,8.66421E-5,2.6396482E-4,0E0,0E0,0E0,0E0,0E0,2.2740739E-4,1.403942E-4,0E0,0E0,0E0,0E0],"parents":[2147483647,0,0,1,1,2,2,3,3,4,4,7,7,10,10,11,11,12,12,13,13,19,19,20,20],"right_children":[2,4,6,8,10,-1,-1,12,-1,-1,14,16,18,20,-1,-1,-1,-1,-1,22,24,-1,-1,-1,-1],"split_conditions":[4.3E1,7.824638E2,4.4687695E2,6.795632E2,4E0,-1.4276434E-2,-4.433464E-3,5.923916E2,-3.2175938E-3,2.2291269E-3,2.1E1,1.71248E2,2E0,-2E1,-1.4495277E-3,-2.2942377E-3,-9.4219204E-4,-1.1696815E-4,5.349064E-4,1.081206E3,1.2E1,1.2103652E-3,-1.4404296E-4,-7.833824E-5,6.040668E-4],"split_indices":[3,0,0,1,4,0,0,0,0,0,3,1,3,9,0,0,0,0,0,0,3,0,0,0,0],"split_type":[0,0,0,0,0,0,0,0,0,0,0,0,0,0,0,0,0,0,0,0,0,0,0,0,0],"sum_hessian":[1.72E2,1.59E2,1.3E1,3.4E1,1.25E2,4E0,9E0,2.8E1,6E0,6.1E1,6.4E1,2.4E1,4E0,6.3E1,1E0,2.2E1,2E0,3E0,1E0,2E0,6.1E1,1E0,1E0,6E1,1E0],"tree_param":{"num_deleted":"0","num_feature":"10","num_nodes":"25","size_leaf_vector":"1"}},{"base_weights":[-5.3240047E-3,3.5580348E-3,-9.22638E-2,-2.7703065E-2,1.2668525E-2,-1.3362745E-2,-5.64087E-2,-2.24041E-2,-4.1784155E-3,2.0828657E-3,-1.0993223E-3,-5.8627725E-2,-1.1912155E-3,-1.1331176E-4,-2.5250115E-2,-5.729273E-4,-1.3915444E-3,-4.8750495E-3,-1.328535E-3,-2.6409533E-2,2.885437E-4,8.530538E-3,-1.0041768E-3,-2.1848655E-3,-7.836151E-4,1.1619473E-3,-1.3828278E-4,1.814699E-4,-9.6721975E-5],"categories":[],"categories_nodes":[],"categories_segments":[],"categories_sizes":[],"default_left":[0,0,0,0,0,0,0,0,0,0,0,0,0,0,0,0,0,0,0,0,0,0,0,0,0,0,0,0,0],"id":44,"left_children":[1,3,5,7,9,-1,11,13,-1,-1,15,17,-1,-1,19,21,-1,-1,-1,23,-1,25,27,-1,-1,-1,-1,-1,-1],"loss_changes":[1.4164138E-1,4.791322E-2,3.6153197E-2,3.7686285E-3,2.3953678E-2,0E0,3.2471865E-4,1.9353684E-3,0E0,0E0,5.475782E-4,1.5303865E-4,0E0,0E0,1.0655113E-3,2.5982148E-4,0E0,0E0,0E0,1.5176646E-4,0E0,2.0957839E-4,4.430578E-5,0E0,0E0,0E0,0E0,0E0,0E0],"parents":[2147483647,0,0,1,1,2,2,3,3,4,4,6,6,7,7,10,10,11,11,14,14,15,15,19,19,21,21,22,22],"right_children":[2,4,6,8,10,-1,12,14,-1,-1,16,18,-1,-1,20,22,-1,-1,-1,24,-1,26,28,-1,-1,-1,-1,-1,-1],"split_conditions":[4.3E1,8.060373E2,4.4687695E2,8.0541113E2,4E0,-1.3362745E-2,8.6E1,1.728E5,-4.1784155E-3,2.0828657E-3,1.8E1,5.1E1,-1.1912155E-3,-1.1331176E-4,1.6E1,-2E1,-1.3915444E-3,-4.8750495E-3,-1.328535E-3,5.772497E2,2.885437E-4,1.081206E3,9.0769385E2,-2.1848655E-3,-7.836151E-4,1.1619473E-3,-1.3828278E-4,1.814699E-4,-9.6721975E-5],"split_indices":[3,0,0,1,4,0,9,6,0,0,3,3,0,0,3,9,0,0,0,0,0,0,1,0,0,0,0,0,0],"split_type":[0,0,0,0,0,0,0,0,0,0,0,0,0,0,0,0,0,0,0,0,0,0,0,0,0,0,0,0,0],"sum_hessian":[1.82E2,1.66E2,1.6E1,3.7E1,1.29E2,4E0,1.2E1,3.2E1,5E0,6.5E1,6.4E1,1.1E1,1E0,4E0,2.8E1,6.3E1,1E0,1E1,1E0,2.7E1,1E0,2E0,6.1E1,2.5E1,2E0,1E0,1E0,3E0,5.8E1],"tree_param":{"num_deleted":"0","num_feature":"10","num_nodes":"29","size_leaf_vector":"1"}},{"base_weights":[-4.573347E-3,3.8767664E-3,-8.365645E-2,-2.5850767E-2,1.2405323E-2,-1.2507528E-2,-5.1721115E-2,-1.989659E-2,-3.9501516E-3,1.9032685E-3,-4.4217941E-4,-5.350049E-2,-1.1435699E-3,1.1655489E-3,-2.3840154E-2,8.1892805E-3,-8.594286E-4,-2.6670326E-3,-4.9547884E-3,-1.0604858E-4,5.448532E-4,-1.9622557E-3,-8.127785E-4,1.1154652E-3,-1.3275146E-4,-1.1385719E-3,6.355667E-4,2.8590203E-4,-1.02321166E-4],"categories":[],"categories_nodes":[],"categories_segments":[],"categories_sizes":[],"default_left":[0,0,0,0,0,0,0,0,0,0,0,0,0,0,0,0,0,0,0,0,0,0,0,0,0,0,0,0,0],"id":45,"left_children":[1,3,5,7,9,-1,11,13,-1,-1,15,17,-1,19,21,23,25,-1,-1,-1,-1,-1,-1,-1,-1,27,-1,-1,-1],"loss_changes":[1.2462089E-1,4.3167755E-2,3.3697188E-2,4.340561E-3,1.9318908E-2,0E0,1.6757101E-4,2.6857043E-3,0E0,0E0,2.3393072E-4,1.4598295E-4,0E0,9.340547E-5,4.942529E-6,1.9314625E-4,1.5895792E-4,0E0,0E0,0E0,0E0,0E0,0E0,0E0,0E0,4.427982E-5,0E0,0E0,0E0],"parents":[2147483647,0,0,1,1,2,2,3,3,4,4,6,6,7,7,10,10,11,11,13,13,14,14,15,15,16,16,25,25],"right_children":[2,4,6,8,10,-1,12,14,-1,-1,16,18,-1,20,22,24,26,-1,-1,-1,-1,-1,-1,-1,-1,28,-1,-1,-1],"split_conditions":[2.1E1,8.060373E2,4.4687695E2,6.795632E2,4E0,-1.2507528E-2,8.6E1,1E0,-3.9501516E-3,1.9032685E-3,-2E1,2.17E2,-1.1435699E-3,2E0,1.7743723E2,1.081206E3,1.2E1,-2.6670326E-3,-4.9547884E-3,-1.0604858E-4,5.448532E-4,-1.9622557E-3,-8.127785E-4,1.1154652E-3,-1.3275146E-4,8.14328E2,6.355667E-4,2.8590203E-4,-1.02321166E-4],"split_indices":[3,0,0,1,4,0,9,5,0,0,9,4,0,3,1,0,3,0,0,0,0,0,0,0,0,0,0,0,0],"split_type":[0,0,0,0,0,0,0,0,0,0,0,0,0,0,0,0,0,0,0,0,0,0,0,0,0,0,0,0,0],"sum_hessian":[1.85E2,1.68E2,1.7E1,3.7E1,1.31E2,4E0,1.3E1,3.1E1,6E0,6.9E1,6.2E1,1.2E1,1E0,5E0,2.6E1,2E0,6E1,5E0,7E0,4E0,1E0,2.4E1,2E0,1E0,1E0,5.9E1,1E0,1E0,5.8E1],"tree_param":{"num_deleted":"0","num_feature":"10","num_nodes":"29","size_leaf_vector":"1"}},{"base_weights":[-3.8172263E-3,4.0618517E-3,-7.801867E-2,-2.3246301E-2,1.1571851E-2,-1.1707044E-2,-4.804613E-2,-1.9159142E-2,-4.174046E-3,2.0376546E-2,2.4630276E-3,-1.5986125E-3,-5.1058155E-2,1.6242504E-3,-2.1984402E-2,8.24372E-4,2.0956546E-2,5.114383E-3,-5.96717E-4,-4.2563784E-3,-1.0978318E-3,-9.910583E-5,5.230617E-4,-2.3412572E-2,7.773018E-4,1.0102272E-4,-2.0980835E-6,9.545326E-3,1.7078739E-3,3.4966161E-3,1.2620449E-2,-9.7195857E-4,2.2729635E-3,-1.9173431E-3,-3.1578063E-4,1.3148498E-3,-4.4502257E-4,1.1389065E-3,1.4699936E-4,1.4138698E-3,1.3411204E-4,-5.8980666E-5,-3.0174255E-4,-1.3715107E-4,5.694008E-4],"categories":[],"categories_nodes":[],"categories_segments":[],"categories_sizes":[],"default_left":[0,0,0,0,0,0,0,0,0,0,0,0,0,0,0,0,0,0,0,0,0,0,0,0,0,0,0,0,0,0,0,0,0,0,0,0,0,0,0,0,0,0,0,0,0],"id":46,"left_children":[1,3,5,7,9,-1,11,13,-1,15,17,-1,19,21,23,25,27,29,31,-1,-1,-1,-1,33,-1,-1,-1,35,-1,37,39,41,43,-1,-1,-1,-1,-1,-1,-1,-1,-1,-1,-1,-1],"loss_changes":[1.0964439E-1,3.5133317E-2,2.9827714E-2,3.3751875E-3,1.0696664E-2,0E0,1.6310811E-4,2.0321365E-3,0E0,7.538628E-4,5.465874E-4,0E0,2.3159757E-4,7.844578E-5,1.5857043E-3,1.151855E-6,9.1362745E-5,3.930215E-4,3.6667578E-5,0E0,0E0,0E0,0E0,2.18248E-4,0E0,0E0,0E0,5.078252E-4,0E0,5.26215E-4,3.0216906E-4,1.6275673E-5,8.9469824E-5,0E0,0E0,0E0,0E0,0E0,0E0,0E0,0E0,0E0,0E0,0E0,0E0],"parents":[2147483647,0,0,1,1,2,2,3,3,4,4,6,6,7,7,9,9,10,10,12,12,13,13,14,14,15,15,16,16,17,17,18,18,23,23,27,27,29,29,30,30,31,31,32,32],"right_children":[2,4,6,8,10,-1,12,14,-1,16,18,-1,20,22,24,26,28,30,32,-1,-1,-1,-1,34,-1,-1,-1,36,-1,38,40,42,44,-1,-1,-1,-1,-1,-1,-1,-1,-1,-1,-1,-1],"split_conditions":[4E1,8.060373E2,4.4687695E2,9.026729E2,5E0,-1.1707044E-2,1.1272853E1,3.072E5,-4.174046E-3,-4E0,3.7273373E1,-1.5986125E-3,8.6E1,2E0,1.2E1,8.9211566E2,-1E0,3E0,4.85621E2,-4.2563784E-3,-1.0978318E-3,-9.910583E-5,5.230617E-4,2.2925358E1,7.773018E-4,1.0102272E-4,-2.0980835E-6,2E0,1.7078739E-3,-4E0,-9.54895E1,4.8E1,1.3194646E3,-1.9173431E-3,-3.1578063E-4,1.3148498E-3,-4.4502257E-4,1.1389065E-3,1.4699936E-4,1.4138698E-3,1.3411204E-4,-5.8980666E-5,-3.0174255E-4,-1.3715107E-4,5.694008E-4],"split_indices":[3,0,0,1,3,0,7,6,0,8,7,0,9,3,3,0,9,8,7,0,0,0,0,7,0,0,0,3,0,8,7,2,0,0,0,0,0,0,0,0,0,0,0,0,0],"split_type":[0,0,0,0,0,0,0,0,0,0,0,0,0,0,0,0,0,0,0,0,0,0,0,0,0,0,0,0,0,0,0,0,0,0,0,0,0,0,0,0,0,0,0,0,0],"sum_hessian":[1.86E2,1.69E2,1.7E1,3.6E1,1.33E2,4E0,1.3E1,3.3E1,3E0,6.7E1,6.6E1,2E0,1.1E1,4E0,2.9E1,2E0,6.5E1,3.5E1,3.1E1,1E1,1E0,3E0,1E0,2.8E1,1E0,1E0,1E0,3E0,6.2E1,3E1,5E0,2.8E1,3E0,2.7E1,1E0,2E0,1E0,3E0,2.7E1,3E0,2E0,2.7E1,1E0,2E0,1E0],"tree_param":{"num_deleted":"0","num_feature":"10","num_nodes":"45","size_leaf_vector":"1"}},{"base_weights":[-2.8252746E-3,4.899899E-3,-7.220314E-2,-1.8844549E-2,1.0714474E-2,-1.09577915E-2,-4.5799844E-2,1.1242628E-3,-2.2326214E-2,1.8831726E-2,2.3242978E-3,-4.2874143E-3,-2.3390115E-3,-9.292602E-5,5.021381E-4,-1.8282325E-3,-3.03154E-4,-3.9411543E-4,1.9247446E-2,8.688116E-3,1.2249232E-3,7.9131126E-4,1.5829251E-3,-1.2779236E-3,1.554513E-2,1.4060557E-2,3.0268703E-4,9.6979136E-5,-2.0217894E-6,-2.3612975E-4,-9.727478E-6,1.5044021E-3,-3.0174255E-5,1.5848605E-3,-1.2760163E-4,1.7876625E-4,-4.593849E-5],"categories":[],"categories_nodes":[],"categories_segments":[],"categories_sizes":[],"default_left":[0,0,0,0,0,0,0,0,0,0,0,0,0,0,0,0,0,0,0,0,0,0,0,0,0,0,0,0,0,0,0,0,0,0,0,0,0],"id":47,"left_children":[1,3,5,7,9,-1,11,13,15,17,19,-1,-1,-1,-1,-1,-1,-1,21,23,25,27,-1,29,31,33,35,-1,-1,-1,-1,-1,-1,-1,-1,-1,-1],"loss_changes":[1.0164948E-1,2.381083E-2,2.6219018E-2,2.388942E-3,9.354744E-3,0E0,3.690757E-4,7.7957084E-5,1.9653235E-4,7.861946E-4,4.720969E-4,0E0,0E0,0E0,0E0,0E0,0E0,0E0,6.7089684E-4,7.032383E-4,7.059932E-4,1.0618049E-6,0E0,9.317842E-6,3.1852326E-4,3.9168925E-4,9.7847456E-5,0E0,0E0,0E0,0E0,0E0,0E0,0E0,0E0,0E0,0E0],"parents":[2147483647,0,0,1,1,2,2,3,3,4,4,6,6,7,7,8,8,9,9,10,10,18,18,19,19,20,20,21,21,23,23,24,24,25,25,26,26],"right_children":[2,4,6,8,10,-1,12,14,16,18,20,-1,-1,-1,-1,-1,-1,-1,22,24,26,28,-1,30,32,34,36,-1,-1,-1,-1,-1,-1,-1,-1,-1,-1],"split_conditions":[2.1E1,7.824638E2,4.4687695E2,3.072E5,5E0,-1.09577915E-2,7.993357E2,2E0,2.2925358E1,2.7E1,-7.321757E1,-4.2874143E-3,-2.3390115E-3,-9.292602E-5,5.021381E-4,-1.8282325E-3,-3.03154E-4,-3.9411543E-4,-4E0,0E0,-4E0,8.9211566E2,1.5829251E-3,3E1,1.7018822E3,1.2451044E3,7.761909E-1,9.6979136E-5,-2.0217894E-6,-2.3612975E-4,-9.727478E-6,1.5044021E-3,-3.0174255E-5,1.5848605E-3,-1.2760163E-4,1.7876625E-4,-4.593849E-5],"split_indices":[3,0,0,6,3,0,0,3,7,2,7,0,0,0,0,0,0,0,8,8,8,0,0,2,1,0,7,0,0,0,0,0,0,0,0,0,0],"split_type":[0,0,0,0,0,0,0,0,0,0,0,0,0,0,0,0,0,0,0,0,0,0,0,0,0,0,0,0,0,0,0,0,0,0,0,0,0],"sum_hessian":[1.88E2,1.7E2,1.8E1,3.3E1,1.37E2,4E0,1.4E1,5E0,2.8E1,6.9E1,6.8E1,8E0,6E0,4E0,1E0,2.7E1,1E0,1E0,6.8E1,9E0,5.9E1,2E0,6.6E1,4E0,5E0,3E0,5.6E1,1E0,1E0,1E0,3E0,4E0,1E0,2E0,1E0,1.7E1,3.9E1],"tree_param":{"num_deleted":"0","num_feature":"10","num_nodes":"37","size_leaf_vector":"1"}},{"base_weights":[-2.0658595E-3,3.6311122E-3,-7.596758E-2,-1.9033965E-2,9.270682E-3,-1.0256491E-2,-3.8505316E-2,-1.4610552E-2,-3.884554E-3,1.5226619E-3,-7.7181E-4,-3.4928538E-3,-1.0912832E-3,-1.6084671E-2,1.1845207E-3,-3.8344468E-4,-1.0716915E-3,1.1025667E-3,-1.9566221E-2,6.988684E-3,-7.1779767E-4,-8.6975095E-5,4.8205376E-4,-1.6062665E-3,-2.9102326E-4,9.61895E-4,-1.2325286E-4,-7.3740186E-5,4.93412E-4],"categories":[],"categories_nodes":[],"categories_segments":[],"categories_sizes":[],"default_left":[0,0,0,0,0,0,0,0,0,0,0,0,0,0,0,0,0,0,0,0,0,0,0,0,0,0,0,0,0],"id":48,"left_children":[1,3,5,7,9,-1,11,13,-1,-1,15,-1,-1,17,-1,19,-1,21,23,25,27,-1,-1,-1,-1,-1,-1,-1,-1],"loss_changes":[7.647974E-2,2.1778256E-2,2.0504043E-2,3.730692E-3,1.334823E-2,0E0,5.580811E-4,1.5824493E-3,0E0,0E0,3.282574E-4,0E0,0E0,1.8167202E-3,0E0,1.701643E-4,0E0,7.123342E-5,1.3088714E-4,1.4736026E-4,9.69658E-5,0E0,0E0,0E0,0E0,0E0,0E0,0E0,0E0],"parents":[2147483647,0,0,1,1,2,2,3,3,4,4,6,6,7,7,10,10,13,13,15,15,17,17,18,18,19,19,20,20],"right_children":[2,4,6,8,10,-1,12,14,-1,-1,16,-1,-1,18,-1,20,-1,22,24,26,28,-1,-1,-1,-1,-1,-1,-1,-1],"split_conditions":[4.3E1,8.060373E2,4.4687695E2,9.026729E2,4E0,-1.0256491E-2,8.726458E2,1.6E1,-3.884554E-3,1.5226619E-3,2.1E1,-3.4928538E-3,-1.0912832E-3,3.072E5,1.1845207E-3,-2E1,-1.0716915E-3,2E0,2.0798683E1,1.081206E3,1.2E1,-8.6975095E-5,4.8205376E-4,-1.6062665E-3,-2.9102326E-4,9.61895E-4,-1.2325286E-4,-7.3740186E-5,4.93412E-4],"split_indices":[3,0,0,1,4,0,0,3,0,0,3,0,0,6,0,9,0,3,7,0,3,0,0,0,0,0,0,0,0],"split_type":[0,0,0,0,0,0,0,0,0,0,0,0,0,0,0,0,0,0,0,0,0,0,0,0,0,0,0,0,0],"sum_hessian":[1.8E2,1.68E2,1.2E1,3.3E1,1.35E2,4E0,8E0,3E1,3E0,6.8E1,6.7E1,6E0,2E0,2.9E1,1E0,6.6E1,1E0,5E0,2.4E1,2E0,6.4E1,4E0,1E0,2.3E1,1E0,1E0,1E0,6.3E1,1E0],"tree_param":{"num_deleted":"0","num_feature":"10","num_nodes":"29","size_leaf_vector":"1"}},{"base_weights":[-2.951259E-3,2.9548975E-3,-5.6598946E-2,-1.7922562E-2,8.966703E-3,-8.246257E-3,-4.0431213E-2,-1.4134141E-2,-3.6514807E-3,1.404185E-3,-4.5591785E-4,-3.7757237E-3,-2.076563E-3,-1.5423919E-2,1.1371422E-3,6.709099E-3,-8.0657005E-4,1.0800759E-3,-1.8409636E-2,9.2342374E-4,-1.18331904E-4,-4.1919708E-4,-6.4261485E-4,-8.142089E-5,4.6277046E-4,-1.5066231E-3,-2.7937887E-4,2.643776E-4,-6.141202E-5],"categories":[],"categories_nodes":[],"categories_segments":[],"categories_sizes":[],"default_left":[0,0,0,0,0,0,0,0,0,0,0,0,0,0,0,0,0,0,0,0,0,0,0,0,0,0,0,0,0],"id":49,"left_children":[1,3,5,7,9,-1,11,13,-1,-1,15,-1,-1,17,-1,19,21,23,25,-1,-1,-1,27,-1,-1,-1,-1,-1,-1],"loss_changes":[5.751739E-2,2.0744547E-2,9.358786E-3,3.2405583E-3,1.0363067E-2,0E0,2.4375506E-4,1.4623879E-3,0E0,0E0,1.6118196E-4,0E0,0E0,1.6460009E-3,0E0,1.3581208E-4,4.0245395E-5,6.510371E-5,1.1097733E-4,0E0,0E0,0E0,3.1656717E-5,0E0,0E0,0E0,0E0,0E0,0E0],"parents":[2147483647,0,0,1,1,2,2,3,3,4,4,6,6,7,7,10,10,13,13,15,15,16,16,17,17,18,18,22,22],"right_children":[2,4,6,8,10,-1,12,14,-1,-1,16,-1,-1,18,-1,20,22,24,26,-1,-1,-1,28,-1,-1,-1,-1,-1,-1],"split_conditions":[4E1,8.060373E2,2.903852E2,9.026729E2,4E0,-8.246257E-3,7.993357E2,1.2E1,-3.6514807E-3,1.404185E-3,-2E1,-3.7757237E-3,-2.076563E-3,3.072E5,1.1371422E-3,1.081206E3,-1.1E1,2E0,2.0798683E1,9.2342374E-4,-1.18331904E-4,-4.1919708E-4,8.14328E2,-8.142089E-5,4.6277046E-4,-1.5066231E-3,-2.7937887E-4,2.643776E-4,-6.141202E-5],"split_indices":[3,0,0,1,4,0,0,3,0,0,9,0,0,6,0,0,9,3,7,0,0,0,0,0,0,0,0,0,0],"split_type":[0,0,0,0,0,0,0,0,0,0,0,0,0,0,0,0,0,0,0,0,0,0,0,0,0,0,0,0,0],"sum_hessian":[1.8E2,1.63E2,1.7E1,3.6E1,1.27E2,3E0,1.4E1,3.3E1,3E0,6.6E1,6.1E1,8E0,6E0,3.2E1,1E0,2E0,5.9E1,5E0,2.7E1,1E0,1E0,1E0,5.8E1,4E0,1E0,2.6E1,1E0,1E0,5.7E1],"tree_param":{"num_deleted":"0","num_feature":"10","num_nodes":"29","size_leaf_vector":"1"}},{"base_weights":[-3.9492655E-3,2.4759697E-3,-6.1913934E-2,-1.3925479E-2,8.102075E-3,-9.143839E-3,-3.878292E-2,1.1715316E-3,-1.4979473E-2,1.524664E-2,-8.785161E-4,-2.2459984E-2,-3.628453E-3,-3.299492E-2,-1.0948399E-2,-1.3094806E-3,1.2770252E-3,-5.341232E-3,-5.183357E-4,-1.956558E-3,-4.9900054E-4,-9.948063E-4,-3.624482E-3,-1.2698164E-3,-3.3244768E-3,-5.720393E-4,3.4618377E-6,-3.440221E-4,-2.8105258E-4,2.566846E-4,-5.52948E-4,-7.193744E-5,6.198883E-5],"categories":[],"categories_nodes":[],"categories_segments":[],"categories_sizes":[],"default_left":[0,0,0,0,0,0,0,0,0,0,0,0,0,0,0,0,0,0,0,0,0,0,0,0,0,0,0,0,0,0,0,0,0],"id":50,"left_children":[1,3,5,7,9,-1,11,-1,13,15,17,19,-1,21,23,-1,-1,25,27,-1,-1,-1,-1,-1,29,-1,-1,-1,31,-1,-1,-1,-1],"loss_changes":[6.7191884E-2,1.5153859E-2,1.737772E-2,1.4840756E-3,7.84121E-3,0E0,4.833229E-4,0E0,2.6162425E-3,1.8009394E-3,8.563749E-5,4.1826395E-5,0E0,1.2084176E-3,1.2612203E-3,0E0,0E0,3.9277278E-5,4.5455723E-5,0E0,0E0,0E0,0E0,0E0,3.737236E-4,0E0,0E0,0E0,3.3333214E-5,0E0,0E0,0E0,0E0],"parents":[2147483647,0,0,1,1,2,2,3,3,4,4,6,6,8,8,9,9,10,10,11,11,13,13,14,14,17,17,18,18,24,24,28,28],"right_children":[2,4,6,8,10,-1,12,-1,14,16,18,20,-1,22,24,-1,-1,26,28,-1,-1,-1,-1,-1,30,-1,-1,-1,32,-1,-1,-1,-1],"split_conditions":[2.1E1,9.8042773E2,3.8891357E2,2.4E1,4E0,-9.143839E-3,2.17E2,1.1715316E-3,3E1,1.3E1,5E0,8.3112E1,-3.628453E-3,1.6612E2,1.9721767E2,-1.3094806E-3,1.2770252E-3,1.4103645E3,-1.1E1,-1.956558E-3,-4.9900054E-4,-9.948063E-4,-3.624482E-3,-1.2698164E-3,4.09E2,-5.720393E-4,3.4618377E-6,-3.440221E-4,1E0,2.566846E-4,-5.52948E-4,-7.193744E-5,6.198883E-5],"split_indices":[3,1,1,2,4,0,4,0,2,2,3,7,0,1,1,0,0,1,9,0,0,0,0,0,4,0,0,0,8,0,0,0,0],"split_type":[0,0,0,0,0,0,0,0,0,0,0,0,0,0,0,0,0,0,0,0,0,0,0,0,0,0,0,0,0,0,0,0,0],"sum_hessian":[1.79E2,1.62E2,1.7E1,4.1E1,1.21E2,4E0,1.3E1,1E0,4E1,6.7E1,5.4E1,5E0,8E0,6E0,3.4E1,1E0,6.6E1,3E0,5.1E1,4E0,1E0,3E0,3E0,2E1,1.4E1,2E0,1E0,2E0,4.9E1,5E0,9E0,3.1E1,1.8E1],"tree_param":{"num_deleted":"0","num_feature":"10","num_nodes":"33","size_leaf_vector":"1"}},{"base_weights":[-2.7831262E-3,-2.9839812E-2,6.580212E-3,-1.1348788E-2,-5.7465646E-2,1.190561E-3,-1.8155916E-3,-1.1855587E-3,8.968592E-3,-8.558634E-3,-3.7128847E-2,-1.4260704E-4,-5.9909225E-3,1.260929E-3,-6.511688E-5,-3.9227366E-2,-3.0998228E-4,9.0024946E-4,-5.9558393E-4,-1.1497303E-2,6.6518784E-4,-9.052658E-4,-3.2403166E-3,-1.0964711E-3,3.2603343E-3,-2.2754144E-2,-1.8142292E-3,5.513954E-4,-7.925563E-4,-3.7060547E-4,-5.1079725E-5,4.1980264E-4,-3.808339E-5,-7.7835715E-4,-2.2555287E-3,-2.5754294E-4,-4.866791E-5,-1.426951E-4,-2.0365032E-5],"categories":[],"categories_nodes":[],"categories_segments":[],"categories_sizes":[],"default_left":[0,0,0,0,0,0,0,0,0,0,0,0,0,0,0,0,0,0,0,0,0,0,0,0,0,0,0,0,0,0,0,0,0,0,0,0,0,0,0],"id":51,"left_children":[1,3,5,7,9,-1,11,-1,13,-1,15,17,19,-1,-1,21,-1,-1,23,25,27,-1,-1,29,31,33,35,-1,37,-1,-1,-1,-1,-1,-1,-1,-1,-1,-1],"loss_changes":[4.7317754E-2,2.3867678E-2,9.715359E-3,2.2483738E-3,1.5161283E-2,0E0,4.8811416E-4,0E0,3.4509477E-4,0E0,8.9476816E-4,2.699642E-4,7.406693E-4,0E0,0E0,4.050508E-5,0E0,0E0,1.0014387E-4,1.1577278E-3,9.6240095E-5,0E0,0E0,6.991704E-5,4.7047593E-5,7.995544E-5,9.901871E-6,0E0,4.3449436E-6,0E0,0E0,0E0,0E0,0E0,0E0,0E0,0E0,0E0,0E0],"parents":[2147483647,0,0,1,1,2,2,3,3,4,4,6,6,8,8,10,10,11,11,12,12,15,15,18,18,19,19,20,20,23,23,24,24,25,25,26,26,28,28],"right_children":[2,4,6,8,10,-1,12,-1,14,-1,16,18,20,-1,-1,22,-1,-1,24,26,28,-1,-1,30,32,34,36,-1,38,-1,-1,-1,-1,-1,-1,-1,-1,-1,-1],"split_conditions":[8.060373E2,1.74E2,4E0,1.5431314E2,4.4687695E2,1.190561E-3,8.251071E1,-1.1855587E-3,6.112115E2,-8.558634E-3,3.2E1,-2E1,1.4364104E3,1.260929E-3,-6.511688E-5,-1.6103867E2,-3.0998228E-4,9.0024946E-4,3.58E2,3.21E2,1.5707942E3,-9.052658E-4,-3.2403166E-3,-1E0,-9.2E0,0E0,4.15E2,5.513954E-4,1.9E2,-3.7060547E-4,-5.1079725E-5,4.1980264E-4,-3.808339E-5,-7.7835715E-4,-2.2555287E-3,-2.5754294E-4,-4.866791E-5,-1.426951E-4,-2.0365032E-5],"split_indices":[0,4,4,0,0,0,7,0,0,0,2,9,1,0,0,7,0,0,5,4,0,0,0,9,7,8,4,0,4,0,0,0,0,0,0,0,0,0,0],"split_type":[0,0,0,0,0,0,0,0,0,0,0,0,0,0,0,0,0,0,0,0,0,0,0,0,0,0,0,0,0,0,0,0,0,0,0,0,0,0,0],"sum_hessian":[1.85E2,4.7E1,1.38E2,2.9E1,1.8E1,6.9E1,6.9E1,2.5E1,4E0,4E0,1.4E1,5E1,1.9E1,2E0,2E0,1.3E1,1E0,1E0,4.9E1,1E1,9E0,1E0,1.2E1,4.4E1,5E0,4E0,6E0,1E0,8E0,4E0,4E1,3E0,2E0,2E0,2E0,2E0,4E0,2E0,6E0],"tree_param":{"num_deleted":"0","num_feature":"10","num_nodes":"39","size_leaf_vector":"1"}},{"base_weights":[-3.131991E-3,2.4245034E-3,-5.6224734E-2,-1.2367074E-2,6.71477E-3,-8.010881E-3,-3.5010796E-2,-1.3687664E-2,1.4069652E-3,1.3774097E-2,-4.494749E-4,-2.0181036E-2,-3.1487572E-3,4.97818E-4,-1.5476406E-2,1.0320321E-3,1.6055806E-3,3.101627E-3,-8.029857E-4,-1.7941522E-3,-4.4790268E-4,-1.4199257E-4,3.8354873E-4,-1.3422315E-2,-2.089497E-2,4.990399E-3,-3.604889E-5,-4.937887E-3,-4.9329654E-4,-1.0929299E-3,-2.975845E-4,-1.9201889E-3,-7.0007954E-4,4.72126E-4,9.027481E-5,-5.3028105E-4,5.3596495E-6,-2.9002666E-4,-1.9808715E-5],"categories":[],"categories_nodes":[],"categories_segments":[],"categories_sizes":[],"default_left":[0,0,0,0,0,0,0,0,0,0,0,0,0,0,0,0,0,0,0,0,0,0,0,0,0,0,0,0,0,0,0,0,0,0,0,0,0,0,0],"id":52,"left_children":[1,3,5,7,9,-1,11,13,-1,15,17,19,-1,21,23,-1,-1,25,27,-1,-1,-1,-1,29,31,33,-1,35,37,-1,-1,-1,-1,-1,-1,-1,-1,-1,-1],"loss_changes":[5.2943017E-2,1.0426992E-2,1.2330189E-2,1.7043394E-3,6.4291833E-3,0E0,4.4049695E-5,9.2117395E-4,0E0,9.3123876E-5,8.283315E-5,3.8185623E-5,0E0,5.7333826E-5,7.570861E-5,0E0,0E0,4.2504933E-5,7.3115676E-5,0E0,0E0,0E0,0E0,9.550247E-6,5.410821E-5,7.41618E-6,0E0,3.4289624E-5,4.2194482E-5,0E0,0E0,0E0,0E0,0E0,0E0,0E0,0E0,0E0,0E0],"parents":[2147483647,0,0,1,1,2,2,3,3,4,4,6,6,7,7,9,9,10,10,11,11,13,13,14,14,17,17,18,18,23,23,24,24,25,25,27,27,28,28],"right_children":[2,4,6,8,10,-1,12,14,-1,16,18,20,-1,22,24,-1,-1,26,28,-1,-1,-1,-1,30,32,34,-1,36,38,-1,-1,-1,-1,-1,-1,-1,-1,-1,-1],"split_conditions":[4E1,7.824638E2,4.4687695E2,1.6E1,4E0,-8.010881E-3,2.17E2,3.072E5,1.4069652E-3,5E0,9.389381E2,4.9E1,-3.1487572E-3,2E0,6.795632E2,1.0320321E-3,1.6055806E-3,-9.2E0,5E0,-1.7941522E-3,-4.4790268E-4,-1.4199257E-4,3.8354873E-4,1.5431314E2,7.458062E2,8.8321625E2,-3.604889E-5,1.419205E3,-8.564186E1,-1.0929299E-3,-2.975845E-4,-1.9201889E-3,-7.0007954E-4,4.72126E-4,9.027481E-5,-5.3028105E-4,5.3596495E-6,-2.9002666E-4,-1.9808715E-5],"split_indices":[3,0,0,3,4,0,4,6,0,3,1,3,0,3,1,0,0,7,3,0,0,0,0,0,0,0,0,0,7,0,0,0,0,0,0,0,0,0,0],"split_type":[0,0,0,0,0,0,0,0,0,0,0,0,0,0,0,0,0,0,0,0,0,0,0,0,0,0,0,0,0,0,0,0,0,0,0,0,0,0,0],"sum_hessian":[1.78E2,1.62E2,1.6E1,3.6E1,1.26E2,4E0,1.2E1,3.5E1,1E0,6.3E1,6.3E1,4E0,8E0,4E0,3.1E1,5.8E1,5E0,5E0,5.8E1,3E0,1E0,3E0,1E0,2.5E1,6E0,3E0,2E0,3E0,5.5E1,2.4E1,1E0,4E0,2E0,2E0,1E0,2E0,1E0,3E0,5.2E1],"tree_param":{"num_deleted":"0","num_feature":"10","num_nodes":"39","size_leaf_vector":"1"}},{"base_weights":[-2.7108998E-3,2.0751539E-3,-5.266423E-2,-1.3251946E-2,6.3300235E-3,-7.498186E-3,-3.2819636E-2,-1.0147419E-2,-3.0303763E-3,1.1119727E-2,1.5186256E-3,-2.7558007E-3,-5.314064E-4,-1.1402124E-2,1.3506889E-3,-3.2678604E-4,1.1399283E-2,1.0128212E-3,1.1785984E-3,2.6563802E-4,-1.3355604E-2,1.1565026E-2,5.1498414E-6,3.535986E-3,-5.750656E-4,-1.2178039E-4,3.682041E-4,-1.0991899E-3,-8.847236E-5,4.0006638E-4,9.4328425E-4,1.4873028E-4,1.4406395E-3,-1.732111E-5,-1.3319397E-4],"categories":[],"categories_nodes":[],"categories_segments":[],"categories_sizes":[],"default_left":[0,0,0,0,0,0,0,0,0,0,0,0,0,0,0,0,0,0,0,0,0,0,0,0,0,0,0,0,0,0,0,0,0,0,0],"id":53,"left_children":[1,3,5,7,9,-1,11,13,-1,15,17,-1,-1,19,-1,-1,21,-1,23,25,27,29,-1,31,33,-1,-1,-1,-1,-1,-1,-1,-1,-1,-1],"loss_changes":[4.6490677E-2,1.1692123E-2,1.0776866E-2,2.5974629E-3,3.2094377E-3,0E0,3.2514706E-4,1.4134832E-3,0E0,3.4409948E-4,2.5405933E-4,0E0,0E0,8.012941E-4,0E0,0E0,1.2888573E-4,0E0,2.9141802E-4,5.352988E-5,1.2602052E-4,4.192535E-5,0E0,6.945457E-4,1.5661124E-5,0E0,0E0,0E0,0E0,0E0,0E0,0E0,0E0,0E0,0E0],"parents":[2147483647,0,0,1,1,2,2,3,3,4,4,6,6,7,7,9,9,10,10,13,13,16,16,18,18,19,19,20,20,21,21,23,23,24,24],"right_children":[2,4,6,8,10,-1,12,14,-1,16,18,-1,-1,20,-1,-1,22,-1,24,26,28,30,-1,32,34,-1,-1,-1,-1,-1,-1,-1,-1,-1,-1],"split_conditions":[4E1,8.060373E2,4.4687695E2,9.026729E2,5E0,-7.498186E-3,8.6E1,1.6E1,-3.0303763E-3,2.7E1,8.8814813E2,-2.7558007E-3,-5.314064E-4,3.072E5,1.3506889E-3,-3.2678604E-4,1.8251115E3,1.0128212E-3,7.761909E-1,2E0,2.2925358E1,-1E0,5.1498414E-6,-2.5407138E0,1.020504E2,-1.2178039E-4,3.682041E-4,-1.0991899E-3,-8.847236E-5,4.0006638E-4,9.4328425E-4,1.4873028E-4,1.4406395E-3,-1.732111E-5,-1.3319397E-4],"split_indices":[3,0,0,1,3,0,9,3,0,2,1,0,0,6,0,0,0,0,7,3,7,9,0,7,7,0,0,0,0,0,0,0,0,0,0],"split_type":[0,0,0,0,0,0,0,0,0,0,0,0,0,0,0,0,0,0,0,0,0,0,0,0,0,0,0,0,0,0,0,0,0,0,0],"sum_hessian":[1.93E2,1.77E2,1.6E1,3.8E1,1.39E2,4E0,1.2E1,3.5E1,3E0,6.9E1,7E1,1.1E1,1E0,3.4E1,1E0,1E0,6.8E1,1E0,6.9E1,5E0,2.9E1,6.7E1,1E0,2.9E1,4E1,4E0,1E0,2.8E1,1E0,3E0,6.4E1,2.7E1,2E0,3.1E1,9E0],"tree_param":{"num_deleted":"0","num_feature":"10","num_nodes":"35","size_leaf_vector":"1"}},{"base_weights":[-3.030697E-3,1.7597519E-3,-4.522884E-2,-1.2269291E-2,5.6788037E-3,-7.018305E-3,-2.8046926E-2,-9.162819E-3,-2.8485584E-3,1.061184E-2,1.9043057E-3,-2.9139297E-2,-5.10149E-4,-1.0422801E-2,1.2966633E-3,3.5915375E-5,8.778589E-4,4.3176487E-3,1.458327E-4,-9.317016E-4,-2.4867423E-3,2.853473E-4,-1.234516E-2,2.6203352E-3,1.2435007E-3,9.723091E-4,-4.033013E-4,-1.1399841E-4,3.5347938E-4,-1.0178996E-3,-8.493423E-5,-1.2867109E-4,4.925358E-4,-5.3539276E-5,4.4128418E-4],"categories":[],"categories_nodes":[],"categories_segments":[],"categories_sizes":[],"default_left":[0,0,0,0,0,0,0,0,0,0,0,0,0,0,0,0,0,0,0,0,0,0,0,0,0,0,0,0,0,0,0,0,0,0,0],"id":54,"left_children":[1,3,5,7,9,-1,11,13,-1,15,17,19,-1,21,-1,-1,-1,23,25,-1,-1,27,29,31,-1,-1,33,-1,-1,-1,-1,-1,-1,-1,-1],"loss_changes":[3.767913E-2,9.306407E-3,1.1413861E-2,2.356161E-3,2.4375962E-3,0E0,1.6925856E-4,1.2558182E-3,0E0,2.0442577E-4,3.2189908E-4,1.1431426E-4,0E0,6.8282476E-4,0E0,0E0,0E0,5.690054E-4,3.0163248E-4,0E0,0E0,4.8710455E-5,1.06100924E-4,4.435771E-4,0E0,0E0,7.295597E-5,0E0,0E0,0E0,0E0,0E0,0E0,0E0,0E0],"parents":[2147483647,0,0,1,1,2,2,3,3,4,4,6,6,7,7,9,9,10,10,11,11,13,13,17,17,18,18,21,21,22,22,23,23,26,26],"right_children":[2,4,6,8,10,-1,12,14,-1,16,18,20,-1,22,-1,-1,-1,24,26,-1,-1,28,30,32,-1,-1,34,-1,-1,-1,-1,-1,-1,-1,-1],"split_conditions":[4E1,8.060373E2,4.4687695E2,9.026729E2,4E0,-7.018305E-3,8.6E1,1.6E1,-2.8485584E-3,-4E0,5.421146E0,1.1272853E1,-5.10149E-4,3.072E5,1.2966633E-3,3.5915375E-5,8.778589E-4,-2.5407138E0,8.8814813E2,-9.317016E-4,-2.4867423E-3,2E0,2.2925358E1,1E0,1.2435007E-3,9.723091E-4,1.7705287E3,-1.1399841E-4,3.5347938E-4,-1.0178996E-3,-8.493423E-5,-1.2867109E-4,4.925358E-4,-5.3539276E-5,4.4128418E-4],"split_indices":[3,0,0,1,3,0,9,3,0,8,7,7,0,6,0,0,0,7,1,0,0,3,7,8,0,0,1,0,0,0,0,0,0,0,0],"split_type":[0,0,0,0,0,0,0,0,0,0,0,0,0,0,0,0,0,0,0,0,0,0,0,0,0,0,0,0,0,0,0,0,0,0,0],"sum_hessian":[1.85E2,1.67E2,1.8E1,3.6E1,1.31E2,4E0,1.4E1,3.3E1,3E0,5.6E1,7.5E1,1.3E1,1E0,3.2E1,1E0,2E0,5.4E1,3.1E1,4.4E1,2E0,1.1E1,5E0,2.7E1,2.8E1,3E0,1E0,4.3E1,4E0,1E0,2.6E1,1E0,1.3E1,1.5E1,4.2E1,1E0],"tree_param":{"num_deleted":"0","num_feature":"10","num_nodes":"35","size_leaf_vector":"1"}},{"base_weights":[-2.8622479E-3,1.5082419E-3,-4.4342075E-2,-1.1360523E-2,5.2751945E-3,-6.5691313E-3,-2.6403427E-2,-8.058577E-3,-3.0881261E-2,1.0900096E-2,-3.442429E-4,-2.9338647E-2,-1.2464523E-2,-9.282902E-3,1.244793E-3,-1.3546991E-3,-3.466854E-3,8.126585E-4,1.3979264E-3,-6.5079384E-4,2.7275484E-3,-3.0824132E-2,-6.3877105E-4,-1.182696E-3,-2.2027969E-4,3.0239424E-4,-1.1069156E-2,-2.4242639E-3,-2.830839E-4,-4.5490266E-5,3.5005093E-3,-2.6031113E-3,-6.8424223E-4,-1.06704705E-4,3.3933637E-4,-9.133192E-4,-8.1539154E-5,-3.4183502E-4,-3.8372676E-5,-2.0385742E-4,-1.0849237E-5,3.7422178E-5,4.2931238E-4],"categories":[],"categories_nodes":[],"categories_segments":[],"categories_sizes":[],"default_left":[0,0,0,0,0,0,0,0,0,0,0,0,0,0,0,0,0,0,0,0,0,0,0,0,0,0,0,0,0,0,0,0,0,0,0,0,0,0,0,0,0,0,0],"id":55,"left_children":[1,3,5,7,9,-1,11,13,15,17,19,21,23,25,-1,-1,-1,-1,-1,27,29,31,-1,-1,-1,33,35,37,39,-1,41,-1,-1,-1,-1,-1,-1,-1,-1,-1,-1,-1,-1],"loss_changes":[3.2335993E-2,7.913046E-3,9.350762E-3,2.1360288E-3,3.9864588E-3,0E0,1.6618613E-4,1.0986922E-3,1.3470603E-4,1.2974581E-4,6.2041334E-5,7.109251E-5,4.9379538E-5,5.5124424E-4,0E0,0E0,0E0,0E0,0E0,3.778896E-5,1.727739E-5,6.5400265E-5,0E0,0E0,0E0,4.4330696E-5,8.261204E-5,3.3899858E-5,1.6356213E-5,0E0,2.578352E-5,0E0,0E0,0E0,0E0,0E0,0E0,0E0,0E0,0E0,0E0,0E0,0E0],"parents":[2147483647,0,0,1,1,2,2,3,3,4,4,6,6,7,7,8,8,9,9,10,10,11,11,12,12,13,13,19,19,20,20,21,21,25,25,26,26,27,27,28,28,30,30],"right_children":[2,4,6,8,10,-1,12,14,16,18,20,22,24,26,-1,-1,-1,-1,-1,28,30,32,-1,-1,-1,34,36,38,40,-1,42,-1,-1,-1,-1,-1,-1,-1,-1,-1,-1,-1,-1],"split_conditions":[4E1,8.060373E2,4.4687695E2,8.553152E2,4E0,-6.5691313E-3,1E0,1.6E1,7.824638E2,5E0,3.58E2,5.1E1,4.9E1,3.072E5,1.244793E-3,-1.3546991E-3,-3.466854E-3,8.126585E-4,1.3979264E-3,-1E0,6E0,1.4364104E3,-6.3877105E-4,-1.182696E-3,-2.2027969E-4,2E0,7.458062E2,3.1E1,-7E0,-4.5490266E-5,3.1E1,-2.6031113E-3,-6.8424223E-4,-1.06704705E-4,3.3933637E-4,-9.133192E-4,-8.1539154E-5,-3.4183502E-4,-3.8372676E-5,-2.0385742E-4,-1.0849237E-5,3.7422178E-5,4.2931238E-4],"split_indices":[3,0,0,1,4,0,9,3,0,3,5,3,3,6,0,0,0,0,0,9,3,1,0,0,0,3,0,2,8,0,2,0,0,0,0,0,0,0,0,0,0,0,0],"split_type":[0,0,0,0,0,0,0,0,0,0,0,0,0,0,0,0,0,0,0,0,0,0,0,0,0,0,0,0,0,0,0,0,0,0,0,0,0,0,0,0,0,0,0],"sum_hessian":[1.77E2,1.61E2,1.6E1,3.6E1,1.25E2,4E0,1.2E1,3.2E1,4E0,6.2E1,6.3E1,9E0,3E0,3.1E1,1E0,3E0,1E0,5.8E1,4E0,5.8E1,5E0,8E0,1E0,2E0,1E0,5E0,2.6E1,9E0,4.9E1,1E0,4E0,7E0,1E0,4E0,1E0,2.5E1,1E0,4E0,5E0,2E0,4.7E1,2E0,2E0],"tree_param":{"num_deleted":"0","num_feature":"10","num_nodes":"43","size_leaf_vector":"1"}},{"base_weights":[-1.8769656E-3,1.8880072E-3,-3.71216E-2,-1.0474696E-2,5.079167E-3,-6.090975E-3,-2.4242671E-2,-8.335583E-3,-3.3281802E-3,1.0125451E-2,-1.935603E-4,-1.4146566E-2,-2.7876068E-2,-9.493481E-3,1.1950015E-3,7.498109E-4,1.3174311E-3,5.6236587E-3,-4.5906947E-4,-1.2734833E-3,-2.1146773E-4,-2.379555E-3,-4.4242857E-4,-7.991731E-3,-1.49194E-2,7.59201E-4,-8.436203E-5,-1.6863116E-4,-4.846096E-3,-7.732375E-4,-1.9502639E-5,-1.4009514E-3,-7.827759E-5,-3.4789715E-5,3.0404568E-4,-3.7822723E-5,-4.9170176E-4],"categories":[],"categories_nodes":[],"categories_segments":[],"categories_sizes":[],"default_left":[0,0,0,0,0,0,0,0,0,0,0,0,0,0,0,0,0,0,0,0,0,0,0,0,0,0,0,0,0,0,0,0,0,0,0,0,0],"id":56,"left_children":[1,3,5,7,9,-1,11,13,-1,15,17,19,21,23,-1,-1,-1,25,27,-1,-1,-1,-1,29,31,-1,-1,33,35,-1,-1,-1,-1,-1,-1,-1,-1],"loss_changes":[2.4751373E-2,6.720483E-3,7.1988516E-3,1.9837078E-3,3.5939964E-3,0E0,1.5589781E-4,1.0580367E-3,0E0,1.7510494E-4,1.0606482E-4,8.022238E-5,2.530031E-4,1.496647E-4,0E0,0E0,0E0,8.7468135E-5,8.200324E-5,0E0,0E0,0E0,0E0,3.607486E-4,1.9971572E-4,0E0,0E0,6.7171975E-5,1.9838437E-5,0E0,0E0,0E0,0E0,0E0,0E0,0E0,0E0],"parents":[2147483647,0,0,1,1,2,2,3,3,4,4,6,6,7,7,9,9,10,10,11,11,12,12,13,13,17,17,18,18,23,23,24,24,27,27,28,28],"right_children":[2,4,6,8,10,-1,12,14,-1,16,18,20,22,24,-1,-1,-1,26,28,-1,-1,-1,-1,30,32,-1,-1,34,36,-1,-1,-1,-1,-1,-1,-1,-1],"split_conditions":[4E1,8.060373E2,4.4687695E2,7.824638E2,4E0,-6.090975E-3,2.17E2,1.6E1,-3.3281802E-3,5E0,-2E1,8.3112E1,8.6E1,6.795632E2,1.1950015E-3,7.498109E-4,1.3174311E-3,1.081206E3,6.18E2,-1.2734833E-3,-2.1146773E-4,-2.379555E-3,-4.4242857E-4,1.5431314E2,1.908604E0,7.59201E-4,-8.436203E-5,3.78E2,1.3194646E3,-7.732375E-4,-1.9502639E-5,-1.4009514E-3,-7.827759E-5,-3.4789715E-5,3.0404568E-4,-3.7822723E-5,-4.9170176E-4],"split_indices":[3,0,0,0,4,0,4,3,0,3,9,7,9,1,0,0,0,0,4,0,0,0,0,0,7,0,0,5,0,0,0,0,0,0,0,0,0],"split_type":[0,0,0,0,0,0,0,0,0,0,0,0,0,0,0,0,0,0,0,0,0,0,0,0,0,0,0,0,0,0,0,0,0,0,0,0,0],"sum_hessian":[1.85E2,1.68E2,1.7E1,3.4E1,1.34E2,3E0,1.4E1,3.3E1,1E0,6.8E1,6.6E1,5E0,9E0,3.2E1,1E0,6.3E1,5E0,2E0,6.4E1,4E0,1E0,8E0,1E0,2.7E1,5E0,1E0,1E0,6.1E1,3E0,2.2E1,5E0,4E0,1E0,5.8E1,3E0,1E0,2E0],"tree_param":{"num_deleted":"0","num_feature":"10","num_nodes":"37","size_leaf_vector":"1"}},{"base_weights":[-1.3217098E-3,1.6168853E-3,-3.2094352E-2,-9.272317E-3,4.6569128E-3,-4.5780824E-3,