{"learner":{"attributes":{},"feature_names":[],"feature_types":[],"gradient_booster":{"model":{"cats":{"enc":[],"feature_segments":[],"sorted_idx":[]},"gbtree_model_param":{"num_parallel_tree":"1","num_trees":"600"},"iteration_indptr":[0,1,2,3,4,5,6,7,8,9,10,11,12,13,14,15,16,17,18,19,20,21,22,23,24,25,26,27,28,29,30,31,32,33,34,35,36,37,38,39,40,41,42,43,44,45,46,47,48,49,50,51,52,53,54,55,56,57,58,59,60,61,62,63,64,65,66,67,68,69,70,71,72,73,74,75,76,77,78,79,80,81,82,83,84,85,86,87,88,89,90,91,92,93,94,95,96,97,98,99,100,101,102,103,104,105,106,107,108,109,110,111,112,113,114,115,116,117,118,119,120,121,122,123,124,125,126,127,128,129,130,131,132,133,134,135,136,137,138,139,140,141,142,143,144,145,146,147,148,149,150,151,152,153,154,155,156,157,158,159,160,161,162,163,164,165,166,167,168,169,170,171,172,173,174,175,176,177,178,179,180,181,182,183,184,185,186,187,188,189,190,191,192,193,194,195,196,197,198,199,200,201,202,203,204,205,206,207,208,209,210,211,212,213,214,215,216,217,218,219,220,221,222,223,224,225,226,227,228,229,230,231,232,233,234,235,236,237,238,239,240,241,242,243,244,245,246,247,248,249,250,251,252,253,254,255,256,257,258,259,260,261,262,263,264,265,266,267,268,269,270,271,272,273,274,275,276,277,278,279,280,281,282,283,284,285,286,287,288,289,290,291,292,293,294,295,296,297,298,299,300,301,302,303,304,305,306,307,308,309,310,311,312,313,314,315,316,317,318,319,320,321,322,323,324,325,326,327,328,329,330,331,332,333,334,335,336,337,338,339,340,341,342,343,344,345,346,347,348,349,350,351,352,353,354,355,356,357,358,359,360,361,362,363,364,365,366,367,368,369,370,371,372,373,374,375,376,377,378,379,380,381,382,383,384,385,386,387,388,389,390,391,392,393,394,395,396,397,398,399,400,401,402,403,404,405,406,407,408,409,410,411,412,413,414,415,416,417,418,419,420,421,422,423,424,425,426,427,428,429,430,431,432,433,434,435,436,437,438,439,440,441,442,443,444,445,446,447,448,449,450,451,452,453,454,455,456,457,458,459,460,461,462,463,464,465,466,467,468,469,470,471,472,473,474,475,476,477,478,479,480,481,482,483,484,485,486,487,488,489,490,491,492,493,494,495,496,497,498,499,500,501,502,503,504,505,506,507,508,509,510,511,512,513,514,515,516,517,518,519,520,521,522,523,524,525,526,527,528,529,530,531,532,533,534,535,536,537,538,539,540,541,542,543,544,545,546,547,548,549,550,551,552,553,554,555,556,557,558,559,560,561,562,563,564,565,566,567,568,569,570,571,572,573,574,575,576,577,578,579,580,581,582,583,584,585,586,587,588,589,590,591,592,593,594,595,596,597,598,599,600],"tree_info":[0,0,0,0,0,0,0,0,0,0,0,0,0,0,0,0,0,0,0,0,0,0,0,0,0,0,0,0,0,0,0,0,0,0,0,0,0,0,0,0,0,0,0,0,0,0,0,0,0,0,0,0,0,0,0,0,0,0,0,0,0,0,0,0,0,0,0,0,0,0,0,0,0,0,0,0,0,0,0,0,0,0,0,0,0,0,0,0,0,0,0,0,0,0,0,0,0,0,0,0,0,0,0,0,0,0,0,0,0,0,0,0,0,0,0,0,0,0,0,0,0,0,0,0,0,0,0,0,0,0,0,0,0,0,0,0,0,0,0,0,0,0,0,0,0,0,0,0,0,0,0,0,0,0,0,0,0,0,0,0,0,0,0,0,0,0,0,0,0,0,0,0,0,0,0,0,0,0,0,0,0,0,0,0,0,0,0,0,0,0,0,0,0,0,0,0,0,0,0,0,0,0,0,0,0,0,0,0,0,0,0,0,0,0,0,0,0,0,0,0,0,0,0,0,0,0,0,0,0,0,0,0,0,0,0,0,0,0,0,0,0,0,0,0,0,0,0,0,0,0,0,0,0,0,0,0,0,0,0,0,0,0,0,0,0,0,0,0,0,0,0,0,0,0,0,0,0,0,0,0,0,0,0,0,0,0,0,0,0,0,0,0,0,0,0,0,0,0,0,0,0,0,0,0,0,0,0,0,0,0,0,0,0,0,0,0,0,0,0,0,0,0,0,0,0,0,0,0,0,0,0,0,0,0,0,0,0,0,0,0,0,0,0,0,0,0,0,0,0,0,0,0,0,0,0,0,0,0,0,0,0,0,0,0,0,0,0,0,0,0,0,0,0,0,0,0,0,0,0,0,0,0,0,0,0,0,0,0,0,0,0,0,0,0,0,0,0,0,0,0,0,0,0,0,0,0,0,0,0,0,0,0,0,0,0,0,0,0,0,0,0,0,0,0,0,0,0,0,0,0,0,0,0,0,0,0,0,0,0,0,0,0,0,0,0,0,0,0,0,0,0,0,0,0,0,0,0,0,0,0,0,0,0,0,0,0,0,0,0,0,0,0,0,0,0,0,0,0,0,0,0,0,0,0,0,0,0,0,0,0,0,0,0,0,0,0,0,0,0,0,0,0,0,0,0,0,0,0,0,0,0,0,0,0,0,0,0,0,0,0,0,0,0,0,0,0,0,0,0,0,0,0,0,0,0,0,0,0,0,0,0,0,0,0,0,0,0,0,0,0,0,0,0,0,0,0,0,0,0,0,0,0,0,0,0,0,0,0,0,0,0,0,0,0,0,0,0,0,0,0,0,0,0,0,0,0,0,0,0,0,0,0,0,0,0,0,0,0,0,0],"trees":[{"base_weights":[1.4956394E-2,-1.110168E0,8.1294405E-1,-7.6656795E-1,-1.3205528E0,1.1273423E0,4.7835657E-1,-8.090259E-1,-1.3658158E-1,-1.2328491E0,-1.0094928E-1,6.132675E-1,1.2240779E0,-5.154036E-2,5.7026774E-1,-5.4114487E-2,-7.7329314E-1,-3.6175575E-2,-3.102619E-2,-6.522906E-2,-8.186666E-1,3.8176587E-1,7.0305824E-1,6.2691435E-2,4.8620943E-2,-2.9449123E-1,1.8343507E-1,4.2730984E-1,6.8975085E-1,-4.100106E-2,-3.340548E-2,-9.566641E-2,2.934452E-2,-3.1534992E-2,-4.7487378E-2,1.9853418E-1,2.2078395E-2,7.606188E-1,3.4771052E-1,-1.8507805E-1,-4.441253E-1,2.1226916E-1,-4.4579944E-3,3.300157E-2,2.997897E-1,5.380641E-1,8.000651E-1,-7.7171327E-4,-6.596196E-3,-9.993832E-4,2.9503764E-3,1.0758333E-2,2.8842927E-3,2.928034E-2,4.272413E-2,1.8625336E-2,4.9733343E-3,-1.4620464E-3,-1.0340185E-2,-2.3520013E-2,-5.8481395E-3,1.4356777E-2,3.6112443E-3,1.6803334E-2,7.279144E-3,2.8533055E-2,1.4134868E-2,4.1901205E-2,3.1243473E-2],"categories":[],"categories_nodes":[],"categories_segments":[],"categories_sizes":[],"default_left":[0,0,0,0,0,0,0,0,0,0,0,0,0,0,0,0,0,0,0,0,0,0,0,0,0,0,0,0,0,0,0,0,0,0,0,0,0,0,0,0,0,0,0,0,0,0,0,0,0,0,0,0,0,0,0,0,0,0,0,0,0,0,0,0,0,0,0,0,0],"id":0,"left_children":[1,3,5,7,9,11,13,15,17,19,-1,21,23,25,27,-1,29,31,-1,-1,33,35,37,-1,-1,39,41,43,45,-1,-1,47,49,-1,-1,51,-1,53,55,57,59,61,-1,-1,63,65,67,-1,-1,-1,-1,-1,-1,-1,-1,-1,-1,-1,-1,-1,-1,-1,-1,-1,-1,-1,-1,-1,-1],"loss_changes":[9.606885E2,3.108368E1,6.531201E1,4.4633865E0,1.4294769E1,1.52621765E1,1.4883942E1,7.253952E-1,5.6064063E-1,6.240692E0,0E0,8.33292E-1,8.022461E-1,2.6800444E0,4.146332E0,0E0,1.6481018E-1,4.5683578E-2,0E0,0E0,3.6190987E-1,9.86135E-2,4.9232292E-1,0E0,0E0,2.943567E-1,2.0756656E-1,3.3930092E0,1.9121628E0,0E0,0E0,1.541796E-2,9.959467E-3,0E0,0E0,1.6438812E-3,0E0,8.853912E-3,6.03652E-3,4.4737756E-2,2.2346258E-2,2.0992315E-1,0E0,0E0,3.9860678E-1,3.5477257E-1,1.7089844E-3,0E0,0E0,0E0,0E0,0E0,0E0,0E0,0E0,0E0,0E0,0E0,0E0,0E0,0E0,0E0,0E0,0E0,0E0,0E0,0E0,0E0,0E0],"parents":[2147483647,0,0,1,1,2,2,3,3,4,4,5,5,6,6,7,7,8,8,9,9,11,11,12,12,13,13,14,14,16,16,17,17,20,20,21,21,22,22,25,25,26,26,27,27,28,28,31,31,32,32,35,35,37,37,38,38,39,39,40,40,41,41,44,44,45,45,46,46],"right_children":[2,4,6,8,10,12,14,16,18,20,-1,22,24,26,28,-1,30,32,-1,-1,34,36,38,-1,-1,40,42,44,46,-1,-1,48,50,-1,-1,52,-1,54,56,58,60,62,-1,-1,64,66,68,-1,-1,-1,-1,-1,-1,-1,-1,-1,-1,-1,-1,-1,-1,-1,-1,-1,-1,-1,-1,-1,-1],"split_conditions":[-4.9907586E-1,-2.2631527E-1,-3.422174E-1,-7.541126E-1,8.1348264E-1,1.1417794E-1,-2.143852E-1,-5.178056E-2,-4.999058E-1,-8.1577003E-1,-1.0094928E-1,-3.7412068E-1,-3.2573745E-1,-7.7929235E-1,-9.823777E-1,-5.4114487E-2,-9.6857345E-1,-5.5263484E-1,-3.102619E-2,-6.522906E-2,-5.7428795E-1,-4.204709E-1,-5.577179E-1,6.2691435E-2,4.8620943E-2,1.1489958E0,-8.465711E-2,-2.373639E-1,6.093518E-1,-4.100106E-2,-3.340548E-2,-1.160207E0,-3.1187853E-1,-3.1534992E-2,-4.7487378E-2,-4.4055834E-1,2.2078395E-2,-1.9594489E-1,2.0948751E-1,-2.0055924E-1,-7.9289824E-1,-5.7428795E-1,-4.4579944E-3,3.300157E-2,2.1153723E-1,4.3066046E-1,5.48899E-3,-7.7171327E-4,-6.596196E-3,-9.993832E-4,2.9503764E-3,1.0758333E-2,2.8842927E-3,2.928034E-2,4.272413E-2,1.8625336E-2,4.9733343E-3,-1.4620464E-3,-1.0340185E-2,-2.3520013E-2,-5.8481395E-3,1.4356777E-2,3.6112443E-3,1.6803334E-2,7.279144E-3,2.8533055E-2,1.4134868E-2,4.1901205E-2,3.1243473E-2],"split_indices":[1,3,3,0,11,1,1,2,0,1,0,1,4,5,6,0,1,1,0,0,4,1,4,0,0,4,3,4,0,0,0,6,2,0,0,1,0,0,0,3,5,4,0,0,3,5,3,0,0,0,0,0,0,0,0,0,0,0,0,0,0,0,0,0,0,0,0,0,0],"split_type":[0,0,0,0,0,0,0,0,0,0,0,0,0,0,0,0,0,0,0,0,0,0,0,0,0,0,0,0,0,0,0,0,0,0,0,0,0,0,0,0,0,0,0,0,0,0,0,0,0,0,0,0,0,0,0,0,0,0,0,0,0,0,0,0,0,0,0,0,0],"sum_hessian":[1.068E3,4.43E2,6.25E2,1.7E2,2.73E2,3.21E2,3.04E2,1.59E2,1.1E1,2.45E2,2.8E1,5.2E1,2.69E2,4.5E1,2.59E2,1.5E1,1.44E2,1E1,1E0,2.07E2,3.8E1,1.6E1,3.6E1,2.37E2,3.2E1,2.2E1,2.3E1,1.2E2,1.39E2,9.5E1,4.9E1,5E0,5E0,1.8E1,2E1,5E0,1.1E1,3E1,6E0,1.4E1,8E0,2.1E1,2E0,4.1E1,7.9E1,6.1E1,7.8E1,2E0,3E0,2E0,3E0,4E0,1E0,1.3E1,1.7E1,5E0,1E0,2E0,1.2E1,7E0,1E0,1.3E1,8E0,6.3E1,1.6E1,5.3E1,8E0,6.1E1,1.7E1],"tree_param":{"num_deleted":"0","num_feature":"14","num_nodes":"69","size_leaf_vector":"1"}},{"base_weights":[6.306677E-3,-1.0553422E0,7.7400345E-1,-7.3171407E-1,-1.263161E0,1.0778835E0,4.5649204E-1,-7.76933E-1,-1.0497354E-1,-1.1768577E0,-9.5574066E-2,5.0539804E-1,1.148141E0,5.11586E-2,5.763068E-1,-5.140521E-2,-7.408921E-1,-1.2886207E-2,-3.0250538E-2,-1.2433432E0,-7.5191855E-1,1.9017634E-1,5.3885776E-1,5.855107E-2,3.9721638E-2,-2.1536337E-1,2.6853153E-1,4.3474382E-1,6.87065E-1,-3.897693E-2,-3.179852E-2,-9.211111E-2,5.686174E-2,-5.5850923E-2,-6.581327E-2,-3.926028E-2,-1.4882127E-2,2.812183E-3,1.047993E-2,5.648007E-1,1.0802845E-2,-2.253308E-2,-1.18153065E-1,1.1005546E-1,1.7176835E-2,3.128278E-2,3.0266517E-1,3.988996E-2,5.759976E-1,-7.459879E-4,-6.3488423E-3,-1.502939E-3,4.8820856E-3,1.5056734E-2,2.9747093E-2,-7.4343695E-3,1.3807416E-3,-3.2291848E-3,7.227198E-3,1.5481259E-2,6.0429485E-3,3.0940006E-2,2.165219E-2],"categories":[],"categories_nodes":[],"categories_segments":[],"categories_sizes":[],"default_left":[0,0,0,0,0,0,0,0,0,0,0,0,0,0,0,0,0,0,0,0,0,0,0,0,0,0,0,0,0,0,0,0,0,0,0,0,0,0,0,0,0,0,0,0,0,0,0,0,0,0,0,0,0,0,0,0,0,0,0,0,0,0,0],"id":1,"left_children":[1,3,5,7,9,11,13,15,17,19,-1,21,23,25,27,-1,29,31,-1,33,35,37,39,-1,-1,41,43,45,47,-1,-1,49,51,-1,-1,-1,-1,-1,-1,53,-1,-1,55,57,-1,-1,59,-1,61,-1,-1,-1,-1,-1,-1,-1,-1,-1,-1,-1,-1,-1,-1],"loss_changes":[8.6229767E2,2.8937347E1,5.874997E1,4.9063797E0,1.2801575E1,1.2009033E1,1.4637135E1,7.2289276E-1,5.908159E-1,5.845642E0,0E0,2.7722168E-1,1.3195496E0,4.1132584E0,3.3545685E0,0E0,1.0029602E-1,7.15469E-2,0E0,4.2739868E-1,2.9554176E-1,1.2177825E-3,1.4595222E-1,0E0,0E0,6.78702E-1,4.25766E-1,2.4582481E0,1.127037E0,0E0,0E0,1.4253531E-2,2.7747303E-2,0E0,0E0,0E0,0E0,0E0,0E0,5.131054E-2,0E0,0E0,1.1092818E-1,9.365778E-2,0E0,0E0,4.3562412E-2,0E0,1.4810944E-1,0E0,0E0,0E0,0E0,0E0,0E0,0E0,0E0,0E0,0E0,0E0,0E0,0E0,0E0],"parents":[2147483647,0,0,1,1,2,2,3,3,4,4,5,5,6,6,7,7,8,8,9,9,11,11,12,12,13,13,14,14,16,16,17,17,19,19,20,20,21,21,22,22,25,25,26,26,27,27,28,28,31,31,32,32,39,39,42,42,43,43,46,46,48,48],"right_children":[2,4,6,8,10,12,14,16,18,20,-1,22,24,26,28,-1,30,32,-1,34,36,38,40,-1,-1,42,44,46,48,-1,-1,50,52,-1,-1,-1,-1,-1,-1,54,-1,-1,56,58,-1,-1,60,-1,62,-1,-1,-1,-1,-1,-1,-1,-1,-1,-1,-1,-1,-1,-1],"split_conditions":[-4.791658E-1,-2.2631527E-1,-3.422174E-1,-7.4613243E-1,8.1348264E-1,-1.650172E-1,-2.5019692E-2,-9.513022E-2,-4.3292695E-1,-8.1577003E-1,-9.5574066E-2,-8.430895E-3,1.7688699E-1,-1.1313255E0,-9.920213E-1,-5.140521E-2,-9.6857345E-1,-5.5263484E-1,-3.0250538E-2,-5.7428795E-1,-2.806992E-1,-3.1187853E-1,-5.577179E-1,5.855107E-2,3.9721638E-2,-4.5495778E-1,-2.1750964E-1,-2.373639E-1,-1.2329116E-1,-3.897693E-2,-3.179852E-2,-1.160207E0,-2.6852888E-1,-5.5850923E-2,-6.581327E-2,-3.926028E-2,-1.4882127E-2,2.812183E-3,1.047993E-2,-3.91606E-1,1.0802845E-2,-2.253308E-2,-1.03909135E-1,-4.204709E-1,1.7176835E-2,3.128278E-2,8.6831594E-1,3.988996E-2,1.7688699E-1,-7.459879E-4,-6.3488423E-3,-1.502939E-3,4.8820856E-3,1.5056734E-2,2.9747093E-2,-7.4343695E-3,1.3807416E-3,-3.2291848E-3,7.227198E-3,1.5481259E-2,6.0429485E-3,3.0940006E-2,2.165219E-2],"split_indices":[1,3,3,1,11,1,0,2,0,1,0,2,4,6,6,0,1,1,0,4,13,2,4,0,0,13,0,4,3,0,0,6,2,0,0,0,0,0,0,0,0,0,1,1,0,0,3,0,4,0,0,0,0,0,0,0,0,0,0,0,0,0,0],"split_type":[0,0,0,0,0,0,0,0,0,0,0,0,0,0,0,0,0,0,0,0,0,0,0,0,0,0,0,0,0,0,0,0,0,0,0,0,0,0,0,0,0,0,0,0,0,0,0,0,0,0,0,0,0,0,0,0,0,0,0,0,0,0,0],"sum_hessian":[1.056E3,4.43E2,6.13E2,1.75E2,2.68E2,3.12E2,3.01E2,1.63E2,1.2E1,2.39E2,2.9E1,3.5E1,2.77E2,6.9E1,2.32E2,1.7E1,1.46E2,1.1E1,1E0,2.05E2,3.4E1,4E0,3.1E1,2.58E2,1.9E1,3.1E1,3.8E1,1.04E2,1.28E2,1.02E2,4.4E1,5E0,6E0,8.1E1,1.24E2,3.1E1,3E0,1E0,3E0,2.8E1,3E0,8E0,2.3E1,1.3E1,2.5E1,4.1E1,6.3E1,6.1E1,6.7E1,2E0,3E0,2E0,4E0,4E0,2.4E1,1.9E1,4E0,2E0,1.1E1,6E1,3E0,4.9E1,1.8E1],"tree_param":{"num_deleted":"0","num_feature":"14","num_nodes":"63","size_leaf_vector":"1"}},{"base_weights":[2.7450448E-2,-9.8104215E-1,7.336745E-1,-6.7187124E-1,-1.1889321E0,1.0228443E0,4.37474E-1,-7.217847E-1,-8.135958E-2,-1.1088102E0,-9.065995E-2,5.529263E-1,1.0991161E0,-1.5568242E-2,5.225876E-1,-7.6772726E-1,-2.9738123E-2,-2.9016223E-3,-2.9494274E-2,-1.1886908E0,-7.172411E-1,5.556613E-3,5.8116466E-1,5.667753E-2,4.6451192E-2,-2.6201892E-1,1.5746619E-1,7.1144557E-1,4.41157E-1,-3.4778062E-2,-4.497262E-2,-8.8688016E-2,5.461171E-2,-5.0527867E-2,-1.2274925E0,-3.862643E-2,-2.1434197E-2,4.392064E-1,3.329032E-2,-3.97834E-1,-1.6569468E-1,-1.6612959E-1,1.9957422E-1,2.1131795E-2,3.844585E-2,4.6913797E-1,1.370429E-1,-7.2112086E-4,-6.110761E-3,4.551727E-3,-6.8377255E-4,-6.1785843E-2,-3.0610396E-2,2.3478447E-2,1.0397742E-2,-2.3352047E-2,-1.0593343E-2,-3.6619903E-4,-8.865683E-3,-1.0264631E-2,-1.2160123E-3,1.0321399E-3,1.1965107E-2,1.7252475E-2,2.5185514E-2,4.2977533E-4,9.492318E-3],"categories":[],"categories_nodes":[],"categories_segments":[],"categories_sizes":[],"default_left":[0,0,0,0,0,0,0,0,0,0,0,0,0,0,0,0,0,0,0,0,0,0,0,0,0,0,0,0,0,0,0,0,0,0,0,0,0,0,0,0,0,0,0,0,0,0,0,0,0,0,0,0,0,0,0,0,0,0,0,0,0,0,0,0,0,0,0],"id":2,"left_children":[1,3,5,7,9,11,13,15,17,19,-1,21,23,25,27,29,-1,31,-1,33,35,-1,37,-1,-1,39,41,43,45,-1,-1,47,49,-1,51,-1,-1,53,-1,55,57,59,61,-1,-1,63,65,-1,-1,-1,-1,-1,-1,-1,-1,-1,-1,-1,-1,-1,-1,-1,-1,-1,-1,-1,-1],"loss_changes":[7.5567487E2,2.7288696E1,5.299951E1,5.187729E0,1.0994049E1,1.0682343E1,1.1961746E1,5.0045013E-1,5.9675694E-1,6.435425E0,0E0,5.092888E-1,5.283203E-1,2.1734817E0,3.7000122E0,4.865799E-1,0E0,7.391746E-2,0E0,8.660889E-2,3.3888054E-1,0E0,2.2424316E-1,0E0,0E0,2.0880902E-1,4.4193465E-1,9.530983E-1,1.5099449E0,0E0,0E0,1.317687E-2,2.3629839E-2,0E0,1.7730713E-2,0E0,0E0,3.5756826E-2,0E0,4.011154E-3,2.4462849E-2,1.7221957E-2,1.8699169E-1,0E0,0E0,5.512085E-1,1.1367014E-1,0E0,0E0,0E0,0E0,0E0,0E0,0E0,0E0,0E0,0E0,0E0,0E0,0E0,0E0,0E0,0E0,0E0,0E0,0E0,0E0],"parents":[2147483647,0,0,1,1,2,2,3,3,4,4,5,5,6,6,7,7,8,8,9,9,11,11,12,12,13,13,14,14,15,15,17,17,19,19,20,20,22,22,25,25,26,26,27,27,28,28,31,31,32,32,34,34,37,37,39,39,40,40,41,41,42,42,45,45,46,46],"right_children":[2,4,6,8,10,12,14,16,18,20,-1,22,24,26,28,30,-1,32,-1,34,36,-1,38,-1,-1,40,42,44,46,-1,-1,48,50,-1,52,-1,-1,54,-1,56,58,60,62,-1,-1,64,66,-1,-1,-1,-1,-1,-1,-1,-1,-1,-1,-1,-1,-1,-1,-1,-1,-1,-1,-1,-1],"split_conditions":[-4.791658E-1,-2.2631527E-1,-3.422174E-1,-7.541126E-1,8.1348264E-1,1.1417794E-1,-1.988821E-1,-9.603019E-1,-4.3292695E-1,-8.1577003E-1,-9.065995E-2,-5.178056E-2,-3.9372945E-1,-7.7929235E-1,-1.619252E-1,-3.5509542E-1,-2.9738123E-2,-5.5263484E-1,-2.9494274E-2,-1.3616917E-1,-5.6006265E-1,5.556613E-3,-9.788458E-1,5.667753E-2,4.6451192E-2,-4.5495778E-1,-4.053531E-1,4.493545E-1,2.5017127E-1,-3.4778062E-2,-4.497262E-2,-1.160207E0,-4.0660748E-1,-5.0527867E-2,3.8171607E-1,-3.862643E-2,-2.1434197E-2,-3.8085145E-1,3.329032E-2,-2.2517921E-1,-2.6494932E-1,-3.2671008E-1,-8.430895E-3,2.1131795E-2,3.844585E-2,-1.0142058E0,5.273191E-2,-7.2112086E-4,-6.110761E-3,4.551727E-3,-6.8377255E-4,-6.1785843E-2,-3.0610396E-2,2.3478447E-2,1.0397742E-2,-2.3352047E-2,-1.0593343E-2,-3.6619903E-4,-8.865683E-3,-1.0264631E-2,-1.2160123E-3,1.0321399E-3,1.1965107E-2,1.7252475E-2,2.5185514E-2,4.2977533E-4,9.492318E-3],"split_indices":[1,3,3,0,11,1,1,1,0,1,0,2,3,5,3,3,0,1,0,3,1,0,10,0,0,13,1,0,3,0,0,6,3,0,2,0,0,3,0,2,3,0,2,0,0,10,1,0,0,0,0,0,0,0,0,0,0,0,0,0,0,0,0,0,0,0,0],"split_type":[0,0,0,0,0,0,0,0,0,0,0,0,0,0,0,0,0,0,0,0,0,0,0,0,0,0,0,0,0,0,0,0,0,0,0,0,0,0,0,0,0,0,0,0,0,0,0,0,0,0,0,0,0,0,0,0,0,0,0,0,0,0,0,0,0,0,0],"sum_hessian":[1.059E3,4.36E2,6.23E2,1.77E2,2.59E2,3.14E2,3.09E2,1.63E2,1.4E1,2.32E2,2.7E1,4.5E1,2.69E2,4.9E1,2.6E2,1.16E2,4.7E1,1.3E1,1E0,1.91E2,4.1E1,3E0,4.2E1,2.19E2,5E1,2E1,2.9E1,7.6E1,1.84E2,7.9E1,3.7E1,5E0,8E0,3.9E1,1.52E2,3.3E1,8E0,1.8E1,2.4E1,7E0,1.3E1,3E0,2.6E1,1.4E1,6.2E1,1.68E2,1.6E1,2E0,3E0,5E0,3E0,1.49E2,3E0,1.5E1,3E0,4E0,3E0,1E0,1.2E1,2E0,1E0,5E0,2.1E1,3.9E1,1.29E2,5E0,1.1E1],"tree_param":{"num_deleted":"0","num_feature":"14","num_nodes":"67","size_leaf_vector":"1"}},{"base_weights":[-4.4503687E-3,-9.5309633E-1,6.967958E-1,-6.9965667E-1,-1.1786256E0,9.588415E-1,4.2048407E-1,-7.408586E-1,-8.717314E-2,-1.0847176E0,-8.716759E-2,5.22457E-1,1.0454667E0,9.133845E-2,5.1414186E-1,-7.017179E-1,-5.3489055E-2,-1.1237179E-2,-2.8756917E-2,-1.1590891E0,-6.776186E-1,3.4025663E-1,6.0189885E-1,5.3853054E-2,4.2001612E-2,-1.4636584E-1,2.1337245E-1,5.715052E-1,2.5541705E-1,-8.299579E-1,-3.172985E-2,-7.158571E-2,8.115848E-2,-5.8487512E-2,-3.301437E-2,-3.5804342E-2,-1.5179599E-2,4.652961E-3,1.819323E-2,6.484736E-1,2.5318357E-1,-3.6290613E-1,7.7520846E-3,-1.20873354E-1,2.4808332E-1,7.068967E-1,5.0099707E-1,1.3713101E-2,1.3397625E-1,-3.469657E-2,-4.555898E-2,-2.1245598E-3,-5.7805497E-3,4.855285E-3,3.5560133E-5,2.558949E-2,3.6948588E-2,1.37041975E-2,3.717041E-3,-4.316527E-3,-1.9202223E-2,-5.5769207E-3,4.983612E-3,-9.922477E-3,-1.5030305E-4,2.8761285E-3,1.391228E-2,1.45067265E-2,3.5783052E-2,2.7846998E-2,1.4704557E-2,1.2433132E-4,8.869585E-3],"categories":[],"categories_nodes":[],"categories_segments":[],"categories_sizes":[],"default_left":[0,0,0,0,0,0,0,0,0,0,0,0,0,0,0,0,0,0,0,0,0,0,0,0,0,0,0,0,0,0,0,0,0,0,0,0,0,0,0,0,0,0,0,0,0,0,0,0,0,0,0,0,0,0,0,0,0,0,0,0,0,0,0,0,0,0,0,0,0,0,0,0,0],"id":3,"left_children":[1,3,5,7,9,11,13,15,17,19,-1,21,23,25,27,29,-1,31,-1,33,35,37,39,-1,-1,41,43,45,47,49,-1,51,53,-1,-1,-1,-1,-1,-1,55,57,59,61,63,65,67,69,-1,71,-1,-1,-1,-1,-1,-1,-1,-1,-1,-1,-1,-1,-1,-1,-1,-1,-1,-1,-1,-1,-1,-1,-1,-1],"loss_changes":[7.2310864E2,2.5582397E1,4.485074E1,5.4872284E0,1.0995819E1,1.1550415E1,9.38612E0,1.9014053E0,5.493487E-1,5.602936E0,0E0,5.9128857E-1,8.217163E-1,2.0327828E0,3.3862648E0,1.0829315E0,0E0,8.387298E-2,0E0,1.6886902E-1,2.8618622E-1,7.701993E-2,4.367466E-1,0E0,0E0,8.03759E-1,5.636771E-1,1.4978104E0,6.624031E-2,4.1648865E-2,0E0,6.6155978E-3,7.6284E-3,0E0,0E0,0E0,0E0,0E0,0E0,1.7629623E-2,2.0516813E-3,2.5308728E-2,1.755953E-1,4.5121923E-2,2.2539997E-1,2.6130676E-2,1.35252E0,0E0,4.5228347E-2,0E0,0E0,0E0,0E0,0E0,0E0,0E0,0E0,0E0,0E0,0E0,0E0,0E0,0E0,0E0,0E0,0E0,0E0,0E0,0E0,0E0,0E0,0E0,0E0],"parents":[2147483647,0,0,1,1,2,2,3,3,4,4,5,5,6,6,7,7,8,8,9,9,11,11,12,12,13,13,14,14,15,15,17,17,19,19,20,20,21,21,22,22,25,25,26,26,27,27,28,28,29,29,31,31,32,32,39,39,40,40,41,41,42,42,43,43,44,44,45,45,46,46,48,48],"right_children":[2,4,6,8,10,12,14,16,18,20,-1,22,24,26,28,30,-1,32,-1,34,36,38,40,-1,-1,42,44,46,48,50,-1,52,54,-1,-1,-1,-1,-1,-1,56,58,60,62,64,66,68,70,-1,72,-1,-1,-1,-1,-1,-1,-1,-1,-1,-1,-1,-1,-1,-1,-1,-1,-1,-1,-1,-1,-1,-1,-1,-1],"split_conditions":[-4.791658E-1,-1.619252E-1,-3.422174E-1,-6.794373E-1,8.1348264E-1,7.061329E-2,-2.5019692E-2,-5.577179E-1,-4.3292695E-1,-8.1577003E-1,-8.716759E-2,-3.7412068E-1,-3.2573745E-1,-7.9289824E-1,1.7344704E0,-1.0314945E0,-5.3489055E-2,-8.430895E-3,-2.8756917E-2,3.8171607E-1,-2.806992E-1,-5.178056E-2,-5.577179E-1,5.3853054E-2,4.2001612E-2,-3.729295E-1,-3.8436967E-1,-1.2329116E-1,2.1153723E-1,-3.422174E-1,-3.172985E-2,-3.2933939E-1,-5.214958E-1,-5.8487512E-2,-3.301437E-2,-3.5804342E-2,-1.5179599E-2,4.652961E-3,1.819323E-2,-1.9594489E-1,1.6059946E-1,-8.823359E-2,-1.3025476E-1,-3.2671008E-1,-7.394465E-1,2.2492716E-1,7.4026823E-1,1.3713101E-2,1.1417794E-1,-3.469657E-2,-4.555898E-2,-2.1245598E-3,-5.7805497E-3,4.855285E-3,3.5560133E-5,2.558949E-2,3.6948588E-2,1.37041975E-2,3.717041E-3,-4.316527E-3,-1.9202223E-2,-5.5769207E-3,4.983612E-3,-9.922477E-3,-1.5030305E-4,2.8761285E-3,1.391228E-2,1.45067265E-2,3.5783052E-2,2.7846998E-2,1.4704557E-2,1.2433132E-4,8.869585E-3],"split_indices":[1,3,3,1,11,1,0,4,0,1,0,1,4,5,4,1,0,2,0,2,13,2,4,0,0,13,1,3,3,3,0,3,0,0,0,0,0,0,0,0,0,4,1,0,5,0,4,0,1,0,0,0,0,0,0,0,0,0,0,0,0,0,0,0,0,0,0,0,0,0,0,0,0],"split_type":[0,0,0,0,0,0,0,0,0,0,0,0,0,0,0,0,0,0,0,0,0,0,0,0,0,0,0,0,0,0,0,0,0,0,0,0,0,0,0,0,0,0,0,0,0,0,0,0,0,0,0,0,0,0,0,0,0,0,0,0,0,0,0,0,0,0,0,0,0,0,0,0,0],"sum_hessian":[1.085E3,4.61E2,6.24E2,2.19E2,2.42E2,3.19E2,3.05E2,2.05E2,1.4E1,2.1E2,3.2E1,5.4E1,2.65E2,6.8E1,2.37E2,1.86E2,1.9E1,1.3E1,1E0,1.76E2,3.4E1,1.8E1,3.6E1,2.26E2,3.9E1,2.3E1,4.5E1,1.93E2,4.4E1,6E1,1.26E2,8E0,5E0,1.71E2,5E0,3E1,4E0,2E0,1.6E1,3.1E1,5E0,9E0,1.4E1,4E0,4.1E1,6.3E1,1.3E2,3.7E1,7E0,2.6E1,3.4E1,6E0,2E0,4E0,1E0,1.5E1,1.6E1,4E0,1E0,1E0,8E0,6E0,8E0,2E0,2E0,6E0,3.5E1,2E0,6.1E1,1.01E2,2.9E1,2E0,5E0],"tree_param":{"num_deleted":"0","num_feature":"14","num_nodes":"73","size_leaf_vector":"1"}},{"base_weights":[1.0596233E-2,-9.052299E-1,6.5843046E-1,-6.6036963E-1,-1.1160213E0,9.217872E-1,4.0376937E-1,-6.99185E-1,-7.8103065E-2,-1.0264649E0,-8.260337E-2,5.109376E-1,9.9843055E-1,7.121034E-2,5.171283E-1,-4.2802457E-2,-6.336861E-1,2.1597606E-3,-2.8037995E-2,-1.090709E0,-6.1749244E-1,3.236442E-1,5.8195925E-1,5.1345892E-2,4.189174E-2,-1.5156199E-1,2.243338E-1,6.617577E-1,4.1396388E-1,-6.3925415E-1,-8.316389E-3,-5.492711E-2,7.791563E-2,-5.5390872E-2,-3.8300063E-2,-3.2822173E-2,-1.4572414E-2,2.4866404E-3,1.6929472E-2,5.94812E-1,3.6241175E-3,-2.2135963E-1,1.02950245E-1,-8.764633E-2,2.6177803E-1,4.151579E-1,3.4584384E-2,3.3633536E-1,5.021055E-1,-3.0926445E-2,-4.4936176E-2,-4.0010777E-3,3.0183494E-3,1.5112907E-3,5.7765087E-3,3.0964384E-2,1.6449785E-2,-1.8703198E-2,-6.8687745E-3,-4.683137E-5,8.273485E-3,-7.640934E-3,5.9553864E-3,1.3776571E-2,-9.01417E-4,5.349118E-3,2.15962E-2,1.1969048E-2,1.8392786E-2,2.690889E-2,2.0130783E-2],"categories":[],"categories_nodes":[],"categories_segments":[],"categories_sizes":[],"default_left":[0,0,0,0,0,0,0,0,0,0,0,0,0,0,0,0,0,0,0,0,0,0,0,0,0,0,0,0,0,0,0,0,0,0,0,0,0,0,0,0,0,0,0,0,0,0,0,0,0,0,0,0,0,0,0,0,0,0,0,0,0,0,0,0,0,0,0,0,0,0,0],"id":4,"left_children":[1,3,5,7,9,11,13,15,17,19,-1,21,23,25,27,-1,29,31,-1,33,35,37,39,-1,-1,41,43,45,47,49,-1,51,53,-1,-1,-1,-1,-1,-1,55,-1,57,59,61,63,65,-1,67,69,-1,-1,-1,-1,-1,-1,-1,-1,-1,-1,-1,-1,-1,-1,-1,-1,-1,-1,-1,-1,-1,-1],"loss_changes":[6.3009106E2,2.1973389E1,4.1343323E1,4.6011734E0,9.585693E0,9.093964E0,1.1951313E1,1.440506E0,5.435627E-1,4.6864014E0,0E0,4.7674656E-1,3.1077576E-1,2.8311574E0,3.2622414E0,0E0,2.579918E-1,6.050033E-2,0E0,1.23565674E-1,1.8967533E-1,4.86598E-2,1.860733E-1,0E0,0E0,6.26777E-1,5.9535503E-1,4.2876816E-1,7.958889E-1,1.8621826E-1,0E0,2.797659E-2,7.270988E-3,0E0,0E0,0E0,0E0,0E0,0E0,1.7461777E-2,0E0,2.9488063E-1,5.2114576E-2,9.904976E-2,1.7429161E-1,2.0961285E-2,0E0,1.5031242E-1,1.3004303E-2,0E0,0E0,0E0,0E0,0E0,0E0,0E0,0E0,0E0,0E0,0E0,0E0,0E0,0E0,0E0,0E0,0E0,0E0,0E0,0E0,0E0,0E0],"parents":[2147483647,0,0,1,1,2,2,3,3,4,4,5,5,6,6,7,7,8,8,9,9,11,11,12,12,13,13,14,14,16,16,17,17,19,19,20,20,21,21,22,22,25,25,26,26,27,27,28,28,29,29,31,31,32,32,39,39,41,41,42,42,43,43,44,44,45,45,47,47,48,48],"right_children":[2,4,6,8,10,12,14,16,18,20,-1,22,24,26,28,-1,30,32,-1,34,36,38,40,-1,-1,42,44,46,48,50,-1,52,54,-1,-1,-1,-1,-1,-1,56,-1,58,60,62,64,66,-1,68,70,-1,-1,-1,-1,-1,-1,-1,-1,-1,-1,-1,-1,-1,-1,-1,-1,-1,-1,-1,-1,-1,-1],"split_conditions":[-4.791658E-1,-1.619252E-1,-3.422174E-1,-6.794373E-1,8.1348264E-1,1.1417794E-1,3.630326E-2,-1.0418433E0,-4.3292695E-1,-7.4613243E-1,-8.260337E-2,-3.7412068E-1,-3.8085145E-1,-1.1353006E0,-2.026704E-2,-4.2802457E-2,-1.2952328E-1,-8.430895E-3,-2.8037995E-2,2.0831741E-1,-2.806992E-1,-3.1187853E-1,2.0948751E-1,5.1345892E-2,4.189174E-2,-1.4168848E-1,-3.7412068E-1,4.493545E-1,-9.837797E-1,1.2100838E0,-8.316389E-3,8.1254053E-1,6.2371624E-1,-5.5390872E-2,-3.8300063E-2,-3.2822173E-2,-1.4572414E-2,2.4866404E-3,1.6929472E-2,4.3599915E-2,3.6241175E-3,-4.5495778E-1,-2.6852888E-1,-3.0489185E-1,8.275708E-2,-1.158563E0,3.4584384E-2,-1.023457E0,-2.029911E-1,-3.0926445E-2,-4.4936176E-2,-4.0010777E-3,3.0183494E-3,1.5112907E-3,5.7765087E-3,3.0964384E-2,1.6449785E-2,-1.8703198E-2,-6.8687745E-3,-4.683137E-5,8.273485E-3,-7.640934E-3,5.9553864E-3,1.3776571E-2,-9.01417E-4,5.349118E-3,2.15962E-2,1.1969048E-2,1.8392786E-2,2.690889E-2,2.0130783E-2],"split_indices":[1,3,3,1,11,1,0,1,0,1,0,1,3,6,3,0,13,2,0,2,13,2,0,0,0,0,1,0,10,5,0,13,13,0,0,0,0,0,0,11,0,13,2,0,3,6,0,10,6,0,0,0,0,0,0,0,0,0,0,0,0,0,0,0,0,0,0,0,0,0,0],"split_type":[0,0,0,0,0,0,0,0,0,0,0,0,0,0,0,0,0,0,0,0,0,0,0,0,0,0,0,0,0,0,0,0,0,0,0,0,0,0,0,0,0,0,0,0,0,0,0,0,0,0,0,0,0,0,0,0,0,0,0,0,0,0,0,0,0,0,0,0,0,0,0],"sum_hessian":[1.06E3,4.39E2,6.21E2,2.05E2,2.34E2,3.04E2,3.17E2,1.92E2,1.3E1,2.03E2,3.1E1,4.9E1,2.55E2,8.1E1,2.36E2,5.3E1,1.39E2,1.2E1,1E0,1.74E2,2.9E1,1.5E1,3.4E1,2.12E2,4.3E1,3.3E1,4.8E1,9.6E1,1.4E2,1.37E2,2E0,7E0,5E0,1.63E2,1.1E1,2.5E1,4E0,1E0,1.4E1,3.3E1,1E0,2.6E1,7E0,5E0,4.3E1,1.2E1,8.4E1,7.7E1,6.3E1,1.3E2,7E0,6E0,1E0,3E0,2E0,2.9E1,4E0,8E0,1.8E1,3E0,4E0,4E0,1E0,4.1E1,2E0,1E0,1.1E1,2.1E1,5.6E1,4.3E1,2E1],"tree_param":{"num_deleted":"0","num_feature":"14","num_nodes":"71","size_leaf_vector":"1"}},{"base_weights":[-9.400575E-3,-8.51884E-1,6.2484366E-1,-7.249942E-1,-1.2317731E0,8.754813E-1,3.7220326E-1,-5.6548554E-1,-8.69293E-1,-7.858195E-2,-5.417952E-2,4.8991948E-1,9.437277E-1,4.5756742E-2,4.6470967E-1,-6.120284E-1,1.7595291E-4,-9.405465E-1,-5.8025926E-1,2.966575E-1,5.445813E-1,4.863762E-2,3.7275415E-2,-1.2778138E-1,2.1320333E-1,6.357015E-1,3.9600423E-1,-4.4705074E-2,-5.869282E-1,-7.610687E-2,5.1011615E-2,-4.0509336E-2,-1.0000029E0,-6.4000326E-1,-3.4300143E-1,2.4244727E-3,1.566487E-2,5.776757E-1,1.0862089E-2,-1.9253188E-1,8.066808E-2,-1.4996386E-1,2.5076288E-1,3.2763705E-2,1.621194E-2,4.9946168E-1,2.4665125E-1,-3.0260181E-2,-2.1065822E-2,-7.0109766E-4,-5.1821917E-3,-1.3131142E-3,3.8420816E-3,-5.0413664E-2,-2.0376416E-2,-3.6923897E-2,-2.5384152E-2,-4.107136E-3,-1.8142937E-2,2.3776332E-2,3.4912463E-2,-5.836029E-3,-1.6559277E-2,9.501616E-3,-2.8430423E-4,-2.507631E-3,-1.1234939E-2,5.909505E-3,1.4777655E-2,1.5251127E-2,2.5741665E-2,5.912236E-3,1.2812117E-2],"categories":[],"categories_nodes":[],"categories_segments":[],"categories_sizes":[],"default_left":[0,0,0,0,0,0,0,0,0,0,0,0,0,0,0,0,0,0,0,0,0,0,0,0,0,0,0,0,0,0,0,0,0,0,0,0,0,0,0,0,0,0,0,0,0,0,0,0,0,0,0,0,0,0,0,0,0,0,0,0,0,0,0,0,0,0,0,0,0,0,0,0,0],"id":5,"left_children":[1,3,5,7,9,11,13,15,17,-1,-1,19,21,23,25,27,29,31,33,35,37,-1,-1,39,41,43,45,-1,47,49,51,-1,53,55,57,-1,-1,59,-1,61,63,65,67,-1,-1,69,71,-1,-1,-1,-1,-1,-1,-1,-1,-1,-1,-1,-1,-1,-1,-1,-1,-1,-1,-1,-1,-1,-1,-1,-1,-1,-1],"loss_changes":[5.834975E2,2.171466E1,3.912326E1,7.656418E0,4.1389923E0,7.7473755E0,9.400635E0,4.5021133E0,3.2436523E0,0E0,0E0,3.5608292E-1,7.936554E-1,2.061329E0,2.6030388E0,5.938835E-1,5.8172762E-2,3.214264E-1,3.3329296E-1,3.8491726E-2,2.7533054E-1,0E0,0E0,4.8793346E-1,5.286597E-1,2.0207214E-1,2.596302E0,0E0,1.9295883E-1,8.804489E-3,1.998191E-2,0E0,5.9501648E-2,1.5993118E-2,2.1993399E-2,0E0,0E0,7.4406624E-2,0E0,2.4515474E-1,8.6077034E-2,1.8568307E-2,1.6102123E-1,0E0,0E0,1.5081596E-1,6.083584E-2,0E0,0E0,0E0,0E0,0E0,0E0,0E0,0E0,0E0,0E0,0E0,0E0,0E0,0E0,0E0,0E0,0E0,0E0,0E0,0E0,0E0,0E0,0E0,0E0,0E0,0E0],"parents":[2147483647,0,0,1,1,2,2,3,3,4,4,5,5,6,6,7,7,8,8,11,11,12,12,13,13,14,14,15,15,16,16,17,17,18,18,19,19,20,20,23,23,24,24,25,25,26,26,28,28,29,29,30,30,32,32,33,33,34,34,37,37,39,39,40,40,41,41,42,42,45,45,46,46],"right_children":[2,4,6,8,10,12,14,16,18,-1,-1,20,22,24,26,28,30,32,34,36,38,-1,-1,40,42,44,46,-1,48,50,52,-1,54,56,58,-1,-1,60,-1,62,64,66,68,-1,-1,70,72,-1,-1,-1,-1,-1,-1,-1,-1,-1,-1,-1,-1,-1,-1,-1,-1,-1,-1,-1,-1,-1,-1,-1,-1,-1,-1],"split_conditions":[-4.791658E-1,4.3599915E-2,-3.422174E-1,-2.520713E-1,-5.965846E-1,7.061329E-2,-2.5019692E-2,-7.63347E-1,-7.793253E-1,-7.858195E-2,-5.417952E-2,-3.8436967E-1,-3.2573745E-1,-7.29728E-1,-1.619252E-1,-9.513022E-2,-5.5263484E-1,-1.3616917E-1,-5.6006265E-1,-3.1187853E-1,-5.577179E-1,4.863762E-2,3.7275415E-2,-1.3025476E-1,-4.053531E-1,1.5356299E0,7.4026823E-1,-4.4705074E-2,-8.89652E-1,-1.0536776E0,-2.6852888E-1,-4.0509336E-2,3.3836642E-1,-9.975537E-1,-1.7480321E-1,2.4244727E-3,1.566487E-2,-2.143852E-1,1.0862089E-2,1.6626669E0,-1.7108376E-1,-4.204709E-1,-2.1750964E-1,3.2763705E-2,1.621194E-2,6.399601E-2,3.0959475E-1,-3.0260181E-2,-2.1065822E-2,-7.0109766E-4,-5.1821917E-3,-1.3131142E-3,3.8420816E-3,-5.0413664E-2,-2.0376416E-2,-3.6923897E-2,-2.5384152E-2,-4.107136E-3,-1.8142937E-2,2.3776332E-2,3.4912463E-2,-5.836029E-3,-1.6559277E-2,9.501616E-3,-2.8430423E-4,-2.507631E-3,-1.1234939E-2,5.909505E-3,1.4777655E-2,1.5251127E-2,2.5741665E-2,5.912236E-3,1.2812117E-2],"split_indices":[1,11,3,3,5,1,0,1,1,0,0,1,4,5,3,2,1,3,1,2,4,0,0,1,1,4,4,0,1,10,2,0,2,10,3,0,0,1,0,4,4,1,0,0,0,0,0,0,0,0,0,0,0,0,0,0,0,0,0,0,0,0,0,0,0,0,0,0,0,0,0,0,0],"split_type":[0,0,0,0,0,0,0,0,0,0,0,0,0,0,0,0,0,0,0,0,0,0,0,0,0,0,0,0,0,0,0,0,0,0,0,0,0,0,0,0,0,0,0,0,0,0,0,0,0,0,0,0,0,0,0,0,0,0,0,0,0,0,0,0,0,0,0,0,0,0,0,0,0],"sum_hessian":[1.09E3,4.68E2,6.22E2,3.53E2,1.15E2,3.11E2,3.11E2,1.7E2,1.83E2,3.2E1,8.3E1,4.8E1,2.63E2,6.9E1,2.42E2,1.57E2,1.3E1,1.45E2,3.8E1,1.2E1,3.6E1,2.26E2,3.7E1,3.4E1,3.5E1,6.7E1,1.75E2,1E1,1.47E2,5E0,8E0,5E1,9.5E1,2.9E1,9E0,1E0,1.1E1,3.2E1,4E0,2.6E1,8E0,3E0,3.2E1,6.2E1,5E0,1.02E2,7.3E1,1.3E2,1.7E1,2E0,3E0,2E0,6E0,9.3E1,2E0,1.4E1,1.5E1,1E0,8E0,2E1,1.2E1,1.8E1,8E0,3E0,5E0,2E0,1E0,9E0,2.3E1,9E0,9.3E1,6E0,6.7E1],"tree_param":{"num_deleted":"0","num_feature":"14","num_nodes":"73","size_leaf_vector":"1"}},{"base_weights":[2.2450972E-2,-8.075512E-1,5.9632516E-1,-6.9526666E-1,-1.1603925E0,8.345041E-1,3.600101E-1,-8.256989E-1,-4.9193892E-1,-7.387271E-2,-5.1501364E-2,4.0744635E-1,8.9007705E-1,-1.18276745E-1,4.1937035E-1,-7.103547E-1,-9.892335E-1,-5.3306264E-1,-3.2852907E-2,2.6801616E-1,2.3880666E-2,4.5492228E-2,3.0288814E-2,-2.1740195E-1,1.9217372E-2,4.7263494E-1,1.9895466E-1,-4.241158E-2,-6.451372E-1,-4.9739257E-2,-1.3627494E-2,-5.565196E-1,-2.9357553E-1,2.5710642E-2,-5.9992005E-3,3.872772E-3,1.4568754E-2,-8.6096786E-2,-3.2894328E-1,-9.945039E-3,6.458431E-2,5.997941E-1,3.9429355E-1,-3.588597E-3,2.1849898E-1,-3.4475047E-2,-2.4997655E-2,-2.7935276E-2,-7.956559E-3,-1.7244821E-2,-3.7701926E-4,-1.396823E-3,4.317093E-3,-6.869316E-4,-5.0324933E-3,-1.8956115E-2,-7.3174746E-3,-2.4473858E-3,5.7445946E-3,1.6626272E-2,3.1162191E-2,2.2023067E-2,1.189646E-2,-6.301173E-3,4.4567348E-3,1.2398852E-2,4.304142E-3],"categories":[],"categories_nodes":[],"categories_segments":[],"categories_sizes":[],"default_left":[0,0,0,0,0,0,0,0,0,0,0,0,0,0,0,0,0,0,0,0,0,0,0,0,0,0,0,0,0,0,0,0,0,0,0,0,0,0,0,0,0,0,0,0,0,0,0,0,0,0,0,0,0,0,0,0,0,0,0,0,0,0,0,0,0,0,0],"id":6,"left_children":[1,3,5,7,9,11,13,15,17,-1,-1,19,21,23,25,27,29,31,33,35,-1,-1,-1,37,39,41,43,-1,45,-1,-1,47,49,51,-1,-1,-1,53,55,-1,57,59,61,63,65,-1,-1,-1,-1,-1,-1,-1,-1,-1,-1,-1,-1,-1,-1,-1,-1,-1,-1,-1,-1,-1,-1],"loss_changes":[5.09188E2,1.650653E1,3.5271866E1,8.45166E0,2.7769012E0,7.089432E0,9.106403E0,3.1075745E0,2.493435E0,0E0,0E0,2.4376059E-1,1.0055542E0,4.948266E-1,3.2402267E0,5.4979324E-1,5.116272E-2,5.219765E-1,6.4317346E-2,4.420066E-2,0E0,0E0,0E0,2.7924418E-1,1.711715E-1,2.0348053E0,2.2642303E-1,0E0,2.1564102E-1,0E0,0E0,6.6375732E-3,1.8823385E-1,2.8433597E-2,0E0,0E0,0E0,1.0200582E-2,4.5301795E-2,0E0,8.5585E-2,3.254795E-1,9.3473816E-1,7.934844E-2,1.8162847E-1,0E0,0E0,0E0,0E0,0E0,0E0,0E0,0E0,0E0,0E0,0E0,0E0,0E0,0E0,0E0,0E0,0E0,0E0,0E0,0E0,0E0,0E0],"parents":[2147483647,0,0,1,1,2,2,3,3,4,4,5,5,6,6,7,7,8,8,11,11,12,12,13,13,14,14,15,15,16,16,17,17,18,18,19,19,23,23,24,24,25,25,26,26,28,28,31,31,32,32,33,33,37,37,38,38,40,40,41,41,42,42,43,43,44,44],"right_children":[2,4,6,8,10,12,14,16,18,-1,-1,20,22,24,26,28,30,32,34,36,-1,-1,-1,38,40,42,44,-1,46,-1,-1,48,50,52,-1,-1,-1,54,56,-1,58,60,62,64,66,-1,-1,-1,-1,-1,-1,-1,-1,-1,-1,-1,-1,-1,-1,-1,-1,-1,-1,-1,-1,-1,-1],"split_conditions":[-4.5553356E-1,4.3599915E-2,-3.422174E-1,-6.848238E-1,-5.965846E-1,-1.650172E-1,-2.1750964E-1,-7.1779095E-2,-1.5085487E-2,-7.387271E-2,-5.1501364E-2,4.6841538E-1,1.7688699E-1,-7.9289824E-1,1.5356299E0,-5.178056E-2,3.3836642E-1,-5.6006265E-1,-1.15633E0,-5.178056E-2,2.3880666E-2,4.5492228E-2,3.0288814E-2,-7.166355E-2,-2.6852888E-1,-1.2329116E-1,-2.3830509E-1,-4.241158E-2,-9.6950257E-1,-4.9739257E-2,-1.3627494E-2,-1.2952328E-1,-2.2517921E-1,-2.6852888E-1,-5.9992005E-3,3.872772E-3,1.4568754E-2,-4.829146E-1,-2.713932E-1,-9.945039E-3,-3.7412068E-1,-9.523101E-2,7.4026823E-1,3.8171607E-1,2.1153723E-1,-3.4475047E-2,-2.4997655E-2,-2.7935276E-2,-7.956559E-3,-1.7244821E-2,-3.7701926E-4,-1.396823E-3,4.317093E-3,-6.869316E-4,-5.0324933E-3,-1.8956115E-2,-7.3174746E-3,-2.4473858E-3,5.7445946E-3,1.6626272E-2,3.1162191E-2,2.2023067E-2,1.189646E-2,-6.301173E-3,4.4567348E-3,1.2398852E-2,4.304142E-3],"split_indices":[1,11,3,13,5,1,0,3,13,0,0,2,4,5,4,2,2,1,6,2,0,0,0,4,2,3,1,0,0,0,0,13,2,2,0,0,0,0,1,0,1,0,4,2,3,0,0,0,0,0,0,0,0,0,0,0,0,0,0,0,0,0,0,0,0,0,0],"split_type":[0,0,0,0,0,0,0,0,0,0,0,0,0,0,0,0,0,0,0,0,0,0,0,0,0,0,0,0,0,0,0,0,0,0,0,0,0,0,0,0,0,0,0,0,0,0,0,0,0,0,0,0,0,0,0,0,0,0,0,0,0,0,0,0,0,0,0],"sum_hessian":[1.067E3,4.36E2,6.31E2,3.33E2,1.03E2,3.13E2,3.18E2,2.01E2,1.32E2,2.7E1,7.6E1,3.7E1,2.76E2,3.5E1,2.83E2,1.21E2,8E1,1.21E2,1.1E1,1.4E1,2.3E1,2.56E2,2E1,2E1,1.5E1,2.27E2,5.6E1,3.5E1,8.6E1,7.9E1,1E0,1.09E2,1.2E1,7E0,4E0,2E0,1.2E1,1E1,1E1,2E0,1.3E1,8.4E1,1.43E2,5E0,5.1E1,6.3E1,2.3E1,1.08E2,1E0,1E1,2E0,4E0,3E0,2E0,8E0,7E0,3E0,4E0,9E0,8E0,7.6E1,1.09E2,3.4E1,2E0,3E0,4.1E1,1E1],"tree_param":{"num_deleted":"0","num_feature":"14","num_nodes":"67","size_leaf_vector":"1"}},{"base_weights":[9.938045E-3,-7.965767E-1,5.6719714E-1,-5.813242E-1,-9.748632E-1,7.922877E-1,3.3743277E-1,-5.4896253E-1,-4.2256564E-2,-9.0813166E-1,-7.0251994E-2,2.9667222E-1,8.5057735E-1,-4.2719677E-2,3.9954177E-1,-5.8596987E-1,-3.5099283E-1,-9.47882E-1,-5.934223E-1,1.0296122E-1,1.9058319E-2,4.3277893E-2,2.8219018E-2,-2.1101734E-1,1.2743536E-1,2.6067412E-1,4.734375E-1,-2.6751691E-2,-3.5697076E-2,-6.7113124E-2,-2.015019E-2,-4.232894E-2,-5.002107E-2,-2.1842947E-2,-3.4820765E-2,-1.9427061E-2,1.4591588E-1,-9.095615E-2,-3.1349376E-1,-8.553644E-2,1.9134623E-1,2.2971798E-2,1.8421665E-1,3.0658716E-1,5.206036E-1,-7.2639383E-4,-4.488689E-3,-1.2227774E-3,-1.0854006E-4,8.837376E-3,4.2950534E-3,-8.367145E-3,-2.3450123E-3,-1.784653E-2,-9.064801E-3,-8.5001235E-4,-1.0705436E-2,-4.9241784E-4,1.0855554E-2,2.75203E-3,1.0748924E-2,1.6373983E-2,8.973533E-3,2.922435E-2,2.2140702E-2],"categories":[],"categories_nodes":[],"categories_segments":[],"categories_sizes":[],"default_left":[0,0,0,0,0,0,0,0,0,0,0,0,0,0,0,0,0,0,0,0,0,0,0,0,0,0,0,0,0,0,0,0,0,0,0,0,0,0,0,0,0,0,0,0,0,0,0,0,0,0,0,0,0,0,0,0,0,0,0,0,0,0,0,0,0],"id":7,"left_children":[1,3,5,7,9,11,13,15,-1,17,-1,19,21,23,25,27,29,31,33,35,-1,-1,-1,37,39,41,43,-1,-1,45,-1,-1,-1,-1,-1,47,49,51,53,55,57,-1,59,61,63,-1,-1,-1,-1,-1,-1,-1,-1,-1,-1,-1,-1,-1,-1,-1,-1,-1,-1,-1,-1],"loss_changes":[4.795523E2,1.6165497E1,3.2366592E1,1.2435074E0,5.5274353E0,8.934433E0,7.4308853E0,1.1203918E0,0E0,2.0395508E0,0E0,5.336151E-1,7.29126E-1,1.3155423E0,2.6472511E0,6.022949E-1,4.3066406E-1,1.2705994E-1,1.1501312E-1,6.592049E-2,0E0,0E0,0E0,2.544651E-1,3.294249E-1,1.3742595E0,1.2175865E0,0E0,0E0,5.8454704E-3,0E0,0E0,0E0,0E0,0E0,2.940033E-4,1.470387E-3,3.2535024E-2,4.1968822E-3,4.9231224E-2,9.544569E-2,0E0,2.7029943E-1,5.0113916E-2,4.1205597E-1,0E0,0E0,0E0,0E0,0E0,0E0,0E0,0E0,0E0,0E0,0E0,0E0,0E0,0E0,0E0,0E0,0E0,0E0,0E0,0E0],"parents":[2147483647,0,0,1,1,2,2,3,3,4,4,5,5,6,6,7,7,9,9,11,11,12,12,13,13,14,14,15,15,16,16,17,17,18,18,19,19,23,23,24,24,25,25,26,26,29,29,35,35,36,36,37,37,38,38,39,39,40,40,42,42,43,43,44,44],"right_children":[2,4,6,8,10,12,14,16,-1,18,-1,20,22,24,26,28,30,32,34,36,-1,-1,-1,38,40,42,44,-1,-1,46,-1,-1,-1,-1,-1,48,50,52,54,56,58,-1,60,62,64,-1,-1,-1,-1,-1,-1,-1,-1,-1,-1,-1,-1,-1,-1,-1,-1,-1,-1,-1,-1],"split_conditions":[-5.5263484E-1,-1.619252E-1,-3.422174E-1,-5.577179E-1,8.1348264E-1,-1.7598628E-1,-1.988821E-1,-8.89652E-1,-4.2256564E-2,-8.1577003E-1,-7.0251994E-2,-4.204709E-1,1.7688699E-1,-7.7929235E-1,-9.837797E-1,-3.0358335E-1,5.016055E-1,-5.7428795E-1,-5.7428795E-1,-1.0551165E0,1.9058319E-2,4.3277893E-2,2.8219018E-2,-7.166355E-2,-3.8436967E-1,-2.373639E-1,2.2492716E-1,-2.6751691E-2,-3.5697076E-2,-1.160207E0,-2.015019E-2,-4.232894E-2,-5.002107E-2,-2.1842947E-2,-3.4820765E-2,-5.351651E-1,-4.452415E-1,-5.214958E-1,-3.447344E-1,1.728947E0,-7.29728E-1,2.2971798E-2,2.885613E-1,4.6370336E-1,5.48899E-3,-7.2639383E-4,-4.488689E-3,-1.2227774E-3,-1.0854006E-4,8.837376E-3,4.2950534E-3,-8.367145E-3,-2.3450123E-3,-1.784653E-2,-9.064801E-3,-8.5001235E-4,-1.0705436E-2,-4.9241784E-4,1.0855554E-2,2.75203E-3,1.0748924E-2,1.6373983E-2,8.973533E-3,2.922435E-2,2.2140702E-2],"split_indices":[1,3,3,4,11,0,1,1,0,1,0,1,4,5,10,3,5,4,4,10,0,0,0,4,1,4,0,0,0,6,0,0,0,0,0,1,3,0,1,4,5,0,1,5,3,0,0,0,0,0,0,0,0,0,0,0,0,0,0,0,0,0,0,0,0],"split_type":[0,0,0,0,0,0,0,0,0,0,0,0,0,0,0,0,0,0,0,0,0,0,0,0,0,0,0,0,0,0,0,0,0,0,0,0,0,0,0,0,0,0,0,0,0,0,0,0,0,0,0,0,0,0,0,0,0,0,0,0,0,0,0,0,0],"sum_hessian":[1.065E3,4.35E2,6.3E2,1.99E2,2.36E2,3.17E2,3.13E2,1.8E2,1.9E1,2.07E2,2.9E1,3.4E1,2.83E2,4.4E1,2.69E2,1.5E2,3E1,1.82E2,2.5E1,1.1E1,2.3E1,2.67E2,1.6E1,2.2E1,2.2E1,9.5E1,1.74E2,1.11E2,3.9E1,5E0,2.5E1,6.8E1,1.14E2,1.2E1,1.3E1,3E0,8E0,1.1E1,1.1E1,5E0,1.7E1,2.5E1,7E1,4E1,1.34E2,2E0,3E0,2E0,1E0,4E0,4E0,3E0,8E0,7E0,4E0,4E0,1E0,2E0,1.5E1,1.4E1,5.6E1,3.3E1,7E0,7E1,6.4E1],"tree_param":{"num_deleted":"0","num_feature":"14","num_nodes":"65","size_leaf_vector":"1"}},{"base_weights":[3.964582E-3,-7.279839E-1,5.419105E-1,-5.3819484E-1,-8.9788455E-1,7.517703E-1,3.2614556E-1,-5.612041E-1,-8.084893E-3,-9.5927864E-1,-5.0311154E-1,4.0022722E-1,8.144085E-1,-7.1344376E-2,3.916548E-1,-5.342369E-1,-4.0733967E-2,-4.4230063E-2,3.690629E-2,-8.9769995E-1,-6.731646E-2,-2.6514685E-2,-1.1969808E-2,2.5096062E-1,4.4715792E-1,4.1951552E-2,3.1792168E-2,-2.351831E-1,8.8472866E-2,2.529806E-1,4.6646968E-1,-6.312053E-1,-4.8349053E-1,-2.6114727E-3,-1.0582805E-4,3.4116467E-3,-6.7224503E-3,-8.045347E-1,-4.7574904E-2,2.1596611E-3,1.3181008E-2,2.479869E-2,2.4560213E-1,-1.2412724E-1,-1.5869288E-2,1.7842832E-1,-4.631207E-2,4.3559882E-1,1.7288668E-1,3.640407E-1,5.2698743E-1,-2.6551474E-2,-3.542628E-2,-2.5269413E-2,-1.7700782E-2,-4.3569208E-4,-6.8491696E-5,-4.0803384E-2,-2.0222848E-2,1.7992676E-3,1.3365303E-2,-1.054597E-3,-6.6160783E-3,1.4870097E-2,2.6011437E-3,-9.185404E-3,1.9407971E-3,1.3602276E-2,2.3391929E-2,1.1070967E-4,9.638079E-3,1.1385049E-2,1.9506088E-2,2.6525367E-2,4.110843E-3],"categories":[],"categories_nodes":[],"categories_segments":[],"categories_sizes":[],"default_left":[0,0,0,0,0,0,0,0,0,0,0,0,0,0,0,0,0,0,0,0,0,0,0,0,0,0,0,0,0,0,0,0,0,0,0,0,0,0,0,0,0,0,0,0,0,0,0,0,0,0,0,0,0,0,0,0,0,0,0,0,0,0,0,0,0,0,0,0,0,0,0,0,0,0,0],"id":8,"left_children":[1,3,5,7,9,11,13,15,17,19,21,23,25,27,29,31,-1,33,35,37,-1,-1,-1,39,41,-1,-1,43,45,47,49,51,53,-1,-1,-1,55,57,-1,-1,-1,-1,59,61,-1,63,65,67,69,71,73,-1,-1,-1,-1,-1,-1,-1,-1,-1,-1,-1,-1,-1,-1,-1,-1,-1,-1,-1,-1,-1,-1,-1,-1],"loss_changes":[4.2013065E2,1.4091644E1,2.760225E1,2.630104E0,5.26149E0,6.522293E0,7.9699135E0,9.7971344E-1,1.7894508E-2,3.653534E0,1.1677456E-1,2.3103523E-1,6.2283325E-1,1.1729145E0,2.600216E0,6.297722E-1,0E0,1.910747E-3,7.292402E-3,1.3166809E-1,0E0,0E0,0E0,2.5436759E-2,2.3239565E-1,0E0,0E0,1.6144371E-1,2.8713012E-1,1.2995915E0,8.557472E-1,1.0398102E-1,1.868267E-1,0E0,0E0,0E0,2.0040956E-5,2.1514893E-3,0E0,0E0,0E0,0E0,3.1326473E-2,6.4964294E-3,0E0,1.9507307E-1,1.24093294E-1,2.03681E-2,2.268436E-1,1.4585781E-1,1.1920166E-1,0E0,0E0,0E0,0E0,0E0,0E0,0E0,0E0,0E0,0E0,0E0,0E0,0E0,0E0,0E0,0E0,0E0,0E0,0E0,0E0,0E0,0E0,0E0,0E0],"parents":[2147483647,0,0,1,1,2,2,3,3,4,4,5,5,6,6,7,7,8,8,9,9,10,10,11,11,12,12,13,13,14,14,15,15,17,17,18,18,19,19,23,23,24,24,27,27,28,28,29,29,30,30,31,31,32,32,36,36,37,37,42,42,43,43,45,45,46,46,47,47,48,48,49,49,50,50],"right_children":[2,4,6,8,10,12,14,16,18,20,22,24,26,28,30,32,-1,34,36,38,-1,-1,-1,40,42,-1,-1,44,46,48,50,52,54,-1,-1,-1,56,58,-1,-1,-1,-1,60,62,-1,64,66,68,70,72,74,-1,-1,-1,-1,-1,-1,-1,-1,-1,-1,-1,-1,-1,-1,-1,-1,-1,-1,-1,-1,-1,-1,-1,-1],"split_conditions":[-4.791658E-1,-1.619252E-1,-3.422174E-1,-5.6006265E-1,-8.1577003E-1,1.1417794E-1,-1.9168061E-1,-5.577179E-1,-2.6852888E-1,8.1348264E-1,-2.806992E-1,-3.8436967E-1,-3.2573745E-1,-1.023457E0,-9.8563E-1,-1.0245534E0,-4.0733967E-2,8.1254053E-1,-5.351651E-1,-5.7428795E-1,-6.731646E-2,-2.6514685E-2,-1.1969808E-2,-3.1187853E-1,-5.687646E-1,4.1951552E-2,3.1792168E-2,1.1489958E0,-5.7428795E-1,-2.373639E-1,6.5091246E-1,-3.422174E-1,-8.7160665E-1,-2.6114727E-3,-1.0582805E-4,3.4116467E-3,-4.9907586E-1,2.9501674E-1,-4.7574904E-2,2.1596611E-3,1.3181008E-2,2.479869E-2,-2.2517921E-1,-2.0055924E-1,-1.5869288E-2,-2.520713E-1,3.8171607E-1,4.122368E-1,-1.7212713E-1,-1.03909135E-1,1.5356299E0,-2.6551474E-2,-3.542628E-2,-2.5269413E-2,-1.7700782E-2,-4.3569208E-4,-6.8491696E-5,-4.0803384E-2,-2.0222848E-2,1.7992676E-3,1.3365303E-2,-1.054597E-3,-6.6160783E-3,1.4870097E-2,2.6011437E-3,-9.185404E-3,1.9407971E-3,1.3602276E-2,2.3391929E-2,1.1070967E-4,9.638079E-3,1.1385049E-2,1.9506088E-2,2.6525367E-2,4.110843E-3],"split_indices":[1,3,3,1,1,1,1,4,2,11,13,1,4,10,10,1,0,13,1,4,0,0,0,2,4,0,0,4,4,4,1,3,1,0,0,0,1,2,0,0,0,0,2,3,0,3,2,1,13,1,4,0,0,0,0,0,0,0,0,0,0,0,0,0,0,0,0,0,0,0,0,0,0,0,0],"split_type":[0,0,0,0,0,0,0,0,0,0,0,0,0,0,0,0,0,0,0,0,0,0,0,0,0,0,0,0,0,0,0,0,0,0,0,0,0,0,0,0,0,0,0,0,0,0,0,0,0,0,0,0,0,0,0,0,0,0,0,0,0,0,0,0,0,0,0,0,0,0,0,0,0,0,0],"sum_hessian":[1.065E3,4.51E2,6.14E2,2.15E2,2.36E2,3.1E2,3.04E2,2.06E2,9E0,2.03E2,3.3E1,4.8E1,2.62E2,4.3E1,2.61E2,1.89E2,1.7E1,5E0,4E0,1.78E2,2.5E1,2.9E1,4E0,1.3E1,3.5E1,2.27E2,3.5E1,2.1E1,2.2E1,9.3E1,1.68E2,6.1E1,1.28E2,4E0,1E0,2E0,2E0,7.1E1,1.07E2,1E0,1.2E1,2.7E1,8E0,1E1,1.1E1,1.3E1,9E0,2.7E1,6.6E1,6.5E1,1.03E2,3E1,3.1E1,1.07E2,2.1E1,1E0,1E0,6.8E1,3E0,1E0,7E0,1E0,9E0,6E0,7E0,3E0,6E0,6E0,2.1E1,7E0,5.9E1,1.2E1,5.3E1,1.02E2,1E0],"tree_param":{"num_deleted":"0","num_feature":"14","num_nodes":"75","size_leaf_vector":"1"}},{"base_weights":[-2.5121784E-3,-7.007307E-1,5.0883096E-1,-5.122684E-1,-8.6928517E-1,7.120473E-1,3.1181967E-1,-5.563759E-1,-1.7363444E-1,-8.050502E-1,-6.3962385E-2,3.767064E-1,7.715294E-1,4.336628E-2,3.8818297E-1,-5.258806E-1,-3.9997317E-2,-7.41442E-4,-3.003732E-1,-8.599276E-1,-5.037572E-1,4.1513902E-1,1.3745496E-1,3.984922E-2,3.006934E-2,-1.019963E-1,1.6846098E-1,4.5263734E-1,2.5448182E-1,-2.3863915E-2,-6.0703003E-1,3.42119E-2,-3.9600553E-3,-1.7253596E-2,-6.554445E-3,-4.3395013E-2,-2.4735054E-2,-2.826379E-2,-1.35031855E-2,3.1462103E-1,2.663134E-2,2.5733034E-3,7.877013E-3,-1.4959103E-1,6.5436095E-2,2.9299354E-2,2.484178E-1,2.7977804E-2,3.9700708E-1,1.9893833E-1,2.3384685E-2,-3.2579567E-2,-2.2799367E-2,-1.2287403E-3,4.3078116E-3,-4.248023E-4,-6.6781045E-5,7.296649E-3,1.6588507E-2,4.6174528E-4,-8.944412E-3,8.600855E-3,6.19789E-5,-9.506297E-3,3.8841085E-3,1.4441118E-2,7.449273E-3,2.1010524E-2,1.3187933E-2,1.0105713E-2,3.2436252E-3],"categories":[],"categories_nodes":[],"categories_segments":[],"categories_sizes":[],"default_left":[0,0,0,0,0,0,0,0,0,0,0,0,0,0,0,0,0,0,0,0,0,0,0,0,0,0,0,0,0,0,0,0,0,0,0,0,0,0,0,0,0,0,0,0,0,0,0,0,0,0,0,0,0,0,0,0,0,0,0,0,0,0,0,0,0,0,0,0,0,0,0],"id":9,"left_children":[1,3,5,7,9,11,13,15,17,19,-1,21,23,25,27,29,-1,31,33,35,37,39,41,-1,-1,43,45,47,49,-1,51,53,-1,-1,55,-1,-1,-1,-1,57,-1,-1,-1,59,61,63,65,-1,67,69,-1,-1,-1,-1,-1,-1,-1,-1,-1,-1,-1,-1,-1,-1,-1,-1,-1,-1,-1,-1,-1],"loss_changes":[3.7666537E2,1.3722397E1,2.4159851E1,3.0848274E0,5.1322784E0,5.6734467E0,6.3586636E0,9.7574234E-1,5.6949556E-1,2.9563293E0,0E0,3.751049E-1,6.164398E-1,1.2900685E0,1.9702759E0,3.80764E-1,0E0,3.561875E-2,1.9473791E-1,7.14798E-2,3.3613968E-1,3.0481005E-1,5.708903E-3,0E0,0E0,2.7276236E-1,4.155444E-1,7.4141693E-1,8.662033E-1,0E0,1.0672188E-1,2.9599996E-2,0E0,0E0,1.9051135E-5,0E0,0E0,0E0,0E0,2.1012068E-2,0E0,0E0,0E0,1.2263405E-1,5.45238E-2,1.7401558E-1,5.3390265E-2,0E0,2.2926712E-1,1.4989853E-2,0E0,0E0,0E0,0E0,0E0,0E0,0E0,0E0,0E0,0E0,0E0,0E0,0E0,0E0,0E0,0E0,0E0,0E0,0E0,0E0,0E0],"parents":[2147483647,0,0,1,1,2,2,3,3,4,4,5,5,6,6,7,7,8,8,9,9,11,11,12,12,13,13,14,14,15,15,17,17,18,18,19,19,20,20,21,21,22,22,25,25,26,26,27,27,28,28,30,30,31,31,34,34,39,39,43,43,44,44,45,45,46,46,48,48,49,49],"right_children":[2,4,6,8,10,12,14,16,18,20,-1,22,24,26,28,30,-1,32,34,36,38,40,42,-1,-1,44,46,48,50,-1,52,54,-1,-1,56,-1,-1,-1,-1,58,-1,-1,-1,60,62,64,66,-1,68,70,-1,-1,-1,-1,-1,-1,-1,-1,-1,-1,-1,-1,-1,-1,-1,-1,-1,-1,-1,-1,-1],"split_conditions":[-4.791658E-1,-1.619252E-1,-3.422174E-1,-8.1577003E-1,8.1348264E-1,2.6508471E-2,-2.5019692E-2,-5.577179E-1,-8.453781E-1,-8.1577003E-1,-6.3962385E-2,-3.9372945E-1,-3.2573745E-1,-1.1313255E0,1.231846E0,-3.1646138E-1,-3.9997317E-2,-1.158563E0,-5.6006265E-1,3.3836642E-1,-6.0014784E-1,-3.1202608E-1,-2.2517921E-1,3.984922E-2,3.006934E-2,-1.3025476E-1,-2.1750964E-1,-1.2329116E-1,-9.823777E-1,-2.3863915E-2,-9.412774E-1,-2.6852888E-1,-3.9600553E-3,-1.7253596E-2,-4.999058E-1,-4.3395013E-2,-2.4735054E-2,-2.826379E-2,-1.35031855E-2,-4.4973144E-1,2.663134E-2,2.5733034E-3,7.877013E-3,-2.9070535E-1,1.085131E-1,-2.6852888E-1,4.6370336E-1,2.7977804E-2,1.7688699E-1,8.6831594E-1,2.3384685E-2,-3.2579567E-2,-2.2799367E-2,-1.2287403E-3,4.3078116E-3,-4.248023E-4,-6.6781045E-5,7.296649E-3,1.6588507E-2,4.6174528E-4,-8.944412E-3,8.600855E-3,6.19789E-5,-9.506297E-3,3.8841085E-3,1.4441118E-2,7.449273E-3,2.1010524E-2,1.3187933E-2,1.0105713E-2,3.2436252E-3],"split_indices":[1,3,3,1,11,1,0,4,5,1,0,3,4,6,4,3,0,6,1,2,0,1,2,0,0,1,0,3,6,0,1,2,0,0,0,0,0,0,0,0,0,0,0,3,3,2,5,0,4,3,0,0,0,0,0,0,0,0,0,0,0,0,0,0,0,0,0,0,0,0,0],"split_type":[0,0,0,0,0,0,0,0,0,0,0,0,0,0,0,0,0,0,0,0,0,0,0,0,0,0,0,0,0,0,0,0,0,0,0,0,0,0,0,0,0,0,0,0,0,0,0,0,0,0,0,0,0,0,0,0,0,0,0,0,0,0,0,0,0,0,0,0,0,0,0],"sum_hessian":[1.053E3,4.45E2,6.08E2,2.12E2,2.33E2,2.98E2,3.1E2,1.87E2,2.5E1,2.04E2,2.9E1,4.6E1,2.52E2,6.9E1,2.41E2,1.69E2,1.8E1,1.1E1,1.4E1,1.71E2,3.3E1,3.9E1,7E0,2.16E2,3.6E1,3.2E1,3.7E1,1.61E2,8E1,1.1E2,5.9E1,8E0,3E0,1.2E1,2E0,1.66E2,5E0,2.5E1,8E0,2.3E1,1.6E1,2E0,5E0,2.5E1,7E0,1.4E1,2.3E1,5.2E1,1.09E2,6.5E1,1.5E1,4.3E1,1.6E1,4E0,4E0,1E0,1E0,3E0,2E1,4E0,2.1E1,2E0,5E0,2E0,1.2E1,1.5E1,8E0,9.1E1,1.8E1,6.3E1,2E0],"tree_param":{"num_deleted":"0","num_feature":"14","num_nodes":"71","size_leaf_vector":"1"}},{"base_weights":[-1.2265974E-2,-6.8670213E-1,4.714946E-1,-4.9070892E-1,-8.272868E-1,6.6280687E-1,2.7559048E-1,-4.6487457E-1,-3.8055904E-2,-1.0778599E0,-7.5792336E-1,2.8969815E-1,7.2530055E-1,-7.507912E-2,3.4305623E-1,-4.8784468E-1,-2.0468305E-1,-6.263042E-2,-4.1252367E-2,-4.169981E-2,-5.708044E-1,8.807067E-2,3.4886014E-1,3.7104603E-2,4.644185E-1,-2.0949546E-1,9.766664E-2,2.2076179E-1,4.0944088E-1,-2.8170949E-2,-2.2436319E-2,-1.3557628E-2,-4.870844E-2,-3.266444E-2,-2.2218361E-2,-1.6534746E-2,6.238817E-3,3.6614972E-1,5.950305E-3,1.6899527E-3,2.4323203E-2,-1.59795E-2,-1.24460444E-1,-9.189423E-3,1.3322373E-1,3.9994514E-1,1.5708347E-1,3.0075878E-1,4.8400196E-1,-4.149596E-4,-3.3419132E-3,-1.0540088E-3,-7.246137E-5,1.3782739E-2,2.0916104E-2,7.841468E-4,-7.147928E-3,8.264334E-3,2.2742732E-3,1.2024039E-2,2.1462627E-2,-8.746654E-4,8.822557E-3,1.00570535E-2,1.736739E-2,2.5867522E-2,2.0886598E-2],"categories":[],"categories_nodes":[],"categories_segments":[],"categories_sizes":[],"default_left":[0,0,0,0,0,0,0,0,0,0,0,0,0,0,0,0,0,0,0,0,0,0,0,0,0,0,0,0,0,0,0,0,0,0,0,0,0,0,0,0,0,0,0,0,0,0,0,0,0,0,0,0,0,0,0,0,0,0,0,0,0,0,0,0,0,0,0],"id":10,"left_children":[1,3,5,7,9,11,13,15,-1,17,19,21,23,25,27,29,31,-1,-1,-1,33,35,37,-1,39,41,43,45,47,-1,-1,-1,49,-1,-1,51,-1,53,-1,-1,-1,-1,55,-1,57,59,61,63,65,-1,-1,-1,-1,-1,-1,-1,-1,-1,-1,-1,-1,-1,-1,-1,-1,-1,-1],"loss_changes":[3.5073303E2,1.1965622E1,2.3279114E1,9.7348404E-1,3.7020264E0,7.15802E0,7.3834515E0,9.52034E-1,0E0,1.3521843E0,2.4705276E0,5.299239E-1,8.381195E-1,1.2046733E0,2.0285358E0,2.2315216E-1,1.5267348E-1,0E0,0E0,0E0,3.6673355E-1,4.813849E-2,9.949255E-2,0E0,1.6392994E-1,2.3171854E-1,2.5466257E-1,1.0097241E0,1.2158108E0,0E0,0E0,0E0,3.8409717E-3,0E0,0E0,2.4373084E-4,0E0,4.049158E-2,0E0,0E0,0E0,0E0,4.8904985E-2,0E0,5.1557958E-2,8.936882E-3,2.4314797E-1,2.5965118E-1,4.6730042E-4,0E0,0E0,0E0,0E0,0E0,0E0,0E0,0E0,0E0,0E0,0E0,0E0,0E0,0E0,0E0,0E0,0E0,0E0],"parents":[2147483647,0,0,1,1,2,2,3,3,4,4,5,5,6,6,7,7,9,9,10,10,11,11,12,12,13,13,14,14,15,15,16,16,20,20,21,21,22,22,24,24,25,25,26,26,27,27,28,28,32,32,35,35,37,37,42,42,44,44,45,45,46,46,47,47,48,48],"right_children":[2,4,6,8,10,12,14,16,-1,18,20,22,24,26,28,30,32,-1,-1,-1,34,36,38,-1,40,42,44,46,48,-1,-1,-1,50,-1,-1,52,-1,54,-1,-1,-1,-1,56,-1,58,60,62,64,66,-1,-1,-1,-1,-1,-1,-1,-1,-1,-1,-1,-1,-1,-1,-1,-1,-1,-1],"split_conditions":[-5.5263484E-1,-2.0055924E-1,-3.422174E-1,-5.577179E-1,-1.1501954E0,-1.650172E-1,-1.4168848E-1,-8.1577003E-1,-3.8055904E-2,-5.7428795E-1,-3.1736124E-1,-4.4973144E-1,1.7688699E-1,-7.7929235E-1,-9.827518E-1,-1.029919E0,-7.541126E-1,-6.263042E-2,-4.1252367E-2,-4.169981E-2,-7.4447143E-1,-1.0551165E0,-5.577179E-1,3.7104603E-2,2.6508471E-2,-4.5495778E-1,-2.6852888E-1,-2.373639E-1,6.4744985E-1,-2.8170949E-2,-2.2436319E-2,-1.3557628E-2,-1.160207E0,-3.266444E-2,-2.2218361E-2,-5.351651E-1,6.238817E-3,-3.6839202E-1,5.950305E-3,1.6899527E-3,2.4323203E-2,-1.59795E-2,-2.6494932E-1,-9.189423E-3,-5.7428795E-1,4.9552608E-1,-1.7212713E-1,-2.5713718E-1,-2.1343726E-1,-4.149596E-4,-3.3419132E-3,-1.0540088E-3,-7.246137E-5,1.3782739E-2,2.0916104E-2,7.841468E-4,-7.147928E-3,8.264334E-3,2.2742732E-3,1.2024039E-2,2.1462627E-2,-8.746654E-4,8.822557E-3,1.00570535E-2,1.736739E-2,2.5867522E-2,2.0886598E-2],"split_indices":[1,3,3,4,6,1,0,1,0,4,7,0,4,5,10,1,0,0,0,0,13,10,4,0,1,13,2,4,0,0,0,0,6,0,0,1,0,1,0,0,0,0,3,0,4,1,13,13,3,0,0,0,0,0,0,0,0,0,0,0,0,0,0,0,0,0,0],"split_type":[0,0,0,0,0,0,0,0,0,0,0,0,0,0,0,0,0,0,0,0,0,0,0,0,0,0,0,0,0,0,0,0,0,0,0,0,0,0,0,0,0,0,0,0,0,0,0,0,0,0,0,0,0,0,0,0,0,0,0,0,0,0,0,0,0,0,0],"sum_hessian":[1.073E3,4.48E2,6.25E2,1.89E2,2.59E2,3.15E2,3.1E2,1.75E2,1.4E1,5.3E1,2.06E2,4.6E1,2.69E2,5E1,2.6E2,1.6E2,1.5E1,2.9E1,2.4E1,1.44E2,6.2E1,1.1E1,3.5E1,2.51E2,1.8E1,2.8E1,2.2E1,9.3E1,1.67E2,5E1,1.1E2,1E1,5E0,3.5E1,2.7E1,3E0,8E0,3.2E1,3E0,1E0,1.7E1,1.1E1,1.7E1,2E0,2E1,2.3E1,7E1,7E1,9.7E1,2E0,3E0,2E0,1E0,1.4E1,1.8E1,2E0,1.5E1,1.4E1,6E0,5E0,1.8E1,7E0,6.3E1,2.4E1,4.6E1,6E1,3.7E1],"tree_param":{"num_deleted":"0","num_feature":"14","num_nodes":"67","size_leaf_vector":"1"}},{"base_weights":[-1.1470866E-2,-6.4037937E-1,4.636079E-1,-4.6955833E-1,-8.025869E-1,6.5165883E-1,2.7526912E-1,-5.063307E-1,-2.1366024E-1,-7.3264927E-1,-6.021249E-2,3.6833522E-1,6.998348E-1,1.2711763E-2,3.508674E-1,-4.3721867E-1,-6.010779E-1,-2.941314E-1,6.7870882E-3,-7.839024E-1,-5.1351756E-1,2.850291E-1,4.5393634E-1,3.6012176E-2,2.7239714E-2,-1.2323727E-1,1.4075497E-1,2.4633028E-1,4.1362086E-1,-3.0685801E-2,-2.1020388E-2,-3.2075915E-2,-2.0673724E-2,-1.6652586E-2,-3.5727084E-2,-4.165584E-2,3.795119E-2,-3.9871063E-2,-2.635308E-2,-6.161798E-1,-3.8640204E-1,3.0176228E-1,2.8077087E-3,2.4755826E-2,1.5514141E-1,-2.995602E-1,-6.642909E-2,-1.08491816E-1,1.844558E-1,2.0947192E-2,1.7824566E-1,4.8095793E-1,3.5819402E-1,-2.8374235E-3,6.8342686E-4,-2.7299563E-3,-7.064939E-5,3.2925934E-3,-5.950054E-4,-3.3304732E-2,-1.616168E-2,-1.9769017E-2,-5.1709237E-3,7.764876E-3,1.6164517E-2,9.244291E-3,1.6477049E-3,-2.6221871E-3,-1.6368529E-2,-4.459394E-3,1.4045656E-3,-8.179563E-3,5.690257E-5,-3.5838902E-3,9.769143E-3,9.322614E-3,3.1868161E-3,2.463058E-2,1.2362664E-2,1.9573348E-2,1.1986698E-2],"categories":[],"categories_nodes":[],"categories_segments":[],"categories_sizes":[],"default_left":[0,0,0,0,0,0,0,0,0,0,0,0,0,0,0,0,0,0,0,0,0,0,0,0,0,0,0,0,0,0,0,0,0,0,0,0,0,0,0,0,0,0,0,0,0,0,0,0,0,0,0,0,0,0,0,0,0,0,0,0,0,0,0,0,0,0,0,0,0,0,0,0,0,0,0,0,0,0,0,0,0],"id":11,"left_children":[1,3,5,7,9,11,13,15,17,19,-1,21,23,25,27,29,31,33,35,37,39,41,43,-1,-1,45,47,49,51,-1,-1,-1,-1,-1,53,55,57,-1,-1,59,61,63,-1,-1,65,67,69,71,73,-1,75,77,79,-1,-1,-1,-1,-1,-1,-1,-1,-1,-1,-1,-1,-1,-1,-1,-1,-1,-1,-1,-1,-1,-1,-1,-1,-1,-1,-1,-1],"loss_changes":[3.1730362E2,1.2285889E1,2.1248062E1,2.0090675E0,5.6629944E0,3.8643494E0,6.0296E0,1.0206413E0,5.341859E-1,1.8549194E0,0E0,1.9864511E-1,4.2080688E-1,1.2184533E0,1.4462891E0,8.913612E-2,3.4168816E-1,2.0935917E-1,1.5168012E-2,1.3874054E-1,2.9695606E-1,8.262968E-2,1.8158007E-1,0E0,0E0,3.2066435E-1,4.1213435E-1,9.9478674E-1,3.726387E-1,0E0,0E0,0E0,0E0,0E0,4.9291267E-3,2.0063515E-3,9.128953E-3,0E0,0E0,9.176397E-2,1.2465E-2,2.5468588E-2,0E0,0E0,8.444816E-3,3.7810683E-2,6.058699E-2,3.642945E-2,1.007669E-1,0E0,5.1078558E-2,4.97818E-2,2.3723888E-1,0E0,0E0,0E0,0E0,0E0,0E0,0E0,0E0,0E0,0E0,0E0,0E0,0E0,0E0,0E0,0E0,0E0,0E0,0E0,0E0,0E0,0E0,0E0,0E0,0E0,0E0,0E0,0E0],"parents":[2147483647,0,0,1,1,2,2,3,3,4,4,5,5,6,6,7,7,8,8,9,9,11,11,12,12,13,13,14,14,15,15,16,16,17,17,18,18,19,19,20,20,21,21,22,22,25,25,26,26,27,27,28,28,34,34,35,35,36,36,39,39,40,40,41,41,44,44,45,45,46,46,47,47,48,48,50,50,51,51,52,52],"right_children":[2,4,6,8,10,12,14,16,18,20,-1,22,24,26,28,30,32,34,36,38,40,42,44,-1,-1,46,48,50,52,-1,-1,-1,-1,-1,54,56,58,-1,-1,60,62,64,-1,-1,66,68,70,72,74,-1,76,78,80,-1,-1,-1,-1,-1,-1,-1,-1,-1,-1,-1,-1,-1,-1,-1,-1,-1,-1,-1,-1,-1,-1,-1,-1,-1,-1,-1,-1],"split_conditions":[-4.791658E-1,-1.619252E-1,-3.422174E-1,-8.4036595E-1,8.1348264E-1,1.1417794E-1,-2.5019692E-2,-3.1646138E-1,-5.6006265E-1,-8.947018E-1,-6.021249E-2,-2.3830509E-1,-3.2573745E-1,-1.1313255E0,-9.827518E-1,-9.513022E-2,-9.1040945E-1,-1.5085487E-2,-2.6852888E-1,2.5166708E-1,-7.081813E-1,-3.8085145E-1,-5.687646E-1,3.6012176E-2,2.7239714E-2,-4.5495778E-1,-3.7412068E-1,-5.7428795E-1,-1.3616917E-1,-3.0685801E-2,-2.1020388E-2,-3.2075915E-2,-2.0673724E-2,-1.6652586E-2,-6.9331086E-1,8.1254053E-1,-5.6168544E-1,-3.9871063E-2,-2.635308E-2,-5.178056E-2,-2.2835885E-1,-3.91606E-1,2.8077087E-3,2.4755826E-2,2.0948751E-1,-8.823359E-2,-1.03909135E-1,-3.2671008E-1,-3.9857787E-1,2.0947192E-2,4.562195E-1,3.3836642E-1,1.7688699E-1,-2.8374235E-3,6.8342686E-4,-2.7299563E-3,-7.064939E-5,3.2925934E-3,-5.950054E-4,-3.3304732E-2,-1.616168E-2,-1.9769017E-2,-5.1709237E-3,7.764876E-3,1.6164517E-2,9.244291E-3,1.6477049E-3,-2.6221871E-3,-1.6368529E-2,-4.459394E-3,1.4045656E-3,-8.179563E-3,5.690257E-5,-3.5838902E-3,9.769143E-3,9.322614E-3,3.1868161E-3,2.463058E-2,1.2362664E-2,1.9573348E-2,1.1986698E-2],"split_indices":[1,3,3,1,11,1,0,3,1,1,0,1,4,6,10,2,1,13,2,2,13,3,4,0,0,13,1,4,3,0,0,0,0,0,0,13,0,0,0,2,13,0,0,0,0,4,1,0,2,0,3,2,4,0,0,0,0,0,0,0,0,0,0,0,0,0,0,0,0,0,0,0,0,0,0,0,0,0,0,0,0],"split_type":[0,0,0,0,0,0,0,0,0,0,0,0,0,0,0,0,0,0,0,0,0,0,0,0,0,0,0,0,0,0,0,0,0,0,0,0,0,0,0,0,0,0,0,0,0,0,0,0,0,0,0,0,0,0,0,0,0,0,0,0,0,0,0,0,0,0,0,0,0,0,0,0,0,0,0,0,0,0,0,0,0],"sum_hessian":[1.06E3,4.56E2,6.04E2,2.24E2,2.32E2,3.01E2,3.03E2,1.95E2,2.9E1,2E2,3.2E1,4.5E1,2.56E2,6.8E1,2.35E2,1.16E2,7.9E1,2.1E1,8E0,1.6E2,4E1,2.5E1,2E1,2.23E2,3.3E1,3.3E1,3.5E1,9E1,1.45E2,7E0,1.09E2,6.3E1,1.6E1,1.8E1,3E0,3E0,5E0,1.5E2,1E1,2E1,2E1,2.3E1,2E0,1.7E1,3E0,7E0,2.6E1,5E0,3E1,2.4E1,6.6E1,6.2E1,8.3E1,2E0,1E0,2E0,1E0,3E0,2E0,1.6E1,4E0,1.9E1,1E0,4E0,1.9E1,2E0,1E0,1E0,6E0,2.1E1,5E0,3E0,2E0,1E0,2.9E1,6.1E1,5E0,5.8E1,4E0,6.3E1,2E1],"tree_param":{"num_deleted":"0","num_feature":"14","num_nodes":"81","size_leaf_vector":"1"}},{"base_weights":[-2.082705E-2,-5.983637E-1,4.2531142E-1,-4.156329E-1,-7.4209696E-1,6.1389065E-1,2.4331085E-1,-4.546761E-1,-1.1321143E-1,-6.891604E-1,-5.546027E-2,3.3779365E-1,6.635399E-1,-3.0520877E-2,2.710499E-1,-3.2684624E-2,-4.2763337E-1,2.038862E-2,-2.5964388E-1,-7.355267E-1,-4.111438E-1,2.693829E-3,3.5592714E-1,3.418566E-2,2.6259476E-2,7.976095E-2,3.3588487E-1,-3.9285117E-1,-4.91211E-1,-3.731842E-2,4.720328E-2,-9.423554E-2,-1.5215469E-2,-6.543982E-1,-3.8835097E-2,-4.6789002E-1,-2.6338938E-1,2.9342848E-1,2.3444688E-2,-8.826554E-2,1.6224033E-1,2.2263764E-1,4.040253E-1,-2.0427506E-2,-1.4100644E-2,-2.6884953E-2,-1.9264817E-2,-2.7428428E-3,-3.6702555E-4,-3.7760337E-4,5.1734517E-3,-5.878429E-3,-6.05911E-4,-3.2914087E-2,-9.466613E-3,-6.7056897E-3,-2.382855E-2,-3.8612247E-3,-1.3664653E-2,1.5010071E-2,2.2560002E-3,-1.1071643E-2,-8.389122E-4,-2.0086368E-4,1.0347201E-2,1.763804E-2,8.1762755E-3,1.6278801E-2,2.1985551E-2],"categories":[],"categories_nodes":[],"categories_segments":[],"categories_sizes":[],"default_left":[0,0,0,0,0,0,0,0,0,0,0,0,0,0,0,0,0,0,0,0,0,0,0,0,0,0,0,0,0,0,0,0,0,0,0,0,0,0,0,0,0,0,0,0,0,0,0,0,0,0,0,0,0,0,0,0,0,0,0,0,0,0,0,0,0,0,0,0,0],"id":12,"left_children":[1,3,5,7,9,11,13,15,17,19,-1,21,23,-1,25,-1,27,29,31,33,35,-1,37,-1,-1,39,41,43,45,47,49,51,-1,53,-1,55,57,59,-1,61,63,65,67,-1,-1,-1,-1,-1,-1,-1,-1,-1,-1,-1,-1,-1,-1,-1,-1,-1,-1,-1,-1,-1,-1,-1,-1,-1,-1],"loss_changes":[2.7492145E2,1.1904556E1,2.0512177E1,2.3926773E0,4.2688293E0,3.8197327E0,7.4593887E0,7.053566E-1,4.943783E-1,2.6495438E0,0E0,2.227993E-1,3.3587646E-1,0E0,3.6814709E0,0E0,1.6969109E-1,2.3425074E-2,5.9979737E-2,1.4311218E-1,1.7022085E-1,0E0,1.7306423E-1,0E0,0E0,1.0814416E0,1.6308746E0,7.7926636E-2,5.8709145E-2,2.226152E-3,3.1589918E-2,6.2394626E-3,0E0,5.4092407E-3,0E0,5.625248E-3,1.0196567E-3,3.859043E-2,0E0,2.4379879E-1,3.873124E-1,6.038141E-1,2.431755E-1,0E0,0E0,0E0,0E0,0E0,0E0,0E0,0E0,0E0,0E0,0E0,0E0,0E0,0E0,0E0,0E0,0E0,0E0,0E0,0E0,0E0,0E0,0E0,0E0,0E0,0E0],"parents":[2147483647,0,0,1,1,2,2,3,3,4,4,5,5,6,6,7,7,8,8,9,9,11,11,12,12,14,14,16,16,17,17,18,18,19,19,20,20,22,22,25,25,26,26,27,27,28,28,29,29,30,30,31,31,33,33,35,35,36,36,37,37,39,39,40,40,41,41,42,42],"right_children":[2,4,6,8,10,12,14,16,18,20,-1,22,24,-1,26,-1,28,30,32,34,36,-1,38,-1,-1,40,42,44,46,48,50,52,-1,54,-1,56,58,60,-1,62,64,66,68,-1,-1,-1,-1,-1,-1,-1,-1,-1,-1,-1,-1,-1,-1,-1,-1,-1,-1,-1,-1,-1,-1,-1,-1,-1,-1],"split_conditions":[-4.829146E-1,-2.0055924E-1,-3.422174E-1,-8.1233555E-1,8.1348264E-1,2.2492716E-1,-6.1532617E-1,-5.178056E-2,-3.1736124E-1,-8.1233555E-1,-5.546027E-2,-5.178056E-2,-3.2573745E-1,-3.0520877E-2,6.399601E-2,-3.2684624E-2,-3.2933939E-1,-5.9292614E-1,-3.2933939E-1,-5.7428795E-1,-6.0014784E-1,2.693829E-3,-1.16275825E-1,3.418566E-2,2.6259476E-2,-2.1750964E-1,-9.827518E-1,-9.548138E-1,-9.8696715E-1,-6.9331086E-1,-2.6852888E-1,-7.83933E-1,-1.5215469E-2,-8.295264E-1,-3.8835097E-2,-1.7480321E-1,-1.1041314E-1,1.031961E0,2.3444688E-2,-2.6852888E-1,-1.1313255E0,-2.373639E-1,6.680284E-1,-2.0427506E-2,-1.4100644E-2,-2.6884953E-2,-1.9264817E-2,-2.7428428E-3,-3.6702555E-4,-3.7760337E-4,5.1734517E-3,-5.878429E-3,-6.05911E-4,-3.2914087E-2,-9.466613E-3,-6.7056897E-3,-2.382855E-2,-3.8612247E-3,-1.3664653E-2,1.5010071E-2,2.2560002E-3,-1.1071643E-2,-8.389122E-4,-2.0086368E-4,1.0347201E-2,1.763804E-2,8.1762755E-3,1.6278801E-2,2.1985551E-2],"split_indices":[0,3,3,0,11,0,2,2,7,0,0,2,4,0,0,0,3,0,3,4,0,0,0,0,0,0,10,0,0,0,2,0,0,0,0,3,3,2,0,2,6,4,0,0,0,0,0,0,0,0,0,0,0,0,0,0,0,0,0,0,0,0,0,0,0,0,0,0,0],"split_type":[0,0,0,0,0,0,0,0,0,0,0,0,0,0,0,0,0,0,0,0,0,0,0,0,0,0,0,0,0,0,0,0,0,0,0,0,0,0,0,0,0,0,0,0,0,0,0,0,0,0,0,0,0,0,0,0,0,0,0,0,0,0,0,0,0,0,0,0,0],"sum_hessian":[1.065E3,4.64E2,6.01E2,2.06E2,2.58E2,2.94E2,3.07E2,1.82E2,2.4E1,2.28E2,3E1,4.6E1,2.48E2,9E0,2.98E2,1.9E1,1.63E2,1.3E1,1.1E1,1.94E2,3.4E1,3E0,4.3E1,2.13E2,3.5E1,7.6E1,2.22E2,1.1E2,5.3E1,4E0,9E0,3E0,8E0,7.1E1,1.23E2,2.3E1,1.1E1,3E1,1.3E1,2.5E1,5.1E1,8.5E1,1.37E2,9.4E1,1.6E1,3.4E1,1.9E1,2E0,2E0,5E0,4E0,2E0,1E0,7E1,1E0,1E0,2.2E1,1E0,1E1,2.9E1,1E0,8E0,1.7E1,1.1E1,4E1,2.5E1,6E1,4.6E1,9.1E1],"tree_param":{"num_deleted":"0","num_feature":"14","num_nodes":"69","size_leaf_vector":"1"}},{"base_weights":[-9.6568954E-4,-5.9242195E-1,4.1239908E-1,-4.0103245E-1,-7.021139E-1,5.825651E-1,2.3984341E-1,-4.1982463E-1,-1.7104243E-1,-6.543048E-1,-5.2534666E-2,2.9265577E-1,6.332082E-1,-8.640365E-2,2.917369E-1,-5.172957E-1,-1.95043E-2,-1.1036578E-2,-3.74557E-2,-6.936296E-1,-4.7137046E-1,9.2807405E-2,3.4151927E-1,3.2529697E-2,2.4205707E-2,-1.4967729E-1,7.5993285E-2,3.3397812E-1,1.3691834E-1,-2.6273055E-2,-6.6042366E-3,6.755114E-4,-2.678737E-3,-6.158436E-1,-3.7030585E-2,-1.7715186E-2,-2.8010854E-2,-9.152889E-4,1.19533196E-1,3.4888646E-1,1.5391648E-3,-2.5645036E-1,-7.279094E-2,1.2996864E-1,-8.639415E-3,4.3942347E-1,2.8257906E-1,-3.3174787E-2,1.5643191E-1,-3.5251975E-2,-2.7069215E-2,3.047359E-3,6.933417E-3,1.3924087E-2,2.0973785E-2,-1.6012592E-2,-6.431997E-3,-5.348478E-3,2.9824974E-4,2.0793225E-3,1.0397712E-2,7.686353E-4,-3.2175004E-3,1.0191236E-2,2.2744324E-2,7.31159E-3,1.5903099E-2,-6.701523E-3,3.7987293E-3,8.623385E-3,3.431388E-3],"categories":[],"categories_nodes":[],"categories_segments":[],"categories_sizes":[],"default_left":[0,0,0,0,0,0,0,0,0,0,0,0,0,0,0,0,0,0,0,0,0,0,0,0,0,0,0,0,0,0,0,0,0,0,0,0,0,0,0,0,0,0,0,0,0,0,0,0,0,0,0,0,0,0,0,0,0,0,0,0,0,0,0,0,0,0,0,0,0,0,0],"id":13,"left_children":[1,3,5,7,9,11,13,15,17,19,-1,21,23,25,27,29,-1,-1,31,33,35,37,39,-1,-1,41,43,45,47,-1,-1,-1,-1,49,-1,-1,-1,-1,51,53,-1,55,57,59,61,63,65,67,69,-1,-1,-1,-1,-1,-1,-1,-1,-1,-1,-1,-1,-1,-1,-1,-1,-1,-1,-1,-1,-1,-1],"loss_changes":[2.6209006E2,8.97673E0,1.8388397E1,6.326771E-1,3.9621277E0,4.468849E0,5.3581886E0,2.3300934E-1,8.466166E-2,1.4571152E0,0E0,4.4680357E-1,3.8230896E-1,4.634941E-1,1.7330761E0,3.1247139E-2,0E0,0E0,4.8314156E-3,2.8212738E-1,2.903595E-1,3.4853607E-2,7.85408E-2,0E0,0E0,2.4403322E-1,6.05079E-2,1.0302429E0,2.0433724E-1,0E0,0E0,0E0,0E0,1.6290283E-1,0E0,0E0,0E0,0E0,1.63804E-3,7.203674E-2,0E0,6.481129E-2,5.4473475E-2,4.649222E-2,9.015611E-3,1.5501118E-1,6.598358E-1,8.724124E-2,6.419623E-2,0E0,0E0,0E0,0E0,0E0,0E0,0E0,0E0,0E0,0E0,0E0,0E0,0E0,0E0,0E0,0E0,0E0,0E0,0E0,0E0,0E0,0E0],"parents":[2147483647,0,0,1,1,2,2,3,3,4,4,5,5,6,6,7,7,8,8,9,9,11,11,12,12,13,13,14,14,15,15,18,18,19,19,20,20,21,21,22,22,25,25,26,26,27,27,28,28,33,33,38,38,39,39,41,41,42,42,43,43,44,44,45,45,46,46,47,47,48,48],"right_children":[2,4,6,8,10,12,14,16,18,20,-1,22,24,26,28,30,-1,-1,32,34,36,38,40,-1,-1,42,44,46,48,-1,-1,-1,-1,50,-1,-1,-1,-1,52,54,-1,56,58,60,62,64,66,68,70,-1,-1,-1,-1,-1,-1,-1,-1,-1,-1,-1,-1,-1,-1,-1,-1,-1,-1,-1,-1,-1,-1],"split_conditions":[-5.5263484E-1,-2.2631527E-1,-3.422174E-1,-8.1577003E-1,8.1348264E-1,1.1417794E-1,-2.1750964E-1,-1.0769323E0,-7.541126E-1,-8.9154E-1,-5.2534666E-2,-4.053531E-1,4.4326697E-2,-1.0685564E0,1.5356299E0,2.0831741E-1,-1.95043E-2,-1.1036578E-2,-1.160207E0,-5.7428795E-1,-5.7428795E-1,-2.6852888E-1,2.0948751E-1,3.2529697E-2,2.4205707E-2,-4.5495778E-1,-2.7782732E-1,-1.619252E-1,-2.3830509E-1,-2.6273055E-2,-6.6042366E-3,6.755114E-4,-2.678737E-3,-9.513022E-2,-3.7030585E-2,-1.7715186E-2,-2.8010854E-2,-9.152889E-4,-5.6168544E-1,-2.3830509E-1,1.5391648E-3,-2.2517921E-1,-2.615783E-1,8.153499E-1,-2.3284726E-1,-1.6196184E-1,1.6059946E-1,3.8171607E-1,2.1153723E-1,-3.5251975E-2,-2.7069215E-2,3.047359E-3,6.933417E-3,1.3924087E-2,2.0973785E-2,-1.6012592E-2,-6.431997E-3,-5.348478E-3,2.9824974E-4,2.0793225E-3,1.0397712E-2,7.686353E-4,-3.2175004E-3,1.0191236E-2,2.2744324E-2,7.31159E-3,1.5903099E-2,-6.701523E-3,3.7987293E-3,8.623385E-3,3.431388E-3],"split_indices":[1,3,3,1,11,1,0,0,0,1,0,1,4,6,4,2,0,0,6,4,4,2,0,0,0,13,3,3,1,0,0,0,0,2,0,0,0,0,0,1,0,2,0,6,0,0,0,2,3,0,0,0,0,0,0,0,0,0,0,0,0,0,0,0,0,0,0,0,0,0,0],"split_type":[0,0,0,0,0,0,0,0,0,0,0,0,0,0,0,0,0,0,0,0,0,0,0,0,0,0,0,0,0,0,0,0,0,0,0,0,0,0,0,0,0,0,0,0,0,0,0,0,0,0,0,0,0,0,0,0,0,0,0,0,0,0,0,0,0,0,0,0,0,0,0],"sum_hessian":[1.07E3,4.4E2,6.3E2,1.62E2,2.78E2,3.16E2,3.14E2,1.49E2,1.3E1,2.47E2,3.1E1,4.8E1,2.68E2,4.3E1,2.71E2,3.1E1,1.18E2,9E0,4E0,2.01E2,4.6E1,1E1,3.8E1,2.37E2,3.1E1,3.1E1,1.2E1,2.12E2,5.9E1,3E1,1E0,1E0,3E0,8.1E1,1.2E2,2.2E1,2.4E1,2E0,8E0,3.7E1,1E0,1.2E1,1.9E1,7E0,5E0,6.7E1,1.45E2,6E0,5.3E1,3.3E1,4.8E1,3E0,5E0,2.1E1,1.6E1,7E0,5E0,1.3E1,6E0,4E0,3E0,4E0,1E0,5E0,6.2E1,3.1E1,1.14E2,3E0,3E0,4.4E1,9E0],"tree_param":{"num_deleted":"0","num_feature":"14","num_nodes":"71","size_leaf_vector":"1"}},{"base_weights":[-1.6877926E-3,-5.4182994E-1,3.7892875E-1,-4.5435277E-1,-7.8723115E-1,5.5604386E-1,2.0839882E-1,-3.4553736E-1,-5.396163E-1,-5.1802423E-2,-3.4507588E-2,3.038201E-1,6.0196966E-1,2.327584E-1,-2.8379416E-2,-3.7124756E-1,3.7465529E-3,-6.089586E-1,-4.09566E-1,2.0418066E-1,3.6011904E-1,3.0596226E-2,2.002847E-2,-1.06766865E-1,2.7775723E-1,-1.9466529E-2,-1.4191306E-2,-1.9014299E-2,4.833162E-2,-3.5654314E-2,-2.794835E-2,-3.158675E-1,-5.051653E-1,2.3306648E-3,1.0954926E-2,2.0350387E-2,1.479123E-1,1.5855227E-2,-3.3436573E-1,3.1510934E-1,1.1974658E-1,-2.5621296E-3,1.3444822E-5,3.6506057E-3,-6.427467E-4,-1.7781876E-2,-8.84509E-3,-2.8782487E-2,-1.8164536E-2,4.003229E-3,1.0584387E-2,6.2703597E-3,-2.6802854E-3,-1.942104E-2,-1.2354375E-3,2.0142661E-2,1.3269657E-2,7.178644E-3,1.2195061E-3],"categories":[],"categories_nodes":[],"categories_segments":[],"categories_sizes":[],"default_left":[0,0,0,0,0,0,0,0,0,0,0,0,0,0,0,0,0,0,0,0,0,0,0,0,0,0,0,0,0,0,0,0,0,0,0,0,0,0,0,0,0,0,0,0,0,0,0,0,0,0,0,0,0,0,0,0,0,0,0],"id":14,"left_children":[1,3,5,7,9,11,13,15,17,-1,-1,19,21,23,-1,25,27,29,31,33,35,-1,-1,37,39,-1,-1,41,43,-1,-1,45,47,-1,-1,-1,49,51,53,55,57,-1,-1,-1,-1,-1,-1,-1,-1,-1,-1,-1,-1,-1,-1,-1,-1,-1,-1],"loss_changes":[2.1833318E2,9.06633E0,1.8700851E1,2.8381577E0,2.038643E0,3.3500977E0,6.1620827E0,1.3124943E0,1.3828506E0,0E0,0E0,2.013402E-1,2.7014923E-1,4.7659073E0,0E0,1.04494095E-1,1.2081726E-2,2.0524597E-1,4.3163013E-1,3.6798537E-2,2.3830175E-1,0E0,0E0,1.0379215E0,1.579422E0,0E0,0E0,4.985494E-3,6.979023E-3,0E0,0E0,1.3604736E-1,1.00871086E-1,0E0,0E0,0E0,1.33404285E-2,1.9696209E-1,2.0800316E-1,8.5715294E-1,1.19185865E-1,0E0,0E0,0E0,0E0,0E0,0E0,0E0,0E0,0E0,0E0,0E0,0E0,0E0,0E0,0E0,0E0,0E0,0E0],"parents":[2147483647,0,0,1,1,2,2,3,3,4,4,5,5,6,6,7,7,8,8,11,11,12,12,13,13,15,15,16,16,17,17,18,18,19,19,20,20,23,23,24,24,27,27,28,28,31,31,32,32,36,36,37,37,38,38,39,39,40,40],"right_children":[2,4,6,8,10,12,14,16,18,-1,-1,20,22,24,-1,26,28,30,32,34,36,-1,-1,38,40,-1,-1,42,44,-1,-1,46,48,-1,-1,-1,50,52,54,56,58,-1,-1,-1,-1,-1,-1,-1,-1,-1,-1,-1,-1,-1,-1,-1,-1,-1,-1],"split_conditions":[-4.999058E-1,4.3599915E-2,-3.422174E-1,-2.7782732E-1,-5.965846E-1,2.2492716E-1,1.3461428E0,-7.83933E-1,-8.830288E-1,-5.1802423E-2,-3.4507588E-2,-3.0489185E-1,1.7688699E-1,-2.1750964E-1,-2.8379416E-2,-9.548138E-1,-5.6168544E-1,-1.1377054E0,-5.7428795E-1,-5.178056E-2,-5.577179E-1,3.0596226E-2,2.002847E-2,1.728947E0,1.5356299E0,-1.9466529E-2,-1.4191306E-2,-6.9331086E-1,-8.453781E-1,-3.5654314E-2,-2.794835E-2,-6.398787E-1,-6.9331086E-1,2.3306648E-3,1.0954926E-2,2.0350387E-2,1.7344704E0,-2.520713E-1,-2.448214E-1,-1.2329116E-1,2.1153723E-1,-2.5621296E-3,1.3444822E-5,3.6506057E-3,-6.427467E-4,-1.7781876E-2,-8.84509E-3,-2.8782487E-2,-1.8164536E-2,4.003229E-3,1.0584387E-2,6.2703597E-3,-2.6802854E-3,-1.942104E-2,-1.2354375E-3,2.0142661E-2,1.3269657E-2,7.178644E-3,1.2195061E-3],"split_indices":[0,11,3,3,5,0,5,0,0,0,0,0,4,0,0,0,0,6,4,2,4,0,0,4,4,0,0,0,5,0,0,0,0,0,0,0,4,3,0,3,3,0,0,0,0,0,0,0,0,0,0,0,0,0,0,0,0,0,0],"split_type":[0,0,0,0,0,0,0,0,0,0,0,0,0,0,0,0,0,0,0,0,0,0,0,0,0,0,0,0,0,0,0,0,0,0,0,0,0,0,0,0,0,0,0,0,0,0,0,0,0,0,0,0,0,0,0,0,0,0,0],"sum_hessian":[1.06E3,4.38E2,6.22E2,3.25E2,1.13E2,3.04E2,3.18E2,1.45E2,1.8E2,2.9E1,8.4E1,4.8E1,2.56E2,3.09E2,9E0,1.35E2,1E1,1.15E2,6.5E1,1.9E1,2.9E1,2.42E2,1.4E1,3.6E1,2.73E2,1.09E2,2.6E1,7E0,3E0,3.3E1,8.2E1,3.5E1,3E1,2E0,1.7E1,2.3E1,6E0,2.4E1,1.2E1,2.2E2,5.3E1,2E0,5E0,2E0,1E0,2.6E1,9E0,1.8E1,1.2E1,4E0,2E0,9E0,1.5E1,1E1,2E0,7.7E1,1.43E2,4.2E1,1.1E1],"tree_param":{"num_deleted":"0","num_feature":"14","num_nodes":"59","size_leaf_vector":"1"}},{"base_weights":[-8.506259E-3,-5.3561544E-1,3.6308986E-1,-3.9790323E-1,-6.727709E-1,5.1562905E-1,2.179272E-1,-3.7026152E-1,-3.0583574E-2,-6.2097245E-1,-4.788409E-2,2.2341122E-1,5.6273574E-1,-1.1863125E-2,2.8155243E-1,-3.8815317E-1,-1.6779317E-1,-6.52845E-1,-4.505187E-1,1.1918948E-1,2.9785216E-1,2.923873E-2,4.3689185E-1,-1.4710842E-1,9.068485E-2,1.894974E-1,3.395002E-1,-3.5344386E-1,-4.7840965E-1,-3.730293E-2,-1.0755613E-2,-3.3368338E-2,-2.108804E-2,-5.2381164E-1,-1.4873356E-2,2.5716713E-2,1.5741232E-1,1.5168239E-2,4.138744E-3,1.4006019E-3,2.2298006E-2,-8.36839E-2,-1.0907324E-2,-1.1345343E-1,1.1582017E-1,1.7220913E-2,1.3041145E-1,3.9617535E-1,2.9130006E-1,-1.8494241E-2,-1.4545974E-2,-2.4984075E-2,-1.54795125E-2,-3.777544E-4,-2.514404E-3,-1.1183405E-2,-2.7181685E-2,-6.823659E-4,2.9325783E-3,8.510814E-3,2.686286E-3,5.2962303E-5,-5.398595E-3,-8.17488E-3,-1.2795727E-3,-8.339728E-4,7.100166E-3,7.4425945E-3,2.9912873E-3,2.37E-2,1.714764E-2,1.606857E-2,9.39226E-3],"categories":[],"categories_nodes":[],"categories_segments":[],"categories_sizes":[],"default_left":[0,0,0,0,0,0,0,0,0,0,0,0,0,0,0,0,0,0,0,0,0,0,0,0,0,0,0,0,0,0,0,0,0,0,0,0,0,0,0,0,0,0,0,0,0,0,0,0,0,0,0,0,0,0,0,0,0,0,0,0,0,0,0,0,0,0,0,0,0,0,0,0,0],"id":15,"left_children":[1,3,5,7,9,11,13,15,-1,17,-1,19,21,23,25,27,29,31,33,35,37,-1,39,41,43,45,47,49,51,53,-1,-1,-1,55,-1,57,59,-1,-1,-1,-1,61,-1,63,65,-1,67,69,71,-1,-1,-1,-1,-1,-1,-1,-1,-1,-1,-1,-1,-1,-1,-1,-1,-1,-1,-1,-1,-1,-1,-1,-1],"loss_changes":[2.093855E2,8.080795E0,1.3771286E1,1.0912132E0,2.6520615E0,4.072731E0,4.725752E0,6.593666E-1,0E0,7.326813E-1,0E0,3.058672E-1,4.711609E-1,9.980488E-1,1.285265E0,4.042015E-1,1.0311997E-1,2.4537659E-1,2.1436405E-1,6.740776E-2,4.529953E-3,0E0,1.46945E-1,1.2141681E-1,2.235145E-1,8.704481E-1,3.052826E-1,3.2196045E-2,1.7677307E-2,1.9377498E-3,0E0,0E0,0E0,3.3450127E-3,0E0,9.875577E-3,9.441376E-3,0E0,0E0,0E0,0E0,3.716269E-2,0E0,1.7800763E-2,1.3073093E-1,0E0,8.7415576E-2,1.1909866E-1,2.1029139E-1,0E0,0E0,0E0,0E0,0E0,0E0,0E0,0E0,0E0,0E0,0E0,0E0,0E0,0E0,0E0,0E0,0E0,0E0,0E0,0E0,0E0,0E0,0E0,0E0],"parents":[2147483647,0,0,1,1,2,2,3,3,4,4,5,5,6,6,7,7,9,9,11,11,12,12,13,13,14,14,15,15,16,16,17,17,18,18,19,19,20,20,22,22,23,23,24,24,25,25,26,26,27,27,28,28,29,29,33,33,35,35,36,36,41,41,43,43,44,44,46,46,47,47,48,48],"right_children":[2,4,6,8,10,12,14,16,-1,18,-1,20,22,24,26,28,30,32,34,36,38,-1,40,42,44,46,48,50,52,54,-1,-1,-1,56,-1,58,60,-1,-1,-1,-1,62,-1,64,66,-1,68,70,72,-1,-1,-1,-1,-1,-1,-1,-1,-1,-1,-1,-1,-1,-1,-1,-1,-1,-1,-1,-1,-1,-1,-1,-1],"split_conditions":[-5.5263484E-1,-1.3616917E-1,-3.422174E-1,-2.3184057E-1,8.1348264E-1,-1.4517175E-1,-1.3025476E-1,-8.1577003E-1,-3.0583574E-2,-8.9154E-1,-4.788409E-2,4.6841538E-1,-5.577179E-1,-7.7929235E-1,-9.827518E-1,-2.7782732E-1,5.016055E-1,2.5166708E-1,-7.081813E-1,-4.9907586E-1,-3.6797342E-1,2.923873E-2,2.6508471E-2,-7.166355E-2,-5.178056E-2,-5.7428795E-1,-1.619252E-1,-9.603019E-1,-8.947018E-1,-1.160207E0,-1.0755613E-2,-3.3368338E-2,-2.108804E-2,4.412303E-2,-1.4873356E-2,-2.6852888E-1,-3.8085145E-1,1.5168239E-2,4.138744E-3,1.4006019E-3,2.2298006E-2,-1.4904718E-1,-1.0907324E-2,-3.1646138E-1,-3.7412068E-1,1.7220913E-2,2.5017127E-1,7.4026823E-1,1.7688699E-1,-1.8494241E-2,-1.4545974E-2,-2.4984075E-2,-1.54795125E-2,-3.777544E-4,-2.514404E-3,-1.1183405E-2,-2.7181685E-2,-6.823659E-4,2.9325783E-3,8.510814E-3,2.686286E-3,5.2962303E-5,-5.398595E-3,-8.17488E-3,-1.2795727E-3,-8.339728E-4,7.100166E-3,7.4425945E-3,2.9912873E-3,2.37E-2,1.714764E-2,1.606857E-2,9.39226E-3],"split_indices":[1,3,3,4,11,1,1,1,0,1,0,2,4,5,10,3,5,2,13,1,3,0,1,4,2,4,3,1,1,6,0,0,0,3,0,2,3,0,0,0,0,3,0,3,1,0,3,4,4,0,0,0,0,0,0,0,0,0,0,0,0,0,0,0,0,0,0,0,0,0,0,0,0],"split_type":[0,0,0,0,0,0,0,0,0,0,0,0,0,0,0,0,0,0,0,0,0,0,0,0,0,0,0,0,0,0,0,0,0,0,0,0,0,0,0,0,0,0,0,0,0,0,0,0,0,0,0,0,0,0,0,0,0,0,0,0,0,0,0,0,0,0,0,0,0,0,0,0,0],"sum_hessian":[1.067E3,4.41E2,6.26E2,2.22E2,2.19E2,3.04E2,3.22E2,1.99E2,2.3E1,1.88E2,3.1E1,4.3E1,2.61E2,7E1,2.52E2,1.82E2,1.7E1,1.56E2,3.2E1,1.9E1,2.4E1,2.19E2,4.2E1,3E1,4E1,9.9E1,1.53E2,1.35E2,4.7E1,5E0,1.2E1,1.45E2,1.1E1,2E1,1.2E1,6E0,1.3E1,2.3E1,1E0,1E0,4.1E1,1.7E1,1.3E1,4E0,3.6E1,2.6E1,7.3E1,6.7E1,8.6E1,1.03E2,3.2E1,4E1,7E0,2E0,3E0,2E0,1.8E1,3E0,3E0,1.1E1,2E0,4E0,1.3E1,2E0,2E0,6E0,3E1,5.7E1,1.6E1,2.4E1,4.3E1,6.5E1,2.1E1],"tree_param":{"num_deleted":"0","num_feature":"14","num_nodes":"73","size_leaf_vector":"1"}},{"base_weights":[-6.622071E-3,-4.9528086E-1,3.637323E-1,-4.2249456E-1,-7.131214E-1,1.7215812E-1,4.3978474E-1,-5.108584E-1,-3.02829E-1,-4.6021286E-2,-6.198602E-1,-5.504136E-2,2.2812809E-1,5.387887E-1,3.0006218E-1,-3.1141821E-2,-4.3222716E-1,-3.277475E-1,-7.520977E-2,-3.1159926E-2,-8.819806E-3,-1.519207E-1,6.94979E-2,2.7373865E-1,1.2342938E-1,1.6670424E-2,2.8051985E-2,6.7639323E-3,3.60207E-1,-4.5967317E-1,-1.4884208E-2,-1.6889628E-2,-2.0826699E-1,-1.2776738E-1,-6.6812336E-3,-3.6564898E-2,-2.4297863E-1,-1.8929686E-2,1.2444742E-1,2.195498E-1,3.6190924E-1,-4.8418947E-2,1.9705671E-1,1.4061704E-2,3.7429088E-1,-2.151942E-2,-2.7545E-2,-1.3087818E-2,-1.1238396E-3,-8.134544E-3,-1.8450418E-4,-1.2976805E-3,1.7045299E-3,-3.569557E-3,6.269789E-4,-1.5260798E-2,-7.0122443E-3,-2.0549034E-3,1.2163759E-3,6.910899E-3,2.3121715E-3,6.5027634E-3,1.4712772E-2,1.92339E-2,9.387372E-3,-9.75132E-5,-8.205155E-3,6.58399E-3,1.2505879E-2,1.1673711E-2,1.9083291E-2],"categories":[],"categories_nodes":[],"categories_segments":[],"categories_sizes":[],"default_left":[0,0,0,0,0,0,0,0,0,0,0,0,0,0,0,0,0,0,0,0,0,0,0,0,0,0,0,0,0,0,0,0,0,0,0,0,0,0,0,0,0,0,0,0,0,0,0,0,0,0,0,0,0,0,0,0,0,0,0,0,0,0,0,0,0,0,0,0,0,0,0],"id":16,"left_children":[1,3,5,7,9,11,13,15,17,-1,19,21,23,25,27,-1,29,31,33,-1,-1,35,37,39,41,-1,-1,-1,43,45,-1,-1,47,49,51,53,55,57,59,61,63,65,67,-1,69,-1,-1,-1,-1,-1,-1,-1,-1,-1,-1,-1,-1,-1,-1,-1,-1,-1,-1,-1,-1,-1,-1,-1,-1,-1,-1],"loss_changes":[1.9183472E2,6.944809E0,8.709801E0,3.4933662E0,1.6141472E0,2.2124844E0,5.800392E0,1.4653702E0,8.20467E-1,0E0,9.98497E-3,4.32843E-1,6.2998915E-1,9.5999146E-1,1.7451401E0,0E0,3.0258942E-1,9.047413E-2,5.6773476E-2,0E0,0E0,2.0119673E-1,8.0100596E-2,3.792181E-1,5.6626165E-1,0E0,0E0,0E0,4.1553497E-2,2.2037506E-2,0E0,0E0,1.23308E-1,3.839858E-2,7.170935E-3,1.799646E-2,2.752769E-2,7.7124108E-3,4.3774545E-3,3.7624693E-1,6.65679E-2,7.493961E-2,7.460213E-2,0E0,2.4087906E-2,0E0,0E0,0E0,0E0,0E0,0E0,0E0,0E0,0E0,0E0,0E0,0E0,0E0,0E0,0E0,0E0,0E0,0E0,0E0,0E0,0E0,0E0,0E0,0E0,0E0,0E0],"parents":[2147483647,0,0,1,1,2,2,3,3,4,4,5,5,6,6,7,7,8,8,10,10,11,11,12,12,13,13,14,14,16,16,17,17,18,18,21,21,22,22,23,23,24,24,28,28,29,29,32,32,33,33,34,34,35,35,36,36,37,37,38,38,39,39,40,40,41,41,42,42,44,44],"right_children":[2,4,6,8,10,12,14,16,18,-1,20,22,24,26,28,-1,30,32,34,-1,-1,36,38,40,42,-1,-1,-1,44,46,-1,-1,48,50,52,54,56,58,60,62,64,66,68,-1,70,-1,-1,-1,-1,-1,-1,-1,-1,-1,-1,-1,-1,-1,-1,-1,-1,-1,-1,-1,-1,-1,-1,-1,-1,-1,-1],"split_conditions":[-4.791658E-1,4.3599915E-2,4.9552608E-1,-7.081813E-1,-5.7617575E-1,-5.178056E-2,-3.2573745E-1,-9.513022E-2,-2.4882494E-1,-4.6021286E-2,-7.078994E-1,-1.3025476E-1,-2.373639E-1,-2.6852888E-1,-5.178056E-2,-3.1141821E-2,-9.2824054E-1,-6.0014784E-1,2.7626032E-1,-3.1159926E-2,-8.819806E-3,-8.823359E-2,-1.5085487E-2,-1.03909135E-1,-1.6196184E-1,1.6670424E-2,2.8051985E-2,6.7639323E-3,7.932012E-1,-5.577179E-1,-1.4884208E-2,-1.6889628E-2,-2.2517921E-1,-5.7428795E-1,-8.430895E-3,-2.6852888E-1,-3.602133E-1,1.1417794E-1,5.1028556E-1,1.2161809E-1,-5.687646E-1,1.728947E0,6.399601E-2,1.4061704E-2,-9.455415E-1,-2.151942E-2,-2.7545E-2,-1.3087818E-2,-1.1238396E-3,-8.134544E-3,-1.8450418E-4,-1.2976805E-3,1.7045299E-3,-3.569557E-3,6.269789E-4,-1.5260798E-2,-7.0122443E-3,-2.0549034E-3,1.2163759E-3,6.910899E-3,2.3121715E-3,6.5027634E-3,1.4712772E-2,1.92339E-2,9.387372E-3,-9.75132E-5,-8.205155E-3,6.58399E-3,1.2505879E-2,1.1673711E-2,1.9083291E-2],"split_indices":[1,11,1,13,5,2,4,2,13,0,0,1,4,2,2,0,1,0,13,0,0,4,13,1,0,0,0,0,1,4,0,0,2,4,2,2,1,1,0,2,4,4,0,0,10,0,0,0,0,0,0,0,0,0,0,0,0,0,0,0,0,0,0,0,0,0,0,0,0,0,0],"split_type":[0,0,0,0,0,0,0,0,0,0,0,0,0,0,0,0,0,0,0,0,0,0,0,0,0,0,0,0,0,0,0,0,0,0,0,0,0,0,0,0,0,0,0,0,0,0,0,0,0,0,0,0,0,0,0,0,0,0,0,0,0,0,0,0,0,0,0,0,0,0,0],"sum_hessian":[1.058E3,4.56E2,6.02E2,3.44E2,1.12E2,1.72E2,4.3E2,1.96E2,1.48E2,3.2E1,8E1,3.4E1,1.38E2,2.5E2,1.8E2,7.8E1,1.18E2,1.33E2,1.5E1,7.9E1,1E0,1.9E1,1.5E1,9.5E1,4.3E1,2.6E1,2.24E2,4.9E1,1.31E2,9.6E1,2.2E1,1.21E2,1.2E1,8E0,7E0,9E0,1E1,6E0,9E0,6.1E1,3.4E1,1.3E1,3E1,2.3E1,1.08E2,7.7E1,1.9E1,9E0,3E0,6E0,2E0,5E0,2E0,5E0,4E0,5E0,5E0,4E0,2E0,7E0,2E0,2.9E1,3.2E1,2.9E1,5E0,1E1,3E0,1.5E1,1.5E1,7E0,1.01E2],"tree_param":{"num_deleted":"0","num_feature":"14","num_nodes":"71","size_leaf_vector":"1"}},{"base_weights":[-3.400815E-3,-4.6961457E-1,3.402103E-1,-3.4206754E-1,-5.8912456E-1,4.7492465E-1,2.0656782E-1,-3.6300084E-1,-4.9863577E-2,-5.454546E-1,-8.664423E-1,2.675254E-1,5.153554E-1,-6.89154E-2,2.4063043E-1,-3.2291356E-1,-4.3367964E-1,-1.4989114E-1,9.229964E-3,-5.773255E-1,-2.9416612E-1,-4.4482302E-2,-1.8053E-2,1.8216263E-1,3.1115356E-1,5.295185E-1,2.0560054E-2,-1.1872963E-1,5.0563812E-2,1.4357832E-1,2.7275637E-1,-2.6666457E-2,-3.1081122E-1,-2.41027E-2,-1.4662203E-2,-8.105166E-3,-2.220756E-3,-3.445908E-2,6.8548635E-2,-5.918944E-1,-1.9550053E-2,-1.567114E-2,-7.72275E-3,1.7345309E-3,9.404925E-3,1.7261272E-2,1.002926E-1,2.735248E-2,2.301776E-2,-1.6104993E-1,-5.0226513E-2,1.4106607E-1,-2.1304062E-2,1.9378329E-2,1.737436E-1,3.5855526E-1,2.1360387E-1,-1.5864154E-2,-4.213135E-3,-2.0143152E-3,1.2606382E-5,6.251216E-4,3.971729E-3,-2.6706431E-2,-3.1543653E-2,5.4507735E-3,1.4169574E-3,-1.2196343E-2,-3.9347834E-3,1.9728327E-3,-5.355535E-3,8.963674E-3,-2.9408932E-4,8.154005E-4,-2.679506E-3,-4.052796E-3,3.8850524E-3,9.355544E-3,4.083072E-3,5.332283E-3,1.8172933E-2,8.88846E-3,1.2871392E-2],"categories":[],"categories_nodes":[],"categories_segments":[],"categories_sizes":[],"default_left":[0,0,0,0,0,0,0,0,0,0,0,0,0,0,0,0,0,0,0,0,0,0,0,0,0,0,0,0,0,0,0,0,0,0,0,0,0,0,0,0,0,0,0,0,0,0,0,0,0,0,0,0,0,0,0,0,0,0,0,0,0,0,0,0,0,0,0,0,0,0,0,0,0,0,0,0,0,0,0,0,0,0,0],"id":17,"left_children":[1,3,5,7,9,11,13,15,17,19,21,23,25,27,29,31,33,35,37,39,41,-1,-1,43,45,47,-1,49,51,53,55,-1,57,-1,-1,-1,-1,59,61,63,-1,-1,-1,-1,-1,-1,65,-1,-1,67,69,71,73,75,77,79,81,-1,-1,-1,-1,-1,-1,-1,-1,-1,-1,-1,-1,-1,-1,-1,-1,-1,-1,-1,-1,-1,-1,-1,-1,-1,-1],"loss_changes":[1.7140953E2,6.7188644E0,1.0992096E1,1.3398266E0,2.3491287E0,2.428032E0,2.9349089E0,4.464569E-1,9.595922E-2,1.4639626E0,3.0586243E-2,1.369791E-1,1.5842438E-1,2.1431519E-1,8.244934E-1,1.8056202E-1,3.4777164E-1,5.28723E-4,3.0869458E-2,2.5718307E-1,1.8849611E-2,0E0,0E0,1.0982215E-2,2.0246243E-1,1.612854E-2,0E0,6.438783E-2,7.455154E-2,2.6263666E-1,9.7398186E-1,0E0,1.6533756E-1,0E0,0E0,0E0,0E0,1.4260476E-3,2.0574518E-3,3.4553528E-2,0E0,0E0,0E0,0E0,0E0,0E0,6.7643076E-4,0E0,0E0,8.318305E-2,6.0343325E-2,2.9126935E-2,9.374367E-3,9.41621E-2,5.4880857E-2,6.376076E-2,1.5053988E-1,0E0,0E0,0E0,0E0,0E0,0E0,0E0,0E0,0E0,0E0,0E0,0E0,0E0,0E0,0E0,0E0,0E0,0E0,0E0,0E0,0E0,0E0,0E0,0E0,0E0,0E0],"parents":[2147483647,0,0,1,1,2,2,3,3,4,4,5,5,6,6,7,7,8,8,9,9,10,10,11,11,12,12,13,13,14,14,15,15,16,16,17,17,18,18,19,19,20,20,23,23,24,24,25,25,27,27,28,28,29,29,30,30,32,32,37,37,38,38,39,39,46,46,49,49,50,50,51,51,52,52,53,53,54,54,55,55,56,56],"right_children":[2,4,6,8,10,12,14,16,18,20,22,24,26,28,30,32,34,36,38,40,42,-1,-1,44,46,48,-1,50,52,54,56,-1,58,-1,-1,-1,-1,60,62,64,-1,-1,-1,-1,-1,-1,66,-1,-1,68,70,72,74,76,78,80,82,-1,-1,-1,-1,-1,-1,-1,-1,-1,-1,-1,-1,-1,-1,-1,-1,-1,-1,-1,-1,-1,-1,-1,-1,-1,-1],"split_conditions":[-4.791658E-1,-1.4904718E-1,-3.422174E-1,-2.5713718E-1,8.1348264E-1,1.1417794E-1,-2.1750964E-1,-2.7782732E-1,-7.2667605E-1,-7.4613243E-1,4.6841538E-1,-3.602133E-1,-3.6797342E-1,-1.0649983E0,3.3602753E-1,-1.0573779E0,-9.1040945E-1,-8.387029E-1,-8.430895E-3,2.0831741E-1,-2.806992E-1,-4.4482302E-2,-1.8053E-2,-3.1187853E-1,4.3599915E-2,-1.21350124E-1,2.0560054E-2,-3.6914432E-1,-2.520713E-1,-1.1313255E0,-7.389025E-3,-2.6666457E-2,-8.1577003E-1,-2.41027E-2,-1.4662203E-2,-8.105166E-3,-2.220756E-3,8.1254053E-1,-6.398787E-1,9.5635094E-2,-1.9550053E-2,-1.567114E-2,-7.72275E-3,1.7345309E-3,9.404925E-3,1.7261272E-2,2.0948751E-1,2.735248E-2,2.301776E-2,-2.2517921E-1,-2.0055924E-1,2.5166708E-1,-8.465711E-2,-1.3025476E-1,4.6370336E-1,-1.1469073E0,-5.178056E-2,-1.5864154E-2,-4.213135E-3,-2.0143152E-3,1.2606382E-5,6.251216E-4,3.971729E-3,-2.6706431E-2,-3.1543653E-2,5.4507735E-3,1.4169574E-3,-1.2196343E-2,-3.9347834E-3,1.9728327E-3,-5.355535E-3,8.963674E-3,-2.9408932E-4,8.154005E-4,-2.679506E-3,-4.052796E-3,3.8850524E-3,9.355544E-3,4.083072E-3,5.332283E-3,1.8172933E-2,8.88846E-3,1.2871392E-2],"split_indices":[1,3,3,13,11,1,0,3,0,1,2,1,3,6,0,10,1,0,2,2,13,0,0,2,11,5,0,13,3,6,3,0,1,0,0,0,0,13,0,3,0,0,0,0,0,0,0,0,0,2,3,2,3,1,5,6,2,0,0,0,0,0,0,0,0,0,0,0,0,0,0,0,0,0,0,0,0,0,0,0,0,0,0],"split_type":[0,0,0,0,0,0,0,0,0,0,0,0,0,0,0,0,0,0,0,0,0,0,0,0,0,0,0,0,0,0,0,0,0,0,0,0,0,0,0,0,0,0,0,0,0,0,0,0,0,0,0,0,0,0,0,0,0,0,0,0,0,0,0,0,0,0,0,0,0,0,0,0,0,0,0,0,0,0,0,0,0,0,0],"sum_hessian":[1.068E3,4.53E2,6.15E2,2.21E2,2.32E2,3.05E2,3.1E2,2.06E2,1.5E1,2.03E2,2.9E1,5.1E1,2.54E2,3.4E1,2.76E2,1.35E2,7.1E1,5E0,1E1,1.79E2,2.4E1,2.7E1,2E0,1.9E1,3.2E1,2.2E2,3.4E1,2.4E1,1E1,7E1,2.06E2,5E0,1.3E2,5.1E1,2E1,4E0,1E0,6E0,4E0,1.64E2,1.5E1,2E1,4E0,1E0,1.8E1,2.7E1,5E0,1.7E2,5E1,1.4E1,1E1,4E0,6E0,1.4E1,5.6E1,8.2E1,1.24E2,1.26E2,4E0,5E0,1E0,1E0,3E0,7.2E1,9.2E1,4E0,1E0,6E0,8E0,4E0,6E0,3E0,1E0,3E0,3E0,5E0,9E0,4.8E1,8E0,2E0,8E1,7.1E1,5.3E1],"tree_param":{"num_deleted":"0","num_feature":"14","num_nodes":"83","size_leaf_vector":"1"}},{"base_weights":[-9.3460403E-4,-4.5074558E-1,3.2404995E-1,-3.4148204E-1,-5.561323E-1,4.5538074E-1,1.8999681E-1,-3.108556E-1,-2.6155833E-2,-5.1731694E-1,-4.1368447E-2,2.5958806E-1,4.8862487E-1,1.4305137E-2,2.4553508E-1,-3.278022E-1,2.4155052E-3,-5.38785E-1,-2.5073788E-1,1.6596964E-1,2.9711252E-1,2.4878763E-2,1.6333973E-2,-1.0349915E-1,8.5180536E-2,2.8628382E-1,1.6198708E-1,-4.0257844E-1,-2.947286E-1,-2.6160896E-2,5.896443E-2,-4.7166246E-1,-5.8049357E-1,-7.7954815E-3,-1.5076334E-2,8.626225E-3,1.6911685E-3,3.2102615E-1,1.359969E-1,-2.2850844E-1,-5.3336717E-2,-8.5041605E-2,1.0695152E-1,2.185801E-1,3.2031417E-1,1.3872302E-2,1.1053091E-1,-1.55688E-2,-2.1803334E-2,-1.5319452E-2,-1.01928795E-2,6.094933E-4,-1.6690493E-3,3.9227684E-3,1.2290478E-5,-2.4598395E-2,-1.4320964E-2,-3.1164458E-2,-2.519379E-2,1.1144396E-2,1.7789086E-2,7.6072E-3,1.3815344E-3,-3.9506475E-3,-1.3258572E-2,-4.3900507E-3,8.975461E-4,-6.882146E-3,6.720344E-4,-1.090436E-3,6.035845E-3,1.2061061E-2,7.030647E-3,1.6360536E-2,5.9849857E-3,-2.3683906E-4,5.8511193E-3],"categories":[],"categories_nodes":[],"categories_segments":[],"categories_sizes":[],"default_left":[0,0,0,0,0,0,0,0,0,0,0,0,0,0,0,0,0,0,0,0,0,0,0,0,0,0,0,0,0,0,0,0,0,0,0,0,0,0,0,0,0,0,0,0,0,0,0,0,0,0,0,0,0,0,0,0,0,0,0,0,0,0,0,0,0,0,0,0,0,0,0,0,0,0,0,0,0],"id":18,"left_children":[1,3,5,7,9,11,13,15,-1,17,-1,19,21,23,25,27,29,31,33,35,37,-1,-1,39,41,43,45,47,49,51,53,55,57,-1,-1,-1,-1,59,61,63,65,67,69,71,73,-1,75,-1,-1,-1,-1,-1,-1,-1,-1,-1,-1,-1,-1,-1,-1,-1,-1,-1,-1,-1,-1,-1,-1,-1,-1,-1,-1,-1,-1,-1,-1],"loss_changes":[1.5787604E2,5.0263443E0,1.09520035E1,1.0890236E0,1.9829407E0,1.929985E0,3.040863E0,1.036026E0,0E0,1.0266647E0,0E0,1.1931133E-1,2.2736359E-1,6.433725E-1,7.6048565E-1,3.3887482E-1,1.9318175E-2,2.4972534E-1,3.4864664E-2,8.023858E-3,8.34856E-2,0E0,0E0,1.6966444E-1,1.8697867E-1,2.9401493E-1,4.4461942E-1,2.9146194E-2,7.740688E-2,2.6220777E-3,4.5586396E-3,1.487236E-1,4.989624E-2,0E0,0E0,0E0,0E0,1.6204357E-2,6.2949583E-3,2.2895664E-2,5.5627435E-2,3.29318E-2,7.884729E-2,6.493592E-2,1.0333824E-1,0E0,4.3205023E-2,0E0,0E0,0E0,0E0,0E0,0E0,0E0,0E0,0E0,0E0,0E0,0E0,0E0,0E0,0E0,0E0,0E0,0E0,0E0,0E0,0E0,0E0,0E0,0E0,0E0,0E0,0E0,0E0,0E0,0E0],"parents":[2147483647,0,0,1,1,2,2,3,3,4,4,5,5,6,6,7,7,9,9,11,11,12,12,13,13,14,14,15,15,16,16,17,17,18,18,19,19,20,20,23,23,24,24,25,25,26,26,27,27,28,28,29,29,30,30,31,31,32,32,37,37,38,38,39,39,40,40,41,41,42,42,43,43,44,44,46,46],"right_children":[2,4,6,8,10,12,14,16,-1,18,-1,20,22,24,26,28,30,32,34,36,38,-1,-1,40,42,44,46,48,50,52,54,56,58,-1,-1,-1,-1,60,62,64,66,68,70,72,74,-1,76,-1,-1,-1,-1,-1,-1,-1,-1,-1,-1,-1,-1,-1,-1,-1,-1,-1,-1,-1,-1,-1,-1,-1,-1,-1,-1,-1,-1,-1,-1],"split_conditions":[-4.791658E-1,-1.4904718E-1,-3.422174E-1,-5.577179E-1,8.1348264E-1,1.1417794E-1,-3.3088624E-3,-6.794373E-1,-2.6155833E-2,-6.794373E-1,-4.1368447E-2,-3.7412068E-1,1.7688699E-1,-8.0650413E-1,1.231846E0,-1.0395672E0,8.1254053E-1,-5.7428795E-1,-5.7428795E-1,-3.8085145E-1,-5.577179E-1,2.4878763E-2,1.6333973E-2,-4.5495778E-1,-3.7412068E-1,6.5091246E-1,-2.1343726E-1,-3.6797342E-1,-8.510175E-1,-6.398787E-1,-4.452415E-1,-8.839244E-1,-9.559762E-1,-7.7954815E-3,-1.5076334E-2,8.626225E-3,1.6911685E-3,-3.1202608E-1,2.0948751E-1,-7.166355E-2,-1.3025476E-1,-3.2671008E-1,-1.1450179E0,1.7688699E-1,1.857812E-1,1.3872302E-2,1.9995137E-1,-1.55688E-2,-2.1803334E-2,-1.5319452E-2,-1.01928795E-2,6.094933E-4,-1.6690493E-3,3.9227684E-3,1.2290478E-5,-2.4598395E-2,-1.4320964E-2,-3.1164458E-2,-2.519379E-2,1.1144396E-2,1.7789086E-2,7.6072E-3,1.3815344E-3,-3.9506475E-3,-1.3258572E-2,-4.3900507E-3,8.975461E-4,-6.882146E-3,6.720344E-4,-1.090436E-3,6.035845E-3,1.2061061E-2,7.030647E-3,1.6360536E-2,5.9849857E-3,-2.3683906E-4,5.8511193E-3],"split_indices":[1,3,3,4,11,1,0,1,0,1,0,1,4,5,4,1,13,4,4,3,4,0,0,13,1,1,3,3,1,0,3,1,1,0,0,0,0,1,0,4,1,0,6,4,3,0,1,0,0,0,0,0,0,0,0,0,0,0,0,0,0,0,0,0,0,0,0,0,0,0,0,0,0,0,0,0,0],"split_type":[0,0,0,0,0,0,0,0,0,0,0,0,0,0,0,0,0,0,0,0,0,0,0,0,0,0,0,0,0,0,0,0,0,0,0,0,0,0,0,0,0,0,0,0,0,0,0,0,0,0,0,0,0,0,0,0,0,0,0,0,0,0,0,0,0,0,0,0,0,0,0,0,0,0,0,0,0],"sum_hessian":[1.078E3,4.52E2,6.26E2,2.24E2,2.28E2,3.15E2,3.11E2,1.94E2,3E1,2.02E2,2.6E1,4.7E1,2.68E2,7.5E1,2.36E2,1.84E2,1E1,1.86E2,1.6E1,1.5E1,3.2E1,2.52E2,1.6E1,2.8E1,4.7E1,1.57E2,7.9E1,5.3E1,1.31E2,7E0,3E0,7.6E1,1.1E2,7E0,9E0,1.4E1,1E0,2.7E1,5E0,7E0,2.1E1,5E0,4.2E1,5.5E1,1.02E2,2.3E1,5.6E1,1.7E1,3.6E1,1.14E2,1.7E1,1E0,6E0,2E0,1E0,6.7E1,9E0,6.6E1,4.4E1,9E0,1.8E1,4E0,1E0,2E0,5E0,1.4E1,7E0,3E0,2E0,4E0,3.8E1,4.1E1,1.4E1,9.8E1,4E0,3E0,5.3E1],"tree_param":{"num_deleted":"0","num_feature":"14","num_nodes":"77","size_leaf_vector":"1"}},{"base_weights":[5.491096E-3,-4.2338607E-1,3.1211585E-1,-2.8465492E-1,-5.101299E-1,4.2826444E-1,1.923494E-1,-3.1137493E-1,-1.7999776E-2,-4.763442E-1,-3.8508426E-2,2.4466343E-1,4.6489245E-1,3.602413E-2,2.3929249E-1,-3.0042052E-1,-2.5316253E-2,-9.50313E-2,2.2015968E-2,-5.0746614E-1,-2.9814675E-1,1.8909648E-1,3.1375238E-1,4.783965E-1,1.8455675E-2,-8.690893E-2,1.1006981E-1,3.2126668E-1,1.8393496E-1,-2.7192092E-1,-3.4241262E-1,-2.3772211E-3,-6.3335025E-3,-1.6989088E-2,4.3642133E-2,-2.2591393E-2,-2.7112097E-2,-2.1234475E-1,-2.0410778E-2,1.9746034E-1,1.9818863E-3,1.786704E-2,1.3069515E-1,2.4819963E-2,2.0711908E-2,-9.451191E-3,-2.0575714E-1,1.8865107E-1,8.300138E-2,3.778137E-1,2.7513906E-1,2.4312925E-1,1.030292E-1,-1.4117929E-2,-8.7663615E-3,-1.8737754E-2,-1.311121E-2,-1.2819291E-3,-1.3382832E-4,1.0448397E-4,3.4077836E-3,-1.3165428E-2,-6.971928E-3,2.3138046E-3,1.0314556E-2,1.3469935E-3,7.3029115E-3,-3.205829E-3,2.0346392E-3,-1.2244311E-2,-3.802985E-3,1.1536231E-2,5.7567838E-3,1.0539803E-3,5.300335E-3,1.4074429E-2,2.219151E-2,1.4821231E-2,6.5522566E-3,5.0007496E-3,1.2649106E-2,3.834469E-4,5.646629E-3],"categories":[],"categories_nodes":[],"categories_segments":[],"categories_sizes":[],"default_left":[0,0,0,0,0,0,0,0,0,0,0,0,0,0,0,0,0,0,0,0,0,0,0,0,0,0,0,0,0,0,0,0,0,0,0,0,0,0,0,0,0,0,0,0,0,0,0,0,0,0,0,0,0,0,0,0,0,0,0,0,0,0,0,0,0,0,0,0,0,0,0,0,0,0,0,0,0,0,0,0,0,0,0],"id":19,"left_children":[1,3,5,7,9,11,13,15,17,19,-1,21,23,25,27,29,-1,31,33,35,37,39,41,43,-1,45,47,49,51,53,55,-1,-1,57,59,-1,-1,61,-1,63,-1,-1,65,-1,-1,67,69,71,73,75,77,79,81,-1,-1,-1,-1,-1,-1,-1,-1,-1,-1,-1,-1,-1,-1,-1,-1,-1,-1,-1,-1,-1,-1,-1,-1,-1,-1,-1,-1,-1,-1],"loss_changes":[1.4163084E2,5.258087E0,8.653553E0,1.2412748E0,2.0491714E0,2.024784E0,2.2736177E0,1.8744373E-1,5.449426E-2,1.2129784E0,0E0,1.5181923E-1,1.6487503E-1,6.7406046E-1,1.025465E0,8.999634E-2,0E0,2.992101E-3,1.0863796E-2,1.5744781E-1,2.8163838E-1,3.3424854E-2,1.3681817E-1,5.7724E-2,0E0,2.5581533E-1,8.218694E-2,1.438446E-1,6.6937876E-1,4.7282696E-2,5.2152157E-2,0E0,0E0,5.503569E-4,8.006358E-3,0E0,0E0,5.2458405E-2,0E0,3.18408E-2,0E0,0E0,5.629219E-3,0E0,0E0,5.1949605E-2,3.7198365E-2,7.458985E-3,4.9048513E-2,1.2942886E-1,1.3291359E-1,9.1734886E-2,5.8630407E-2,0E0,0E0,0E0,0E0,0E0,0E0,0E0,0E0,0E0,0E0,0E0,0E0,0E0,0E0,0E0,0E0,0E0,0E0,0E0,0E0,0E0,0E0,0E0,0E0,0E0,0E0,0E0,0E0,0E0,0E0],"parents":[2147483647,0,0,1,1,2,2,3,3,4,4,5,5,6,6,7,7,8,8,9,9,11,11,12,12,13,13,14,14,15,15,17,17,18,18,19,19,20,20,21,21,22,22,23,23,25,25,26,26,27,27,28,28,29,29,30,30,33,33,34,34,37,37,39,39,42,42,45,45,46,46,47,47,48,48,49,49,50,50,51,51,52,52],"right_children":[2,4,6,8,10,12,14,16,18,20,-1,22,24,26,28,30,-1,32,34,36,38,40,42,44,-1,46,48,50,52,54,56,-1,-1,58,60,-1,-1,62,-1,64,-1,-1,66,-1,-1,68,70,72,74,76,78,80,82,-1,-1,-1,-1,-1,-1,-1,-1,-1,-1,-1,-1,-1,-1,-1,-1,-1,-1,-1,-1,-1,-1,-1,-1,-1,-1,-1,-1,-1,-1],"split_conditions":[-4.5553356E-1,-2.2631527E-1,-3.422174E-1,-7.793253E-1,8.1348264E-1,1.1417794E-1,-4.475255E-2,-5.577179E-1,-6.031549E-1,-8.1577003E-1,-3.8508426E-2,-2.3830509E-1,-3.2573745E-1,-1.1313255E0,-2.026704E-2,-3.5509542E-1,-2.5316253E-2,-3.6797342E-1,-1.0551165E0,-5.7428795E-1,7.746677E-2,-3.6797342E-1,-5.687646E-1,-1.21350124E-1,1.8455675E-2,1.6626669E0,-4.7218785E-1,1.7688699E-1,1.1434724E0,-9.34715E-1,-9.47581E-1,-2.3772211E-3,-6.3335025E-3,-1.1604279E0,6.2371624E-1,-2.2591393E-2,-2.7112097E-2,-6.794373E-1,-2.0410778E-2,-4.4055834E-1,1.9818863E-3,1.786704E-2,-3.6797342E-1,2.4819963E-2,2.0711908E-2,-1.1529192E0,-2.5105512E-1,1.6626669E0,-3.31918E-1,-9.0660334E-1,-2.1343726E-1,-1.1229333E0,3.2731274E-1,-1.4117929E-2,-8.7663615E-3,-1.8737754E-2,-1.311121E-2,-1.2819291E-3,-1.3382832E-4,1.0448397E-4,3.4077836E-3,-1.3165428E-2,-6.971928E-3,2.3138046E-3,1.0314556E-2,1.3469935E-3,7.3029115E-3,-3.205829E-3,2.0346392E-3,-1.2244311E-2,-3.802985E-3,1.1536231E-2,5.7567838E-3,1.0539803E-3,5.300335E-3,1.4074429E-2,2.219151E-2,1.4821231E-2,6.5522566E-3,5.0007496E-3,1.2649106E-2,3.834469E-4,5.646629E-3],"split_indices":[1,3,3,1,11,1,1,4,1,1,0,1,4,6,3,3,0,3,10,4,4,3,4,5,0,4,5,4,4,1,1,0,0,6,13,0,0,1,0,1,0,0,3,0,0,6,1,4,1,6,3,6,1,0,0,0,0,0,0,0,0,0,0,0,0,0,0,0,0,0,0,0,0,0,0,0,0,0,0,0,0,0,0],"split_type":[0,0,0,0,0,0,0,0,0,0,0,0,0,0,0,0,0,0,0,0,0,0,0,0,0,0,0,0,0,0,0,0,0,0,0,0,0,0,0,0,0,0,0,0,0,0,0,0,0,0,0,0,0,0,0,0,0,0,0,0,0,0,0,0,0,0,0,0,0,0,0,0,0,0,0,0,0,0,0,0,0,0,0],"sum_hessian":[1.075E3,4.48E2,6.27E2,1.74E2,2.74E2,3.17E2,3.1E2,1.58E2,1.6E1,2.45E2,2.9E1,5.4E1,2.63E2,7.2E1,2.38E2,1.52E2,6E0,5E0,1.1E1,2.07E2,3.8E1,3.2E1,2.2E1,2.27E2,3.6E1,2.7E1,4.5E1,9.4E1,1.44E2,9.5E1,5.7E1,3E0,2E0,4E0,7E0,8.5E1,1.22E2,2.3E1,1.5E1,3E1,2E0,1.7E1,5E0,1.72E2,5.5E1,1.7E1,1E1,1E1,3.5E1,3.9E1,5.5E1,8.2E1,6.2E1,8.4E1,1.1E1,3.8E1,1.9E1,2E0,2E0,3E0,4E0,1.2E1,1.1E1,2E0,2.8E1,1E0,4E0,8E0,9E0,7E0,3E0,5E0,5E0,1E1,2.5E1,1.8E1,2.1E1,4.7E1,8E0,6E0,7.6E1,6E0,5.6E1],"tree_param":{"num_deleted":"0","num_feature":"14","num_nodes":"83","size_leaf_vector":"1"}},{"base_weights":[-1.2242099E-2,-4.104371E-1,2.9669988E-1,-3.0748868E-1,-5.1168245E-1,4.1196397E-1,1.8232918E-1,-3.2170618E-1,1.903239E-2,-4.6916622E-1,-7.654465E-1,2.072897E-1,4.4000223E-1,5.3864114E-2,2.3076147E-1,-2.9429907E-1,-2.3592515E-2,3.6106617E-3,-9.937078E-3,-4.9301156E-1,-2.1917698E-1,-4.0591087E-2,-2.1072717E-2,1.1250796E-1,2.4050723E-1,4.480439E-1,1.4216894E-2,-6.167598E-2,1.041218E-1,2.7059245E-1,1.4302774E-1,-3.2739416E-1,-2.4030276E-1,-2.2174086E-2,1.8930495E-3,-2.6978886E-2,-4.466357E-1,-7.4585155E-3,-1.3144711E-2,1.6861877E-3,1.2489243E-1,2.4752693E-1,1.2743891E-3,2.3092505E-2,1.9599153E-2,-1.2725638E-1,1.8738013E-2,-6.1249554E-2,1.1373151E-1,3.2585746E-1,2.3693812E-1,1.2763448E-2,1.0165299E-1,-1.38153685E-2,-1.9137284E-2,-1.2264359E-2,-4.2761746E-3,-5.4782233E-4,-2.2369982E-3,-1.7020306E-2,-2.4440864E-2,6.5882006E-3,1.5762032E-3,9.615767E-3,1.4252901E-2,-2.4221202E-3,-8.090957E-3,5.195723E-3,-1.5332116E-3,-4.5164507E-3,6.4972043E-4,-2.027316E-3,6.295518E-3,1.8423067E-2,1.3980681E-2,1.2832913E-2,7.261233E-3,1.9668953E-3,5.4240297E-3],"categories":[],"categories_nodes":[],"categories_segments":[],"categories_sizes":[],"default_left":[0,0,0,0,0,0,0,0,0,0,0,0,0,0,0,0,0,0,0,0,0,0,0,0,0,0,0,0,0,0,0,0,0,0,0,0,0,0,0,0,0,0,0,0,0,0,0,0,0,0,0,0,0,0,0,0,0,0,0,0,0,0,0,0,0,0,0,0,0,0,0,0,0,0,0,0,0,0,0],"id":20,"left_children":[1,3,5,7,9,11,13,15,17,19,21,23,25,27,29,31,-1,-1,33,35,37,-1,-1,39,41,43,-1,45,47,49,51,53,55,57,-1,-1,59,-1,-1,-1,61,63,-1,-1,-1,65,67,69,71,73,75,-1,77,-1,-1,-1,-1,-1,-1,-1,-1,-1,-1,-1,-1,-1,-1,-1,-1,-1,-1,-1,-1,-1,-1,-1,-1,-1,-1],"loss_changes":[1.3544286E2,4.856148E0,8.098248E0,1.124918E0,2.2410507E0,1.6763153E0,1.9350119E0,8.1170464E-1,1.7664416E-2,1.1378098E0,1.8429184E-1,9.572923E-2,2.1059036E-1,5.1161146E-1,7.545538E-1,2.7515602E-1,0E0,0E0,5.518776E-3,1.6931915E-1,2.1993935E-2,0E0,0E0,7.4965656E-3,3.595352E-2,1.6330719E-2,0E0,1.4477123E-1,1.039055E-1,2.1107674E-1,3.130597E-1,2.33572E-1,3.9969444E-2,1.2817602E-3,0E0,0E0,2.8617668E-1,0E0,0E0,0E0,2.2621453E-3,1.1271238E-3,0E0,0E0,0E0,3.3021495E-2,5.7889253E-2,9.809667E-3,1.1408281E-1,7.303238E-3,1.4358664E-1,0E0,1.9133031E-2,0E0,0E0,0E0,0E0,0E0,0E0,0E0,0E0,0E0,0E0,0E0,0E0,0E0,0E0,0E0,0E0,0E0,0E0,0E0,0E0,0E0,0E0,0E0,0E0,0E0,0E0],"parents":[2147483647,0,0,1,1,2,2,3,3,4,4,5,5,6,6,7,7,8,8,9,9,10,10,11,11,12,12,13,13,14,14,15,15,18,18,19,19,20,20,23,23,24,24,25,25,27,27,28,28,29,29,30,30,31,31,32,32,33,33,36,36,40,40,41,41,45,45,46,46,47,47,48,48,49,49,50,50,52,52],"right_children":[2,4,6,8,10,12,14,16,18,20,22,24,26,28,30,32,-1,-1,34,36,38,-1,-1,40,42,44,-1,46,48,50,52,54,56,58,-1,-1,60,-1,-1,-1,62,64,-1,-1,-1,66,68,70,72,74,76,-1,78,-1,-1,-1,-1,-1,-1,-1,-1,-1,-1,-1,-1,-1,-1,-1,-1,-1,-1,-1,-1,-1,-1,-1,-1,-1,-1],"split_conditions":[-4.5553356E-1,-1.3616917E-1,-3.422174E-1,-5.6006265E-1,8.1348264E-1,-1.3025476E-1,1.1274697E-1,-5.577179E-1,-4.323635E-1,-6.794373E-1,2.9501674E-1,4.6841538E-1,1.7688699E-1,-8.0650413E-1,1.231846E0,-9.925368E-1,-2.3592515E-2,3.6106617E-3,-5.7428795E-1,-5.178056E-2,-5.7428795E-1,-4.0591087E-2,-2.1072717E-2,-5.178056E-2,1.031961E0,-1.21350124E-1,1.4216894E-2,-2.806992E-1,-5.178056E-2,-1.2329116E-1,-2.1343726E-1,-3.5509542E-1,-1.470359E-1,-4.791658E-1,1.8930495E-3,-2.6978886E-2,-5.7428795E-1,-7.4585155E-3,-1.3144711E-2,1.6861877E-3,-1.4168848E-1,-4.2616263E-1,1.2743891E-3,2.3092505E-2,1.9599153E-2,-7.166355E-2,-1.619252E-1,-1.16275825E-1,-3.7412068E-1,1.7688699E-1,1.7688699E-1,1.2763448E-2,4.5998278E-1,-1.38153685E-2,-1.9137284E-2,-1.2264359E-2,-4.2761746E-3,-5.4782233E-4,-2.2369982E-3,-1.7020306E-2,-2.4440864E-2,6.5882006E-3,1.5762032E-3,9.615767E-3,1.4252901E-2,-2.4221202E-3,-8.090957E-3,5.195723E-3,-1.5332116E-3,-4.5164507E-3,6.4972043E-4,-2.027316E-3,6.295518E-3,1.8423067E-2,1.3980681E-2,1.2832913E-2,7.261233E-3,1.9668953E-3,5.4240297E-3],"split_indices":[1,3,3,1,11,1,0,4,3,1,2,2,4,5,4,1,0,0,4,2,4,0,0,2,2,5,0,13,2,3,3,3,13,1,0,0,4,0,0,0,0,13,0,0,0,4,3,0,1,4,4,0,1,0,0,0,0,0,0,0,0,0,0,0,0,0,0,0,0,0,0,0,0,0,0,0,0,0,0],"split_type":[0,0,0,0,0,0,0,0,0,0,0,0,0,0,0,0,0,0,0,0,0,0,0,0,0,0,0,0,0,0,0,0,0,0,0,0,0,0,0,0,0,0,0,0,0,0,0,0,0,0,0,0,0,0,0,0,0,0,0,0,0,0,0,0,0,0,0,0,0,0,0,0,0,0,0,0,0,0,0],"sum_hessian":[1.099E3,4.8E2,6.19E2,2.4E2,2.4E2,3.07E2,3.12E2,2.3E2,1E1,2.08E2,3.2E1,3.8E1,2.69E2,8.6E1,2.26E2,1.97E2,3.3E1,3E0,7E0,1.89E2,1.9E1,2.7E1,5E0,1.1E1,2.7E1,2.54E2,1.5E1,2.6E1,6E1,1.54E2,7.2E1,1.19E2,7.8E1,6E0,1E0,8.9E1,1E2,9E0,1E1,2E0,9E0,2.6E1,1E0,1.98E2,5.6E1,1.4E1,1.2E1,3E0,5.7E1,5.5E1,9.9E1,1.8E1,5.4E1,6.5E1,5.4E1,7.5E1,3E0,5E0,1E0,3.1E1,6.9E1,8E0,1E0,1.3E1,1.3E1,5E0,9E0,4E0,8E0,2E0,1E0,4E0,5.3E1,2.5E1,3E1,8E1,1.9E1,6E0,4.8E1],"tree_param":{"num_deleted":"0","num_feature":"14","num_nodes":"79","size_leaf_vector":"1"}},{"base_weights":[4.8071267E-3,-3.9626718E-1,2.7842978E-1,-3.4027657E-1,-5.4697406E-1,1.2558892E-1,3.468039E-1,-3.9441133E-1,-2.5065485E-1,-3.5124928E-2,-4.9251115E-1,1.7285189E-1,6.8959366E-3,4.249328E-1,2.3757428E-1,-3.5041064E-1,-5.120592E-1,-2.5591773E-1,-7.421465E-2,-6.8995417E-3,-2.4747204E-2,-2.4133874E-3,2.082198E-1,-1.2205132E-1,7.284592E-2,3.4034038E-1,4.389575E-1,1.180604E-1,2.8647733E-1,-2.57363E-1,-3.8365915E-1,-2.6838629E-2,-1.6717149E-2,-1.4018001E-2,-2.2398399E-1,-4.7343536E-3,-1.4502009E-3,2.3347426E-2,-8.788053E-2,1.5875252E-1,2.3830603E-1,-3.70306E-2,-9.412366E-3,8.772507E-3,1.12526275E-1,1.3105917E-2,1.9241305E-2,2.2651367E-2,1.8999092E-2,8.602975E-3,5.202966E-3,3.2974726E-1,2.5516236E-1,-1.3227581E-2,-6.1466633E-3,-2.0522078E-2,-1.3969764E-2,-3.2182396E-3,-1.1284248E-2,-1.8647313E-4,5.2661994E-3,-6.409481E-3,-2.4207831E-4,9.584407E-3,4.045037E-3,1.4021182E-2,8.6778095E-3,-4.2805513E-3,-7.0920587E-4,-2.7815818E-3,3.2522958E-3,7.6528722E-3,4.1347304E-3,1.3097971E-2,1.8723847E-2,8.439934E-3,1.3316119E-2],"categories":[],"categories_nodes":[],"categories_segments":[],"categories_sizes":[],"default_left":[0,0,0,0,0,0,0,0,0,0,0,0,0,0,0,0,0,0,0,0,0,0,0,0,0,0,0,0,0,0,0,0,0,0,0,0,0,0,0,0,0,0,0,0,0,0,0,0,0,0,0,0,0,0,0,0,0,0,0,0,0,0,0,0,0,0,0,0,0,0,0,0,0,0,0,0,0],"id":21,"left_children":[1,3,5,7,9,11,13,15,17,-1,19,21,23,25,27,29,31,33,35,-1,-1,37,39,41,43,45,47,49,51,53,55,-1,-1,-1,57,-1,-1,59,61,63,65,67,-1,69,71,-1,-1,-1,-1,-1,-1,73,75,-1,-1,-1,-1,-1,-1,-1,-1,-1,-1,-1,-1,-1,-1,-1,-1,-1,-1,-1,-1,-1,-1,-1,-1],"loss_changes":[1.1852304E2,3.5097961E0,6.665573E0,1.4633713E0,6.450386E-1,1.1207643E0,3.6796074E0,8.507099E-1,9.6152306E-2,0E0,9.326935E-3,8.869257E-1,5.0212693E-1,1.5550613E-1,1.0591173E0,3.5912895E-1,4.8915863E-2,3.08671E-2,1.881551E-3,0E0,0E0,5.709436E-2,1.3927412E-1,1.0558972E-1,9.8168656E-2,4.1800022E-2,7.923126E-3,2.4434209E-2,9.471989E-2,8.064985E-3,1.8411446E-1,0E0,0E0,0E0,9.498596E-4,0E0,0E0,4.47862E-2,1.9462708E-2,1.0756898E-1,1.4768267E-1,9.884602E-3,0E0,6.1606463E-2,1.6361654E-2,0E0,0E0,0E0,0E0,0E0,0E0,5.9573174E-2,3.311491E-2,0E0,0E0,0E0,0E0,0E0,0E0,0E0,0E0,0E0,0E0,0E0,0E0,0E0,0E0,0E0,0E0,0E0,0E0,0E0,0E0,0E0,0E0,0E0,0E0],"parents":[2147483647,0,0,1,1,2,2,3,3,4,4,5,5,6,6,7,7,8,8,10,10,11,11,12,12,13,13,14,14,15,15,16,16,17,17,18,18,21,21,22,22,23,23,24,24,25,25,26,26,27,27,28,28,29,29,30,30,34,34,37,37,38,38,39,39,40,40,41,41,43,43,44,44,51,51,52,52],"right_children":[2,4,6,8,10,12,14,16,18,-1,20,22,24,26,28,30,32,34,36,-1,-1,38,40,42,44,46,48,50,52,54,56,-1,-1,-1,58,-1,-1,60,62,64,66,68,-1,70,72,-1,-1,-1,-1,-1,-1,74,76,-1,-1,-1,-1,-1,-1,-1,-1,-1,-1,-1,-1,-1,-1,-1,-1,-1,-1,-1,-1,-1,-1,-1,-1],"split_conditions":[-5.5263484E-1,4.3599915E-2,5.2383345E-1,-6.848238E-1,-5.965846E-1,7.4026823E-1,-3.2573745E-1,-5.7428795E-1,-1.470359E-1,-3.5124928E-2,-5.8978164E-1,-4.053531E-1,-3.6630172E-1,-9.788458E-1,-9.523257E-1,9.0103567E-1,-1.1377054E0,-9.6857345E-1,-8.387029E-1,-6.8995417E-3,-2.4747204E-2,-1.1388832E0,-1.7759201E-1,1.728947E0,-1.009683E0,5.255193E-1,1.762437E-2,-2.373639E-1,-2.8701037E-1,-8.012163E-1,-8.221303E-1,-2.6838629E-2,-1.6717149E-2,-1.4018001E-2,-6.736269E-1,-4.7343536E-3,-1.4502009E-3,-1.0440152E0,-8.414907E-1,1.2258413E-1,-5.687646E-1,-7.7929235E-1,-9.412366E-3,1.9995137E-1,-1.1020757E0,1.3105917E-2,1.9241305E-2,2.2651367E-2,1.8999092E-2,8.602975E-3,5.202966E-3,-4.6685183E-1,-1.5040545E-1,-1.3227581E-2,-6.1466633E-3,-2.0522078E-2,-1.3969764E-2,-3.2182396E-3,-1.1284248E-2,-1.8647313E-4,5.2661994E-3,-6.409481E-3,-2.4207831E-4,9.584407E-3,4.045037E-3,1.4021182E-2,8.6778095E-3,-4.2805513E-3,-7.0920587E-4,-2.7815818E-3,3.2522958E-3,7.6528722E-3,4.1347304E-3,1.3097971E-2,1.8723847E-2,8.439934E-3,1.3316119E-2],"split_indices":[1,11,1,13,5,4,4,4,13,0,5,1,13,10,10,5,6,1,0,0,0,6,1,4,10,13,5,4,6,1,13,0,0,0,13,0,0,10,5,5,4,5,0,1,6,0,0,0,0,0,0,6,6,0,0,0,0,0,0,0,0,0,0,0,0,0,0,0,0,0,0,0,0,0,0,0,0],"split_type":[0,0,0,0,0,0,0,0,0,0,0,0,0,0,0,0,0,0,0,0,0,0,0,0,0,0,0,0,0,0,0,0,0,0,0,0,0,0,0,0,0,0,0,0,0,0,0,0,0,0,0,0,0,0,0,0,0,0,0,0,0,0,0,0,0,0,0,0,0,0,0,0,0,0,0,0,0],"sum_hessian":[1.078E3,4.37E2,6.41E2,3.21E2,1.16E2,1.99E2,4.42E2,1.98E2,1.23E2,2.7E1,8.9E1,1.42E2,5.7E1,2.56E2,1.86E2,1.47E2,5.1E1,1.19E2,4E0,1E0,8.8E1,2.4E1,1.18E2,1.9E1,3.8E1,4E1,2.16E2,5.5E1,1.31E2,4.1E1,1.06E2,4.3E1,8E0,6.3E1,5.6E1,2E0,2E0,1.9E1,5E0,4.7E1,7.1E1,9E0,1E1,1.5E1,2.3E1,1.7E1,2.3E1,1.69E2,4.7E1,9E0,4.6E1,5.1E1,8E1,3.8E1,3E0,8.2E1,2.4E1,1E0,5.5E1,1.5E1,4E0,3E0,2E0,3.2E1,1.5E1,4.1E1,3E1,2E0,7E0,7E0,8E0,8E0,1.5E1,2.3E1,2.8E1,1.1E1,6.9E1],"tree_param":{"num_deleted":"0","num_feature":"14","num_nodes":"77","size_leaf_vector":"1"}},{"base_weights":[-3.5397294E-3,-3.6488113E-1,2.6567745E-1,-2.6796404E-1,-4.564194E-1,3.7311488E-1,1.6190022E-1,-2.8366813E-1,5.121928E-3,-5.0849956E-1,-3.0709738E-1,1.962551E-1,3.9762282E-1,-3.0524866E-3,1.9528775E-1,-2.3748264E-1,-3.2801422E-1,-1.3388352E-2,3.564282E-3,-6.18492E-1,-2.1864591E-2,-1.9225292E-2,-2.4051055E-1,1.2521516E-1,2.242268E-1,4.0798223E-1,1.5983306E-2,-1.2616624E-1,6.945714E-2,1.3783997E-1,2.4781169E-1,-2.526635E-1,-1.285412E-1,-1.7909402E-2,-1.166607E-2,-3.0486107E-2,2.4154246E-2,-2.6858712E-2,-3.9140727E-2,-1.2662965E-2,-6.7278445E-3,6.558242E-3,1.3454795E-3,8.237705E-3,1.2842827E-2,2.1185676E-2,1.7647056E-2,-1.0266781E-2,-5.627535E-2,1.2347034E-1,3.0140866E-2,1.6061482E-1,4.9227018E-2,1.4582847E-2,2.0291674E-1,-2.4319287E-2,-1.210327E-2,-7.014721E-3,-1.7381748E-3,-1.73136E-3,-6.0209434E-4,1.5685996E-3,6.252527E-5,8.952022E-5,-3.7914768E-3,8.969641E-3,2.9552192E-3,-3.909926E-3,2.2830362E-3,6.869656E-3,9.957593E-3,-1.7247841E-3,4.0127374E-3,2.952602E-3,1.05430735E-2],"categories":[],"categories_nodes":[],"categories_segments":[],"categories_sizes":[],"default_left":[0,0,0,0,0,0,0,0,0,0,0,0,0,0,0,0,0,0,0,0,0,0,0,0,0,0,0,0,0,0,0,0,0,0,0,0,0,0,0,0,0,0,0,0,0,0,0,0,0,0,0,0,0,0,0,0,0,0,0,0,0,0,0,0,0,0,0,0,0,0,0,0,0,0,0],"id":22,"left_children":[1,3,5,7,9,11,13,15,17,19,21,23,25,27,29,31,33,35,-1,37,-1,-1,39,41,43,45,-1,47,49,51,53,55,57,-1,-1,59,61,-1,-1,-1,-1,-1,-1,-1,-1,-1,-1,-1,63,65,67,69,71,-1,73,-1,-1,-1,-1,-1,-1,-1,-1,-1,-1,-1,-1,-1,-1,-1,-1,-1,-1,-1,-1],"loss_changes":[1.0253207E2,3.8699303E0,6.6739273E0,9.492264E-1,1.6324806E0,1.2049675E0,1.7023716E0,3.501644E-1,1.6875613E-2,1.0531998E0,2.270937E-1,4.7433496E-2,7.875061E-2,